<?xml version="1.0"?>
<opencv_storage>
<ann type_id="opencv-ml-ann-mlp">
  <layer_sizes type_id="opencv-matrix">
    <rows>1</rows>
    <cols>3</cols>
    <dt>i</dt>
    <data>
      140 40 54</data></layer_sizes>
  <activation_function>SIGMOID_SYM</activation_function>
  <f_param1>1.</f_param1>
  <f_param2>1.</f_param2>
  <min_val>-9.4999999999999996e-001</min_val>
  <max_val>9.4999999999999996e-001</max_val>
  <min_val1>-9.7999999999999998e-001</min_val1>
  <max_val1>9.7999999999999998e-001</max_val1>
  <training_params>
    <train_method>RPROP</train_method>
    <dw0>1.0000000000000001e-001</dw0>
    <dw_plus>1.2000000000000000e+000</dw_plus>
    <dw_minus>5.0000000000000000e-001</dw_minus>
    <dw_min>1.1920928955078125e-007</dw_min>
    <dw_max>50.</dw_max>
    <term_criteria><epsilon>1.0000000000000000e-002</epsilon>
      <iterations>1000</iterations></term_criteria></training_params>
  <input_scale>
    6.5655909985578331e+000 -2.3128187070302917e+000
    6.0755345866079136e+000 -2.3249178515013531e+000
    5.8877116043586764e+000 -2.2447448673424435e+000
    5.2279819213042629e+000 -2.0783745027801284e+000
    3.6787928719522451e+000 -2.0427679433275556e+000
    3.4031352436915272e+000 -2.3625483166871937e+000
    3.6644997928055516e+000 -2.9485331855791141e+000
    3.6955087150792778e+000 -2.9974348969328517e+000
    5.2168545907972073e+000 -4.1068286253628079e+000
    5.7702838725599630e+000 -4.4554690290344068e+000
    5.7271623214359835e+000 -4.5228079045227121e+000
    5.2874401912979652e+000 -4.3690586039794885e+000
    5.0611961390888895e+000 -4.3464577438158001e+000
    4.8445164638359710e+000 -3.9776145304986299e+000
    4.5951555047692292e+000 -3.2903078879962040e+000
    4.8359991049042259e+000 -2.5640641093589736e+000
    6.1051333070479243e+000 -2.9248627433014590e-001
    1.0325725337271196e+001 -2.8069361382007041e-001
    1.2342083060508113e+001 -2.7822372016289970e-001
    1.1260644327137795e+001 -2.7871872650048546e-001
    6.0026855607066185e+000 -4.4918019315296727e+000
    6.2829019031047935e+000 -5.1221572584244059e+000
    6.3243862373607369e+000 -5.2291935701109065e+000
    6.3032335149039449e+000 -4.9704537643673854e+000
    6.5189763225655240e+000 -4.8868382035142890e+000
    6.6490705706711619e+000 -4.9214076900417787e+000
    6.6812252891099426e+000 -4.9577797957700822e+000
    6.6974442485344170e+000 -5.0053548724101313e+000
    5.8676092161894129e+000 -4.4643079701552706e+000
    5.6745084754882198e+000 -4.4488483676636417e+000
    5.7130865863733851e+000 -4.4431695740237060e+000
    5.7126244157434227e+000 -4.2670654774962609e+000
    5.8962559702048711e+000 -4.2399295796642642e+000
    5.9730447706638694e+000 -4.2985228148457644e+000
    5.9590451640423083e+000 -4.3788008706919497e+000
    5.8842350958618699e+000 -4.2975371886928260e+000
    5.4381727517738652e+000 -4.1156961354344519e+000
    5.2905570519173404e+000 -4.1819583593313290e+000
    5.3397390182158331e+000 -4.1285644558674219e+000
    5.4942808709809432e+000 -3.9963961824515231e+000
    7.6056076059408417e-001 -8.7177170412537752e-001
    1.0363793013717258e-001 -2.6669903920136473e-001
    1.4524412387413303e-002 -6.9806135466353736e-001
    1.0582510472661882e-002 -1.4085319592574757e+000
    1.0046053375694820e-002 -1.5906403098958064e+000
    1.1125350911599085e-002 -1.9285837542308943e+000
    1.1490513265472430e-002 -1.6515101587592451e+000
    1.5869181416586234e-002 -6.6834285590735387e-001
    9.9648365856579130e-002 -1.2331289664192274e-001
    2.4029535452612030e+000 -1.7379588981168534e-001
    6.2180425277722740e-001 -8.0435278798882837e-001
    6.6807946532283294e-002 -2.6028403946480921e-001
    1.2368703596835513e-002 -9.4030635712756439e-001
    1.0436869948157863e-002 -1.7507753728948745e+000
    1.2201917977075078e-002 -1.4924089016961546e+000
    1.2146208164486198e-002 -1.7112462270476825e+000
    1.0890594394483009e-002 -1.9073448009752825e+000
    1.3624676104957396e-002 -9.1877531406921553e-001
    8.6249686466530293e-002 -1.5553838939654346e-001
    2.1490287659602663e+000 -1.5824291384317440e-001
    7.2141355906382076e-001 -9.0387542503189067e-001
    5.7325093829858779e-002 -2.5352675418105058e-001
    1.1262564032496470e-002 -9.1124676497545576e-001
    1.0401563535139099e-002 -1.4675896496826297e+000
    1.0856549917206412e-002 -8.0761289478327358e-001
    1.0159344725656766e-002 -8.7958901100065057e-001
    1.0267961042639462e-002 -1.3843732340684243e+000
    1.1942184528077026e-002 -8.3913173436158472e-001
    6.5731339925484689e-002 -1.7017776237033311e-001
    2.3302950359689234e+000 -1.6467797758984715e-001
    8.0616636450692525e-001 -9.0983843057595404e-001
    5.7781273149947833e-002 -2.4896056148868642e-001
    1.1264782541961581e-002 -8.9864896093909563e-001
    1.0241440175244629e-002 -1.5031926981208537e+000
    1.0443747249827030e-002 -1.0363373585116924e+000
    1.0337518738955578e-002 -1.0714997808315416e+000
    1.0144490056946603e-002 -1.2583672595966244e+000
    1.2346241934683228e-002 -7.4784813070192069e-001
    7.0794031900518695e-002 -1.6019759251472288e-001
    2.1193300201256546e+000 -1.6215777592481237e-001
    8.1212002348973678e-001 -8.1545012653493110e-001
    6.8531443210626097e-002 -2.3606337819245679e-001
    1.1780539030235144e-002 -8.3693524995774127e-001
    9.8702170836426732e-003 -1.5676689607733001e+000
    1.0397945339099454e-002 -1.6146334481792801e+000
    1.1569197827346020e-002 -1.9945773468702808e+000
    1.1281708339259230e-002 -1.7966824283669605e+000
    1.3492551026204587e-002 -7.1658017964934173e-001
    8.2593502086150364e-002 -1.3995930823759367e-001
    2.3672716400993705e+000 -1.6791064765318342e-001
    7.7458716335384914e-001 -8.4736943302162926e-001
    6.7630106434671128e-002 -2.3939594384696491e-001
    1.1958864564046587e-002 -7.7417110972866454e-001
    1.0051074189042844e-002 -1.4023361832468528e+000
    1.1343886850523659e-002 -1.3396257459266019e+000
    1.0864129861897522e-002 -1.5652564764690506e+000
    1.0972333619862691e-002 -1.8086880128281861e+000
    1.2973274945485468e-002 -8.1726086087178507e-001
    8.0692997195825705e-002 -1.5560611734595495e-001
    2.2404572584692151e+000 -1.7455316103760329e-001
    7.9800772134156617e-001 -8.6345243064719102e-001
    6.0895252614874648e-002 -2.4798531724869166e-001
    1.1314450690541251e-002 -8.3841047001457580e-001
    9.7365023266816012e-003 -1.2179046049868092e+000
    1.1783802270296205e-002 -7.8236243031657660e-001
    1.0591593411721776e-002 -9.5341805468668350e-001
    1.0393956790260372e-002 -1.5084785218364585e+000
    1.1760709124860401e-002 -8.7336860557960427e-001
    6.2488432214708289e-002 -1.8393798765416536e-001
    2.3393434187626299e+000 -1.7001160947733995e-001
    7.3857597745470638e-001 -7.6132221022747826e-001
    5.6930070509083018e-002 -2.5704954973447680e-001
    1.1292260184907324e-002 -1.0177516475325870e+000
    1.0667152693339052e-002 -1.5830810287718415e+000
    1.1196782332178268e-002 -8.4557685983488939e-001
    9.8458618450412861e-003 -9.1785646144459776e-001
    1.0125678780144524e-002 -1.4517848756823826e+000
    1.1742322758187042e-002 -8.9317872541109067e-001
    6.5494023153323824e-002 -1.8498547422489145e-001
    2.3460660515940233e+000 -1.6620185254705525e-001
    5.0682902561219256e-001 -5.6930934433405866e-001
    7.0142742285417295e-002 -2.5639858805395344e-001
    1.2142954238244288e-002 -9.9904031878661459e-001
    1.0532346050548088e-002 -1.8018875824712499e+000
    1.2388368073005553e-002 -1.5278212701796219e+000
    1.2818101514950645e-002 -1.6625408685484988e+000
    9.6296306366289164e-003 -1.5363083480969857e+000
    1.4113264971139603e-002 -8.5548032139186669e-001
    8.7500061100891230e-002 -1.4767830064532725e-001
    2.6806185075037976e+000 -1.4359621040022089e-001
    6.4395321675232564e-001 -7.7547428466518509e-001
    9.6598861798192992e-002 -2.4400862376924462e-001
    1.4834128355656787e-002 -6.6758107302884862e-001
    1.1225783828273404e-002 -1.4417884723228618e+000
    1.0131548077828394e-002 -1.6019902699644972e+000
    9.9968638390553234e-003 -1.4780958881210113e+000
    1.1098036469630370e-002 -1.2878311791149353e+000
    1.6561678186134850e-002 -5.7770809390860545e-001
    1.0354265516283510e-001 -1.1890873930451916e-001
    2.3201543074577429e+000 -1.4169499347586983e-001</input_scale>
  <output_scale>
    5.2631578947368418e-001 4.9999999999999994e-001
    5.2631578947368418e-001 4.9999999999999994e-001
    5.2631578947368418e-001 4.9999999999999994e-001
    5.2631578947368418e-001 4.9999999999999994e-001
    5.2631578947368418e-001 4.9999999999999994e-001
    5.2631578947368418e-001 4.9999999999999994e-001
    5.2631578947368418e-001 4.9999999999999994e-001
    5.2631578947368418e-001 4.9999999999999994e-001
    5.2631578947368418e-001 4.9999999999999994e-001
    5.2631578947368418e-001 4.9999999999999994e-001
    5.2631578947368418e-001 4.9999999999999994e-001
    5.2631578947368418e-001 4.9999999999999994e-001
    5.2631578947368418e-001 4.9999999999999994e-001
    5.2631578947368418e-001 4.9999999999999994e-001
    5.2631578947368418e-001 4.9999999999999994e-001
    5.2631578947368418e-001 4.9999999999999994e-001
    5.2631578947368418e-001 4.9999999999999994e-001
    5.2631578947368418e-001 4.9999999999999994e-001
    5.2631578947368418e-001 4.9999999999999994e-001
    5.2631578947368418e-001 4.9999999999999994e-001
    5.2631578947368418e-001 4.9999999999999994e-001
    5.2631578947368418e-001 4.9999999999999994e-001
    5.2631578947368418e-001 4.9999999999999994e-001
    5.2631578947368418e-001 4.9999999999999994e-001
    5.2631578947368418e-001 4.9999999999999994e-001
    5.2631578947368418e-001 4.9999999999999994e-001
    5.2631578947368418e-001 4.9999999999999994e-001
    5.2631578947368418e-001 4.9999999999999994e-001
    5.2631578947368418e-001 4.9999999999999994e-001
    5.2631578947368418e-001 4.9999999999999994e-001
    5.2631578947368418e-001 4.9999999999999994e-001
    5.2631578947368418e-001 4.9999999999999994e-001
    5.2631578947368418e-001 4.9999999999999994e-001
    5.2631578947368418e-001 4.9999999999999994e-001
    5.2631578947368418e-001 4.9999999999999994e-001
    5.2631578947368418e-001 4.9999999999999994e-001
    5.2631578947368418e-001 4.9999999999999994e-001
    5.2631578947368418e-001 4.9999999999999994e-001
    5.2631578947368418e-001 4.9999999999999994e-001
    5.2631578947368418e-001 4.9999999999999994e-001
    5.2631578947368418e-001 4.9999999999999994e-001
    5.2631578947368418e-001 4.9999999999999994e-001
    5.2631578947368418e-001 4.9999999999999994e-001
    5.2631578947368418e-001 4.9999999999999994e-001
    5.2631578947368418e-001 4.9999999999999994e-001
    5.2631578947368418e-001 4.9999999999999994e-001
    5.2631578947368418e-001 4.9999999999999994e-001
    5.2631578947368418e-001 4.9999999999999994e-001
    5.2631578947368418e-001 4.9999999999999994e-001
    5.2631578947368418e-001 4.9999999999999994e-001
    5.2631578947368418e-001 4.9999999999999994e-001
    5.2631578947368418e-001 4.9999999999999994e-001
    5.2631578947368418e-001 4.9999999999999994e-001
    5.2631578947368418e-001 4.9999999999999994e-001</output_scale>
  <inv_output_scale>
    1.8999999999999999e+000 -9.4999999999999996e-001
    1.8999999999999999e+000 -9.4999999999999996e-001
    1.8999999999999999e+000 -9.4999999999999996e-001
    1.8999999999999999e+000 -9.4999999999999996e-001
    1.8999999999999999e+000 -9.4999999999999996e-001
    1.8999999999999999e+000 -9.4999999999999996e-001
    1.8999999999999999e+000 -9.4999999999999996e-001
    1.8999999999999999e+000 -9.4999999999999996e-001
    1.8999999999999999e+000 -9.4999999999999996e-001
    1.8999999999999999e+000 -9.4999999999999996e-001
    1.8999999999999999e+000 -9.4999999999999996e-001
    1.8999999999999999e+000 -9.4999999999999996e-001
    1.8999999999999999e+000 -9.4999999999999996e-001
    1.8999999999999999e+000 -9.4999999999999996e-001
    1.8999999999999999e+000 -9.4999999999999996e-001
    1.8999999999999999e+000 -9.4999999999999996e-001
    1.8999999999999999e+000 -9.4999999999999996e-001
    1.8999999999999999e+000 -9.4999999999999996e-001
    1.8999999999999999e+000 -9.4999999999999996e-001
    1.8999999999999999e+000 -9.4999999999999996e-001
    1.8999999999999999e+000 -9.4999999999999996e-001
    1.8999999999999999e+000 -9.4999999999999996e-001
    1.8999999999999999e+000 -9.4999999999999996e-001
    1.8999999999999999e+000 -9.4999999999999996e-001
    1.8999999999999999e+000 -9.4999999999999996e-001
    1.8999999999999999e+000 -9.4999999999999996e-001
    1.8999999999999999e+000 -9.4999999999999996e-001
    1.8999999999999999e+000 -9.4999999999999996e-001
    1.8999999999999999e+000 -9.4999999999999996e-001
    1.8999999999999999e+000 -9.4999999999999996e-001
    1.8999999999999999e+000 -9.4999999999999996e-001
    1.8999999999999999e+000 -9.4999999999999996e-001
    1.8999999999999999e+000 -9.4999999999999996e-001
    1.8999999999999999e+000 -9.4999999999999996e-001
    1.8999999999999999e+000 -9.4999999999999996e-001
    1.8999999999999999e+000 -9.4999999999999996e-001
    1.8999999999999999e+000 -9.4999999999999996e-001
    1.8999999999999999e+000 -9.4999999999999996e-001
    1.8999999999999999e+000 -9.4999999999999996e-001
    1.8999999999999999e+000 -9.4999999999999996e-001
    1.8999999999999999e+000 -9.4999999999999996e-001
    1.8999999999999999e+000 -9.4999999999999996e-001
    1.8999999999999999e+000 -9.4999999999999996e-001
    1.8999999999999999e+000 -9.4999999999999996e-001
    1.8999999999999999e+000 -9.4999999999999996e-001
    1.8999999999999999e+000 -9.4999999999999996e-001
    1.8999999999999999e+000 -9.4999999999999996e-001
    1.8999999999999999e+000 -9.4999999999999996e-001
    1.8999999999999999e+000 -9.4999999999999996e-001
    1.8999999999999999e+000 -9.4999999999999996e-001
    1.8999999999999999e+000 -9.4999999999999996e-001
    1.8999999999999999e+000 -9.4999999999999996e-001
    1.8999999999999999e+000 -9.4999999999999996e-001
    1.8999999999999999e+000 -9.4999999999999996e-001</inv_output_scale>
  <weights>
    <_>
      -4.4012810525743892e-002 1.2243532009280951e-001
      -1.6908122885518506e-001 -4.5771644300249048e-002
      -3.5409555927999881e-002 -3.5839376276903218e-001
      1.3827844028266814e-001 -1.9463270373174474e-001
      9.9343057907231455e-002 1.9542958333348671e-002
      -2.6944724816639798e-001 2.0884095919478797e-002
      -2.6382788748411542e-002 -2.3639215096448285e-001
      4.8514282668168138e-002 -7.0354879544132803e-002
      1.7596685129924943e-002 2.9839622792709655e-002
      -4.8473544493841260e-002 -2.1168042845126353e-001
      -1.8522347797684333e-001 2.2878478022135934e-001
      9.0343448224153272e-002 -9.9422281367907067e-002
      7.9518138641591241e-002 1.0406662897190513e-001
      8.2170210955026635e-002 -2.2626099443455380e-001
      -5.1020171285086825e-002 3.1963238974922964e-001
      -4.3156395608262930e-003 1.7405326143204364e-001
      1.5602237184094805e-001 -6.8927499231338674e-002
      1.4071399715766689e-001 1.2680344013727579e-001
      -2.6657155027363242e-002 6.0561545300589908e-002
      1.4636402839202067e-001 2.0101643327519475e-001
      -2.7897818032319759e-002 1.7510246339520813e-001
      -2.8097648403889574e-002 8.2244962554885170e-002
      -3.6980516094310789e-001 -5.8461996762909119e-001
      1.0249946179293531e-001 8.5610558521251184e-003
      1.1016840610553749e-001 1.4502378257144014e-001
      -5.1234002882196594e-001 9.5165016470778935e-002
      -9.3478924887765116e-002 -1.1601222212964363e-001
      3.9119321918734531e-002 7.1443521240918365e-002
      3.8928018208817874e-002 1.1907018490618182e-001
      -1.0013325716447316e-001 -3.4669011747844763e-001
      -1.7408936427034133e-001 3.0607434356613888e-001
      -1.4532934342319828e-001 2.2807821965071209e-002
      1.4938365706156825e-001 3.6307852505827722e-002
      3.6634162460605399e-002 -3.7990640548485699e-001
      -8.7424756401231860e-002 2.8993995465107603e-001
      1.0474026871975155e-001 1.3023045905869635e-001
      9.2348938665682612e-002 2.1229280951715990e-002
      4.8459075380656313e-001 2.3637839687066381e-001
      9.7466393776449889e-002 -5.6784151808709563e-002
      -1.7770788573497201e-001 1.4071488634361121e-001
      -2.0536368999969989e-001 1.6838168189487749e-002
      1.4451668579820453e-002 -1.7586128969151180e-001
      2.2215456419195870e-002 4.8795621206129389e-002
      1.2292599744723209e-001 -3.2028463894082226e-001
      1.4804291674537506e-001 2.4536223029573988e-002
      -1.1693200521863358e-001 1.2508300172137282e-001
      1.6908056279917172e-001 1.5956131496376358e-001
      -1.8530743325408525e-002 -1.8181666348145123e-001
      4.6702532853661764e-002 8.3246127789177962e-002
      -2.7337489348843776e-002 -2.0119619336134914e-001
      1.1802667543685838e-003 7.5481992167489298e-002
      -7.8654559339942887e-001 -1.1226016979794355e-001
      3.9797155053156558e-001 1.1005157776513418e-002
      3.7641659386311138e-001 -1.7275713702374226e-001
      4.5863264360954792e-001 1.5288545924699326e-001
      8.9752746816547560e-002 -3.1501603205335432e-002
      1.4052891935148265e-001 -1.2630597441488639e-001
      1.6334944384007349e-001 3.5221398799976311e-001
      -2.0097275140985588e-001 1.8552903908248675e-001
      -7.7060304114776657e-002 5.4061838011868514e-002
      -3.1493205487803444e-001 -1.4337140735209783e-001
      -4.3515949823398570e-002 -1.0005287546646371e-001
      -4.4873011118476447e-001 3.0741795956409240e-001
      -7.4489645797984810e-002 5.0377443118740872e-001
      2.4839245789309977e-001 -4.8124855838205787e-003
      -1.7851664721604374e-001 7.4322171392710107e-002
      -4.3485352369310164e-002 -5.3696489287349214e-002
      -1.3221771981627853e-001 -3.0732216731328343e-001
      -2.7832632497312770e-002 8.7154844912728235e-002
      7.5162424398995217e-002 -2.5340988466536685e-001
      -5.9786652331262319e-002 2.9794050656778809e-001
      -7.3156611269212779e-001 -1.1225451374460502e-005
      8.4627693360792822e-001 1.2647325438470570e-002
      9.8712987092786600e-002 3.8427155590662843e-001
      -7.8532891587826087e-002 -8.7373160831854091e-002
      1.2413360656047227e-001 -1.9765285967864651e-001
      4.7690531004734921e-001 -8.7126828337220255e-002
      2.8903721879718636e-001 2.9437774146596002e-001
      -1.5788775593059762e-001 2.3796770612393872e-001
      -2.3909210148909010e-002 -2.6507741426179704e-001
      -1.0745256390710192e-001 -1.4761329017004951e-001
      -1.8300758895818371e-002 -1.5763691021531143e-001
      7.2725581109842771e-002 4.6951314386441267e-001
      8.5241658278538357e-002 2.5925997231880621e-001
      1.0057005743014695e-001 1.2253616378670026e-001
      5.1213926240094611e-002 1.1827029088161507e-001
      1.0552798628159651e-001 1.7773253133657189e-002
      -1.5766766808131206e-002 -3.5453418222222460e-001
      1.2838984987152216e-001 1.3533869154999420e-001
      -1.4068275128493901e-001 -5.9214792962412513e-002
      -2.7841926868073807e-001 1.1898030772250942e-001
      5.5549473829027890e-002 6.9306763352182860e-002
      -2.1788219362625655e-001 9.5201396034523156e-002
      1.0150088011800590e-002 -2.5876667969234879e-001
      -5.0232143056567653e-002 -1.0110595526847929e-001
      7.6818809594630388e-002 -2.4417135086083677e-001
      6.6615039480118599e-002 1.7828671410111738e-001
      5.1791162284712344e-001 3.8025351433786281e-001
      -8.8153642955077036e-002 -3.2729484790355319e-002
      4.7754143126490545e-001 7.9766890905868276e-002
      -1.2475654883466431e-002 1.3977255039512625e-002
      1.6449126856558755e-001 6.9561081895914548e-002
      2.3343716970522177e-002 1.0433493287210044e-001
      -5.4279344153727815e-002 7.9006241284895320e-002
      6.8652238814544700e-002 1.3206416278551286e-001
      6.1145489941592149e-002 9.9483527165267593e-002
      1.3544174976734336e-001 1.0309056064562325e-001
      -2.0838666682966633e-001 -1.1859639372131782e-002
      -1.2030293529240014e-002 1.3498456330115791e-001
      1.0849238944653639e-002 -1.9395762605204020e-001
      -1.3767215885708442e-001 8.3497984771847680e-002
      -5.3285023107864815e-002 8.4190808477648260e-002
      7.0657953793160519e-002 -4.1310601517946357e-003
      -4.7167864361015159e-002 -3.8670734286101549e-001
      -4.4554105722646120e-002 -8.1274712012059006e-002
      8.4432421512633402e-002 -5.2168779603328719e-002
      8.3771888026906549e-002 1.4456541858752556e-001
      1.9299417310494871e-001 2.7355488866612276e-001
      2.1676592512097773e-001 2.1424004546690625e-001
      -2.4387741801238161e-001 1.2347520576383073e-001
      -1.1686583895076036e-001 -1.6981111531545717e-001
      6.5255151730588101e-002 2.2588140104580037e-001
      1.7373136063491695e-001 1.6533490404254997e-001
      2.8239459989039190e-001 3.3333580609268172e-002
      7.2974825150575212e-002 1.0671906383539570e-001
      -3.9486202335953756e-003 4.4895200189060160e-002
      2.2034846762157118e-001 3.4628544473730254e-002
      -9.9489370512059666e-002 1.7110563538593265e-001
      8.3515594748941852e-002 2.0747690449901895e-001
      7.2559084210958623e-003 -2.2103193970592197e-001
      9.8936268447989001e-002 6.5659461607783146e-002
      4.4944269679387118e-002 9.2233112508679160e-001
      4.3008823333428237e-001 5.1094415970857083e-003
      -1.6536842904151930e-002 -5.4574087396670501e-001
      -1.5946230591468666e-001 -1.8070889699593876e-001
      9.8708323947466217e-002 -9.0958641469613730e-002
      -1.8984043652575233e-001 1.9477116536910169e-001
      5.2417623366881427e-001 9.0828885170914142e-002
      -2.6763024693325183e-001 -9.1565275394483697e-002
      5.7068184605662631e-001 3.6742117320573442e-001
      -1.3318247180328829e-001 -1.3227691393312418e-001
      4.0791692500752902e-002 5.3021617252698838e-001
      5.4205413011451833e-002 3.7499396597665893e-002
      1.6123171300197592e-001 -3.0247342459340791e-002
      6.8714952702989981e-002 1.3625992381208965e-001
      -4.2379621811774504e-001 5.6808849114532337e-002
      1.6683368669517576e-001 9.9358831630918937e-003
      -1.1009282148844010e-001 -3.7893939488356952e-003
      4.3733637460500227e-002 1.3591795382068239e-001
      -3.3468867303345348e-002 -2.2182936398943401e-001
      -1.5151928317701607e-001 1.0956333670144108e-001
      -7.8885865502726332e-002 4.7217432899907064e-001
      3.0711229378162330e-001 1.5852834125815116e-001
      8.2033895568067880e-002 -4.2187080654246645e-001
      -1.4080000424604872e-001 -1.8693618696263489e-001
      7.3817351982324350e-002 -1.8921017929141809e-001
      1.2090854450232823e-001 1.7424913863533537e-001
      1.4625081151136002e-001 1.3975656692145342e-002
      1.4717011382253017e-001 1.4195808259131143e-002
      2.0525212461940862e-001 3.3139804973368509e-001
      -6.6539479927986867e-002 -1.7598373120677222e-002
      5.9551844702448141e-002 -4.3748933441608878e-002
      1.5998496180001712e-001 5.8215957130787421e-002
      -3.5222492721102544e-001 -6.8421287169218048e-001
      2.6703236516441758e-001 3.7495212118534615e-001
      -5.9449933034032409e-001 -1.4490036830915906e-001
      -2.0358504271419095e-001 -1.6959131499443283e-001
      -1.0272663588338364e-001 -2.2210397727195838e-001
      7.5909794339700997e-003 1.2321458698103285e-001
      -2.7575638991841765e-002 -7.0675677310170895e-002
      -1.3625199257832291e-001 2.5102446226826203e-001
      -1.1660396753125009e-001 2.3124025100999865e-001
      7.1977614778435325e-003 1.2013210999773270e-001
      -1.8929954625253231e-001 -2.5431361751845494e-001
      -4.3894471021830161e-001 1.9230365611082326e-001
      -2.2504541391058183e-001 2.1389702692001664e-001
      2.9859490043604486e-001 8.4816769680272214e-002
      3.0493221757737560e-001 6.9146008651326377e-002
      2.0817204254617094e-001 -2.0822453218219136e-001
      -1.1678501385329812e-002 -4.1293356423402709e-003
      9.3812722847851082e-002 7.0709996093656469e-002
      2.0110481706124728e-002 -6.2659456005726796e-002
      1.8659259853109600e-001 3.9017500445968384e-002
      2.5598894498355090e-001 3.1111025605018293e-002
      4.5442100143067682e-002 -2.3986506803116361e-001
      3.1268864609860553e-001 -2.0323759213070328e-001
      1.0344789638337548e-001 -5.7476342747816311e-001
      -1.1949650999615587e-001 1.5878308698601790e-001
      3.7373155967667472e-002 -1.1833591282993067e-001
      -3.4889406392888533e-001 6.5483602283929548e-002
      -5.3605028656316618e-002 1.0002446107580925e+000
      -2.3161006802049708e-001 1.1054963048996476e-001
      3.5480397939951419e-001 1.0123959161278200e-001
      -1.1853901898648279e-001 8.4545114918489969e-003
      6.9963483989956318e-002 -8.1888919743572264e-002
      -9.8146076615795788e-002 4.0070949973272790e-002
      1.4011753954293434e-002 -9.5316965490113967e-002
      -5.7703897147548415e-002 7.3211204934663016e-002
      -3.3057818613834243e-002 -3.4722978236344521e-001
      -1.9888393148741954e-001 -2.9444486551901361e-001
      1.3906380592884426e-001 1.1029350188415184e-001
      -3.3102398401105390e-002 -7.2077133170036986e-002
      1.3566880124940636e-001 3.4107817457270803e-002
      4.8267541054057483e-001 -2.9506506333905683e-004
      -8.2371078804961886e-003 -3.9147706848620994e-001
      3.0247055059211292e-001 -4.1280866614736766e-001
      8.4880569965956318e-002 -4.8145626533592450e-001
      -1.2922330999805393e-001 1.4760333949111371e-001
      -9.1590857331400224e-002 -1.9250377137818603e-001
      -4.1616100204503875e-001 2.3446495967972877e-001
      -3.0236278020744939e-002 2.3333346968429911e-001
      -2.6794971875173718e-001 3.8616703253569445e-002
      1.1857261029834629e-001 8.4639523461543506e-002
      5.7204761233337058e-002 -3.9163759687154753e-001
      6.4787543210802240e-002 4.3247601007375479e-002
      -4.4200919164185254e-002 -2.3440882953872336e-001
      -8.7497350261426139e-003 -1.4842788227811932e-001
      -1.9989611688174022e-001 -1.6139895874262768e-002
      -5.1268862593931819e-001 1.4612663127176512e-002
      -2.1075207973150278e-001 -2.8856830803294552e-002
      3.8844514017224489e-002 2.1385915762953671e-002
      1.2319764487867618e-001 9.1309844041893129e-002
      -6.1985372111083605e-002 6.3205001247866571e-002
      2.2153174392387073e-001 -5.2076386424518473e-001
      1.3752337052895870e-002 -9.8575047196858862e-002
      -5.0182755624713166e-002 3.7833971078684742e-001
      -8.7260023216438748e-002 -3.2841538950412093e-002
      -1.1315196185913914e-001 8.5520023292721039e-003
      4.5633333770723657e-002 2.2376250831284034e-001
      4.9308005205516543e-002 5.4171265563472529e-002
      -4.6941719067847679e-002 1.9726003044780627e-001
      -1.1925608005828410e-001 -1.5886649666890176e-001
      -5.9138172488783343e-002 1.9104571658450348e-001
      1.7244685707493052e-001 -1.6793980577250015e-002
      6.8960876785715622e-002 -9.5970950110801992e-002
      -1.6792608739343026e-001 -1.1941669429400649e-001
      -2.2427780510076534e-001 -1.4544486645634902e-001
      1.0103459994991029e-001 2.0720958308706300e-001
      -1.4950733252035944e-001 1.2015203070436065e-001
      8.6310543600328679e-002 5.1527984957462103e-001
      8.5406393924946158e-002 1.0395873108732805e-001
      2.9896788470605057e-001 4.7120246553552753e-001
      -3.3362453298642139e-002 -1.1567970697195003e-002
      1.6921271989936526e-001 -8.8783921812801120e-002
      3.6894994759285427e-002 3.9688112156942713e-002
      -1.8030819745370116e-002 1.4630350921116325e-001
      -5.9481121684367831e-002 2.4785598109987587e-002
      -1.5030422275160313e-001 2.8545643575180485e-001
      5.4008328619878677e-002 -1.3983741142285863e-001
      1.0067129631948367e-001 -2.5384120023618145e-001
      -6.1886602064768849e-002 4.6624883085447995e-002
      -1.6463145714123789e-001 -2.1974125359666843e-001
      3.1035513699090927e-001 3.0531967134789362e-001
      6.7820661461025833e-002 -4.2171927878198612e-001
      -1.7961890055618918e-001 -3.1910344872605850e-001
      -6.9408908196525801e-002 -2.7465324967466709e-001
      1.0168439985489022e-001 9.6055607051592343e-002
      3.3841137475101535e-001 3.7160191273961130e-001
      1.0038123509969865e-001 6.4966718917514793e-002
      2.9655135676972449e-001 -2.1430207224542849e-001
      -2.1415899520012466e-001 -2.9110972575976063e-001
      4.8263921933892984e-001 -2.0342669371326106e-002
      -3.1439097513283087e-001 9.3670105768480172e-002
      3.9345004780181803e-001 8.7401994056282725e-002
      1.3947349664614253e-001 7.6787838919741752e-002
      -3.7343878616518368e-002 1.0187497322801616e-001
      -1.6518340466417397e-001 3.5110209409117264e-002
      -4.0704508552289098e-001 -1.4909067567682138e-001
      3.7994933140184740e-002 -1.0526351177796200e-001
      -1.7707798642118353e-001 -2.9029091072303226e-001
      -1.6692445808623560e-001 1.6021247858344245e-001
      -5.5154328358904527e-002 -2.2520370964966127e-001
      1.6758471938578129e-001 1.1982205904311602e-001
      1.5819388359542175e-001 -6.5676388402293173e-001
      -2.1082423866605624e-001 -1.4376299643754989e-001
      8.1630568569311515e-002 -1.2126653934448314e-001
      1.0175396368879225e-001 -1.3958622346024827e-001
      4.5196611495885697e-001 6.3574331281331675e-001
      -2.1924546540513276e-002 7.4100051820456606e-002
      8.3636168653269460e-001 -7.2188121540191011e-002
      7.0764302297190815e-002 1.5875316546975327e-002
      -6.4805986680211217e-002 -9.5520498626974256e-003
      -1.5764226006753038e-002 -1.0828958307374438e-001
      3.4766764269110695e-001 1.5101116481066257e-001
      7.5094765775716527e-002 4.6923141423158017e-002
      -1.4682655006114447e-002 3.4983211850967477e-002
      -7.6816417532473459e-003 -2.1703413248341932e-002
      6.0929563821943960e-003 -5.6411206359451287e-002
      2.0520089754112764e-002 1.4765196879141462e-001
      -1.0005422851710626e-001 -8.1903463581818922e-002
      -1.6915586926101939e-001 -3.5660403310391474e-003
      -7.7720012907679881e-002 -6.6021932479353077e-002
      7.3345885812174952e-002 -1.0361226736229910e-002
      -8.0466072451517170e-002 -2.1784123759676813e-001
      -6.7588044662165378e-002 -8.8152900583405289e-002
      7.9917157217087337e-002 -8.6575142215579159e-002
      3.3998232955024371e-001 -8.2189461647446463e-003
      1.7111516468010787e-001 6.3189711793079084e-002
      -7.8704076874272860e-002 2.0042318840228338e-001
      1.0600086724617773e-001 -1.9875544081751770e-002
      1.5267970303324327e-001 -1.3756922081302589e-001
      1.3805827050481171e-002 8.9259581407779121e-002
      1.2533720908842366e-001 3.2615764487178323e-001
      1.3130083717256863e-001 -1.0596638790495660e-001
      1.3504168915432480e-002 3.9990989033140367e-001
      2.3806701366493249e-001 1.2248068656894369e-001
      -1.7138830913135637e-003 9.8069890763023762e-003
      -1.1501422022363815e-001 1.0126568367590200e-001
      5.6559897777190199e-002 2.5864158657479258e-001
      3.0180154638346446e-002 -1.3170141425275656e-002
      -2.1832029861717717e-001 -1.5290129713339817e-001
      -2.3359874696987963e-002 -1.6378842823268919e-001
      -1.9236081588085239e-002 1.9690290781474196e-001
      -1.2069945343447132e-001 -6.6153500596947995e-002
      -8.0228688553900446e-002 -3.0965732391721439e-002
      7.2892882300899423e-002 -4.8768169921394378e-002
      3.6230112251453994e-001 -3.2714660442617741e-002
      1.7590348589336263e-001 -2.0903533655331422e-001
      5.4997627175046256e-002 2.1903996620964077e-002
      2.4523067625311046e-001 1.3811319784922022e-001
      8.0428696555504581e-002 -7.4221945182699950e-002
      -2.6223154571534774e-001 1.3826660520404754e-001
      -1.8712425264977478e-001 3.3735745478983786e-001
      -7.6305166324504548e-001 -4.4333464934838285e-001
      -1.3922983680688475e-001 -9.9020114275876814e-001
      -2.5890201056829196e-002 2.4521420486825163e-001
      -2.6863280719255628e-001 -1.9173129792605254e-001
      7.9636600297535651e-003 2.5967590411907593e-001
      -1.7092572032738743e-001 -5.9311857291781601e-002
      -1.6729896373564143e-001 4.5733473598227714e-002
      -6.8405104016825735e-001 -2.6148735433736908e-001
      2.1964804691932825e-002 3.9052540685993714e-001
      -1.5371962321473525e+000 5.7947722425138022e-002
      4.1420769893502801e-001 3.9131876841244040e-001
      2.3873096968079849e-001 -1.1528848861378194e-001
      9.5916019009768358e-002 -1.9397776624877884e-002
      -5.9678750188386198e-001 1.7485025961089115e-001
      3.0734397633554822e-001 2.9808158848455341e-001
      2.7566619645438384e-001 5.9315404280056860e-001
      -7.4938098847706809e-003 -7.6668662503823707e-003
      1.0438789397574763e-001 -5.3090544730260189e-002
      -1.1608257642510778e-001 3.7133411668891958e-001
      -2.0852397816564114e-001 4.0252577461578060e-001
      -7.9189969107902203e-001 -1.8812757265823078e-002
      -1.1811654620389597e-001 -7.6252353551280083e-001
      -2.8279711782406547e-001 1.2072900780801224e-001
      -3.0470715925826097e-001 -4.7851711045358909e-002
      1.9569728835430941e-002 3.3037983203316845e-001
      -1.9411593749649864e-001 -6.5975241365847412e-002
      -3.3681312807341357e-001 5.2778543739138074e-002
      2.3997445635563253e-001 -4.1836402815174187e-002
      2.6834322495723834e-002 3.8400646373105080e-001
      -5.0893053686379905e-002 1.7496657484146229e-002
      6.7466290200972912e-001 1.9654835695430992e-001
      -1.6003513289190624e-001 -9.9292118643793101e-002
      9.5278440938057221e-002 -6.1849055297246444e-004
      -6.0438917567941663e-001 1.5055666376888074e-001
      2.2933620508487645e-001 2.8069387050871114e-001
      2.8865544997256676e-001 -6.4974865331557186e-001
      2.3643479583187372e-002 3.0608799094736977e-001
      1.1198645864039795e-001 -8.5807715495261963e-002
      -1.3009394433268598e-001 3.8002845099518295e-001
      -2.1993645397272044e-001 2.5731314646311609e-001
      -8.7583638800623065e-001 1.0177351409414246e+000
      -3.8844363928937101e-002 -1.6508137485018151e-001
      -1.4222628616413113e+000 8.9223074588603540e-002
      -1.3577990335477028e-001 -1.0860808456066423e-001
      1.6887242780846690e-002 2.9334378429039620e-001
      -6.0925938134665536e-001 -2.2672499650589512e-001
      -3.0126225610981777e-001 -1.4521538538277476e-001
      1.8569950689685555e-001 8.5913745050801311e-003
      8.5745638718236497e-002 3.9345975312560505e-001
      2.5514443161637462e-001 -2.1370402101324806e-002
      7.3996283347846459e-001 6.4435027976236320e-002
      -4.8985918136068973e-001 -3.4965934942328865e-002
      1.1598561552107368e-001 -7.4767277817422914e-003
      -6.2457492149542682e-001 1.4059960277820918e-001
      3.0607350795263732e-001 2.8202426445833673e-001
      2.8365452136553110e-001 -7.2874818250250162e-001
      3.7026635425205429e-002 1.5215804614016321e-001
      6.8983025151414967e-002 -8.7402969084955193e-002
      -1.2790030823592830e-001 1.3993073180603810e-001
      -1.8911814655648948e-001 5.8714764160821764e-001
      -1.0770769857159179e+000 -2.6129031201547376e-001
      -4.5566881117376834e-002 -8.8621950476955436e-001
      -8.9384755961901138e-002 1.2923084084224409e-001
      -3.0590006164458639e-001 -9.7185638810478023e-002
      3.0332946002866731e-002 3.4627615065228945e-001
      -6.1247429361128569e-001 -8.1439018661048190e-002
      -3.9933445592759670e-001 8.8210574926012600e-002
      4.1576933624174878e-001 -4.1187436450119436e-002
      -1.1959256704814780e-001 3.9699056229109109e-001
      -2.3828863507527173e-001 1.8070190450911605e-001
      4.2549128119974439e-001 1.4039731847215806e-001
      -6.2938631010693483e-002 -1.8177856321800908e-002
      1.0248929913696334e-001 -1.9997713009583098e-002
      -6.2401083213888175e-001 1.5431872939348945e-001
      3.3944612556358622e-001 2.0663027983944474e-001
      2.8658324445360689e-001 -6.9340764560358548e-001
      2.3505613504362838e-002 3.0381340891898262e-001
      4.0877151052980447e-002 -2.7562381179342382e-001
      -3.0139150877753252e-002 5.0821056248152224e-002
      1.2033489871167474e-001 7.1145312466502533e-002
      -4.5375722727248088e-002 4.8004438203298049e-002
      1.5795784458607026e-001 -1.2690614809079906e-001
      -3.7746775119290671e-001 8.5954008032869955e-002
      2.3488639479102680e-001 -5.4951655461208049e-001
      4.2359522524494909e-002 9.1638558104348997e-002
      -2.2883790743238831e-003 9.9657411550218428e-002
      -1.3188829435341473e-001 -1.5646257241015593e-002
      4.5766571413951244e-003 -9.1361037944236750e-002
      4.3085876488653096e-001 -6.0887867752130793e-002
      -2.3556987836639848e-001 -1.2908664124196279e-001
      -3.9589606358604229e-002 4.5786408763603459e-001
      1.6281046211860500e-001 1.0763188746746639e-001
      -2.9964109991349658e-001 3.0510601093045604e-002
      1.2789857179486230e-001 1.6670166447977430e-001
      -4.5330754363605293e-002 -1.1552803288807965e-001
      -2.1846313001876999e-001 -1.2233521493181694e-002
      -7.9936592664013838e-003 -6.6125563130868370e-002
      2.6854059269007297e-001 1.1940823027507866e-001
      -4.6888469756247129e-003 -4.8235805500017451e-002
      3.1795583623579182e-001 7.4795888029574903e-002
      1.3826739422276152e-001 -8.9010645426272669e-002
      1.6184365247616048e-001 -2.7680009595575628e-001
      -2.3933294906296523e-001 3.9726877964759250e-001
      3.8735583990288835e-001 -3.5080522289855992e-001
      1.1408350252626459e-001 -7.0134851078339902e-002
      -7.9222041390925757e-002 -1.2981265164588332e-001
      1.2991737222044386e-001 -1.5730407274021418e-001
      1.4305077596591079e-001 -3.6850640124188393e-002
      2.8633018748900541e-001 2.5401711261184116e-002
      7.2389979616042960e-002 -8.2455215703794334e-003
      -9.9555670291745402e-001 2.6280233682331616e-001
      2.8439628277061096e-001 1.2073930095412252e-001
      -5.4539910393937269e-002 -2.2045856401758640e-001
      1.0357855672052591e-001 7.5401400097770591e-002
      -1.6745883114235890e-001 4.3663138556147903e-002
      -1.3099254540082264e-001 -8.4381042391076314e-002
      -1.2666018826973938e-001 -5.5512746535932539e-004
      -2.0154855129884042e-001 -2.0106056181286824e-001
      -2.4037414350673347e-001 1.6733980256090235e-002
      -1.5926431048995621e-001 -1.3681340935891204e-001
      8.1700361908437125e-001 -1.3398410859678422e-001
      -1.9172002740916400e-001 -1.3798156653400367e-002
      -1.8371491168623946e-001 2.1400367236866230e-001
      3.2477676249304838e-001 -6.4792037841871430e-002
      1.3879789371350953e-001 -5.7321703557606705e-002
      2.1251417236015518e-002 4.1185588476994907e-004
      2.7775048617858172e-001 -5.7169793892933127e-002
      2.3708967213298390e-001 6.9551810081709839e-002
      3.9253142447912115e-001 -1.1303166376391616e-001
      1.6123134789725752e-001 -1.9834855640521979e-003
      -2.7564753489495569e-001 4.2133649646957733e-001
      3.5432055760981218e-001 -1.5310042566816351e-001
      1.8384129896854104e-002 -1.0847723670025572e-001
      3.2164628344241447e-001 4.2443647885615488e-001
      2.7199157233313950e-002 1.6601039648862645e-001
      -7.7391785990093220e-002 -1.1887531454875244e-001
      -1.2460965630558696e-001 -3.4004609099765860e-002
      -1.0777465531191996e-001 -9.6925162783998813e-003
      -3.3671422308457592e-002 -1.0559792327774478e-001
      -2.4252312931939538e-002 2.0937011471222913e-001
      -9.0533143594137555e-002 -6.7180997301976589e-002
      -2.4956391799192870e-001 2.0963265315667962e-001
      4.6412369505725679e-002 2.3177238185241214e-001
      -5.3684878538610092e-002 -4.1286184924568903e-001
      1.4419463414853489e-001 -7.2076388065144617e-002
      6.8603932542335502e-002 1.5003115829872193e-001
      -3.9207415701137581e-002 -2.1374623462616975e-002
      9.3116446176860393e-002 1.3439751640812334e-002
      -5.7713062195361313e-002 2.2464669232537859e-001
      -3.7217121293691552e-001 1.7031883491039518e-001
      3.0229862874200242e-001 2.7860682605285686e-001
      -1.1722835035128841e-001 -3.9296474251777555e-002
      -1.9285042537217920e-001 -2.1606915104614370e-002
      3.5803054117992193e-002 2.5886182968278337e-001
      7.0896920593147852e-002 4.2760086594731253e-002
      1.4471140549126679e-001 -1.3835376221721685e-001
      1.8428471586616302e-002 -1.7989737765354033e-001
      -9.8210608399615651e-002 1.2009013977851538e-001
      7.6316336697076406e-003 -9.3485265738284765e-002
      -2.4725919668057639e-002 3.5199761636288790e-001
      6.2449256614668186e-002 -1.4306705447424006e-001
      -2.5180335700825424e-001 9.0142048930059795e-002
      5.4825622714871514e-001 -4.0920967485446774e-001
      -2.6476001307419350e-001 -2.3405339379789225e-002
      1.5990184715708278e-001 -1.2373096678943050e-001
      3.0812949801120332e-002 -2.1455627672409994e-001
      7.0677542261039589e-002 3.8276839320750991e-003
      1.5117920284713146e-001 -2.4005845166296849e-001
      -4.9136127132110380e-001 3.0936548238752012e-002
      7.3113968588966946e-002 6.5338975384546236e-002
      2.5782997657697404e-001 3.5180811554714897e-001
      -1.7453451770449488e-001 -1.1514005541704518e-001
      -6.1306917143068504e-002 -9.0437482634792024e-002
      -2.2454047389451268e-001 2.5129124238978017e-002
      -1.3091977372637179e-001 -2.6327311844528972e-001
      3.6744437718036910e-001 5.3451757968906194e-002
      -6.9632324381837751e-002 2.9578675028635942e-001
      3.0055954802567616e-002 1.0500172606826731e-001
      -1.1572416913658699e-001 -2.2887693559546815e-001
      -1.0842364793677749e-001 1.5336687013396552e-001
      -1.1016290113671190e-001 9.4311743868947029e-001
      -9.7284096682063961e-002 1.4405967569498299e-001
      4.6298323457603435e-001 -7.3346616493633277e-002
      -1.7489862500019493e-001 2.0236375098843409e-001
      1.8602012690208941e-001 -4.4397613111867178e-002
      -2.4204760680013884e-001 -1.6386236941178356e-001
      6.5365989077284456e-002 -5.9669212074101039e-003
      1.2867830039837935e-001 -3.6384169120864979e-001
      -4.9532790604667432e-001 -1.5493716837098746e-002
      1.1451204426511814e-001 9.4012689085811979e-002
      2.0552262329651511e-001 4.7272810940348831e-001
      -2.8565136265623892e-001 -8.1544730471970320e-002
      1.9843192288652672e-001 -5.4809828730221326e-002
      -1.6009864431868664e-001 -2.0368558720255897e-001
      -1.1623355517870150e-001 4.2640862793953210e-002
      2.3224515998510076e-001 -8.5235476328370478e-003
      5.0688484214536152e-002 1.5898728244101620e-001
      1.6277202051758899e-001 9.8744901280726022e-002
      -2.4183090691910433e-002 -3.7633540946177979e-001
      -2.0042218792927169e-001 2.7338801742475407e-002
      -1.1026563523523789e-001 -3.2840843267644831e-001
      8.8524309419824670e-002 1.2391975067076193e-001
      1.1441502350181776e-001 -1.0671987375049850e-001
      -4.3138378187151348e-002 3.3559472856757877e-001
      1.0998644545439998e-001 -1.7909755525196372e-001
      -2.1137271513293035e-001 -2.1018186060911379e-001
      7.0917418099567517e-002 8.1625814351377612e-002
      6.7736754398058444e-002 -1.9155146143530727e-001
      -3.8008156046198083e-001 -1.3111458419555851e-002
      4.1384726612682249e-003 -3.9375115291284971e-002
      3.5317744672137413e-002 1.0908511229981241e-001
      -1.4293864244422244e-001 -6.8855031160027308e-002
      3.8337388070990419e-001 1.2396636069463175e-001
      -2.1196971731669470e-001 -2.2223911522624992e-001
      -1.4933976971588406e-001 3.0905472098108089e-001
      1.1385698898965682e-001 4.2583995032203581e-001
      1.0099533856654554e-001 1.4649480222141756e-001
      7.4420646131434676e-002 7.9511098102374791e-002
      -1.0758441094222644e-002 -2.1545384601616505e-001
      -3.6423643335659089e-001 -1.6977440584743225e-001
      2.7461257432338286e-002 5.4958043248997134e-002
      4.9438091595157121e-002 -1.2530020428092273e-001
      2.0330717998982165e-001 -2.3068986671953559e-001
      -1.1029450487203024e-001 1.3726256907011247e-001
      -2.5164626884434924e-002 -2.4374274857614547e-002
      -1.2736192025095436e-001 4.5556097544262285e-003
      1.9405035012647402e-002 8.3778372949989119e-002
      7.1170925968247353e-002 1.4350138768318296e-001
      2.3399860786963111e-001 -3.3984259373349986e-002
      -1.3700592841013962e-001 -5.3236583081640176e-001
      6.5694913543854774e-002 -9.5212027991580742e-003
      -2.8810613286007908e-001 -8.0983602124981471e-002
      -1.2068241335793124e-001 2.5041407361791390e-001
      -1.9994675907632026e-001 1.3900090422753203e-001
      -1.1459287771281118e-001 -8.0881984758551809e-002
      2.3581758643771246e-002 1.9774846321657597e-004
      -3.2347735779785426e-002 1.1244692165412989e-001
      1.1011516768927521e-001 6.8796827333621581e-003
      5.2196302474862601e-003 -1.5355202582914465e-001
      -3.0525543759474960e-001 -8.8006584056704154e-002
      2.0600114307439177e-001 -4.0723518450580434e-002
      2.4585199171056984e-001 1.0476598131274512e-001
      -4.2155899540739300e-001 -2.5188855714180564e-001
      -1.5280122365823365e-001 -1.5585917731201462e-002
      -2.3297387733138253e-001 -3.3009080873565549e-001
      4.2441187423671034e-005 2.6223786509692456e-004
      1.6919857278937050e-001 3.7439352298868980e-002
      3.2177987559457560e-001 1.4006330339474660e-001
      3.6199244793097209e-003 -7.9009059777003215e-003
      -2.7484389275076204e-001 -1.9503553340747862e-001
      1.5560528517433858e-001 8.1187886788176053e-002
      -6.1248380363745289e-002 -2.5348118438697231e-001
      -1.6119971544639101e-002 1.7310217601760475e-001
      -3.9157868660051059e-001 -9.2523262181221561e-002
      3.4292850224036808e-001 1.7135451834012630e-001
      8.8293634871004764e-002 -1.8588258496630833e-001
      -6.2884138541255078e-003 -2.5687256545717391e-001
      -8.3171628520210150e-002 1.4680805235750494e-001
      1.5513314451073745e-002 1.3090557197740202e-001
      -3.3168555736632660e-001 -7.2872171691104451e-002
      2.8652886325074584e-001 -5.0213233701170847e-002
      2.3025576298683925e-001 2.2872736438503780e-001
      1.8161222974631092e-002 -1.8268762642056638e-001
      1.0363322186907653e-001 -1.8253815609526971e-003
      -2.7553934326425839e-001 -2.5393662477305295e-001
      -2.4762801951288362e-002 -2.9990330263713824e-004
      5.7592979495415454e-002 -1.1571789027006481e-001
      2.3389160928793291e-002 1.6147137124729777e-001
      -8.8632952549012656e-002 4.3346599150942883e-002
      -6.7455818636016240e-002 -3.8589182957536583e-001
      1.2327413894867235e-001 8.4567676977008219e-002
      -2.1505285539414040e-001 -2.8800127783819018e-001
      -8.3909120131060080e-003 -1.0609651711947365e-001
      -3.8077899139188909e-001 -2.7440205909280269e-001
      -2.1077170273055967e-001 3.2960117693546642e-001
      9.5111457752628692e-002 -6.7505283180923381e-001
      -1.1504643576557854e-002 -1.0076423112251709e-001
      9.2655869310250535e-002 2.3574297782351772e-001
      -5.5556254257821034e-004 5.4160836048436252e-002
      -1.5004187530454610e-001 -2.1052006594880844e-002
      2.0091546294861631e-001 -4.5261340830700783e-002
      9.6494985403056441e-002 1.0823080091539196e-001
      9.6429187288895130e-002 -2.1458108296143605e-001
      6.7008093795091705e-002 1.2855009459772013e-001
      -6.0281072859284482e-002 -4.7736190169096280e-003
      -3.5608139055814814e-001 2.9322477248817241e-001
      1.4352200107887342e-002 2.9839911957488988e-002
      2.0932970995049971e-001 1.0839819206197177e-001
      -2.0079613251428813e-001 -7.3271127559602495e-002
      -1.0561735825932009e-001 -1.4820058479596881e-001
      2.1106447862568035e-002 3.4634561027416633e-001
      -5.5038168012742039e-001 -1.3590519912269382e-003
      -3.1429854241493676e-003 -8.2586875109743163e-002
      -1.6464448408964649e-001 -1.5578887056706875e-001
      1.9534836441169313e-002 -6.5889724999796437e-002
      1.1593078067863331e-001 -8.0079753072439155e-002
      -7.3101796798941670e-003 1.1267942258630192e-001
      -2.6219100553356224e-002 9.5440345557472328e-002
      9.7115837493852483e-002 -8.3366900359017587e-002
      -2.3777177824065598e-001 5.0328866536047991e-002
      -7.2372365468266628e-002 5.7739031761918480e-001
      1.5222815202634235e-001 -3.6092540655882917e-002
      2.1363846208992129e-001 -1.3324008079839328e-001
      -1.1734606564559062e-001 3.5599700445522520e-001
      -5.2544547169395647e-002 -8.3561317684068603e-002
      -1.8316094804473107e-001 1.7957407432111108e-001
      -5.7459326680323546e-002 4.1874784591050923e-001
      2.5952257731502348e-001 -1.9116271332233528e-001
      -2.0548124953860564e-001 -3.6760389956235193e-002
      -9.4512492995802160e-004 -1.1282637103723835e-001
      1.5232728698107847e-001 4.0267175346720783e-003
      -1.5209825218563561e-001 -3.3663939139649567e-002
      -2.3051899943347793e-002 -2.0767981461448287e-001
      -1.6218779644819736e-001 6.4056631240305445e-002
      2.8779848759386761e-001 7.2550375034030293e-002
      1.6352995974978690e-001 -2.4492585232981154e-001
      -3.2416056121115165e-002 1.1846296101849041e-001
      -2.9384258904750181e-002 9.6074369128307163e-002
      -2.8681076317331772e-002 -1.0144447118655127e-001
      -2.6255059406619818e-001 7.3194707657188180e-003
      -1.3462615630259656e-001 4.5087455800781072e-002
      -1.7204968933053058e-001 -8.4129726576535224e-002
      1.1796310579888547e-001 -2.2498462526332003e-001
      -1.4411176360378297e-001 1.5240936102634092e-001
      -4.2574152130651535e-002 -7.1236250224459882e-002
      -1.8956130762244595e-002 7.8094073075828233e-002
      -1.8496084749719411e-002 4.5088481784452822e-001
      -3.0503304582912633e-002 -2.8377348599043228e-001
      1.1505327736424001e-001 -1.6090893452013791e-001
      5.7127077519234383e-002 8.0020893428426804e-002
      8.2422571018212862e-002 -1.2213539959736869e-001
      1.4257508390872481e-001 3.2335981893977109e-003
      5.6006633899120715e-002 -1.7860050001855571e-001
      -1.5614221101664180e-001 1.4193739378649806e-001
      3.4785870581758799e-001 8.6220773850814808e-002
      -8.0019012310305008e-003 1.5582194176441291e-001
      -1.2800064953397824e-001 -2.1712539265388586e-002
      -1.7644571118847600e-002 9.4886280575863249e-002
      -3.4471119131673854e-002 -3.5653470252548641e-002
      -1.5292694324900238e-001 7.6092785551153362e-003
      -2.9118146798754907e-002 1.3641339618061013e-001
      -2.1879672401706687e-001 -5.3132039643809387e-002
      3.0785158481416541e-003 -2.1465083513238287e-001
      -6.9907807823722273e-002 -1.4340782162326171e-001
      -2.3016993958886827e-002 -6.6069115004382797e-002
      3.8534954529846704e-002 6.3903227455041595e-002
      -4.7589895212404282e-002 4.4329183987539028e-001
      3.9931150518480426e-003 -2.3240615723198402e-001
      2.9069815364356744e-001 -4.3945154870924236e-002
      6.1620771106853635e-002 4.5856008682020818e-002
      -8.8601207800624376e-004 -1.7005940990877103e-001
      1.4200227708274002e-001 2.8716881411121036e-002
      6.9517909810533463e-002 -2.9189347662468040e-002
      3.9925468589266738e-002 4.3643249196465915e-002
      3.7859069957321528e-001 -8.8808031127047257e-002
      -1.2492436553144332e-002 6.6845330568255423e-002
      -8.8151619483960594e-002 -2.3985507858440624e-001
      -2.6091913167292827e-002 6.6878037153378755e-002
      -2.9100887789405717e-002 -1.2610037786030007e-001
      -2.2697307801722363e-001 3.4200924789595862e-002
      8.5306058467519069e-002 -8.9458500168027810e-002
      -8.4926049605088469e-002 -1.7490093506408372e-002
      -4.1857158927970324e-002 -2.2309637734660498e-001
      -1.5422698841769672e-001 -1.8543693146086868e-001
      -3.2906699467799311e-002 2.0686505092645538e-002
      -2.1963632187330252e-002 -3.2460922671212339e-002
      4.8940723907323791e-002 4.6978504999086862e-001
      8.3155220376586996e-003 -7.6716883478312528e-002
      -2.0131189259580295e-001 1.1464288892066352e-001
      4.0719918119844073e-002 -4.0331028311827249e-002
      1.0524598063344052e-002 -5.3500996618291408e-001
      1.4011407853244290e-001 2.9538878727805886e-002
      1.7811269672488816e-002 3.8870751845555521e-003
      -1.1110923674750120e-002 5.6144891489401626e-002
      2.5658335100825908e-001 -7.1061899642018672e-002
      -2.7107341219758907e-001 -4.1860303117217494e-002
      -5.4166158888056801e-002 9.1130787817990430e-002
      -4.7095931431511192e-003 -2.9786694730895017e-002
      -1.4492869053119924e-002 -6.2279752648045604e-002
      -2.2577199845003756e-001 -4.9205290866630791e-001
      -1.2505383883553423e-001 -7.1354552462621762e-002
      1.5529687552926533e-001 -1.3275045321427559e-001
      -5.4542697089931022e-002 5.6071186714656873e-001
      -1.7354329724103754e-001 -4.6302681268317269e-002
      9.9205983907590833e-002 4.2793932599809570e-001
      -2.0106667851932779e-002 8.3855512252816636e-002
      -9.6140463215643374e-002 3.9533191112922285e-002
      -3.0469655078409378e-002 -1.3370233780398658e-001
      -1.0150229394732606e-001 5.9905928491420291e-002
      4.4992364734657599e-002 -2.6236119593524052e-002
      -8.4213982257296399e-003 -3.5838824572066058e-001
      1.4392092216473684e-001 1.1655908962671130e-001
      4.2835517803470162e-002 -6.0892347363864452e-002
      -1.6228808109396184e-001 2.8261946497213619e-001
      8.8250535333777663e-002 -1.8119637118095666e-001
      -4.1195113249553811e-001 -4.2405139915514707e-002
      1.9509267135887080e-002 5.8060485953450022e-002
      7.6800183678876005e-002 1.9745028883213026e-001
      1.2666027286094519e-001 -3.4836792263125554e-002
      -1.5573426559676440e-001 -5.0548253663551090e-001
      -7.3155346049647893e-002 -1.4786371257688459e-002
      -4.3511922898761796e-002 -4.1528137672426808e-002
      -7.4647647287432298e-002 2.7107919098023164e-001
      9.1743869088561303e-002 -4.1272526737195767e-002
      6.5683444987723022e-002 -1.9629720794774846e-002
      -3.3182471852649706e-002 1.2184582601867411e-001
      1.1837585127848285e-001 1.1070427877844705e-001
      -2.0416324877396200e-001 -2.0167002897181752e-001
      -1.3328501822485894e-001 -1.1764590602634878e-001
      3.8784089392066190e-003 4.8006479614592673e-002
      -1.0996799745120586e-001 -1.0369686272971002e-001
      -4.3799624554692017e-002 1.3136441573509414e-001
      3.3317314677180292e-002 3.9746377612365921e-002
      -6.5708441056566980e-002 2.0922978731711128e-002
      1.4016339220273771e-001 1.4992318135019286e-001
      1.0785989270775836e-001 -8.4561173099379078e-002
      1.2611507636796995e-001 3.8859892158655873e-001
      -1.9690480716221048e-002 -4.5248620057436073e-002
      4.5113471362179525e-002 -7.8160453200704152e-002
      -1.1064584223179781e-001 3.4025934372392701e-002
      -1.0603165731334684e-001 2.5215754156341932e-003
      -2.1521989342933578e-001 -5.3840294786492826e-002
      -1.2837069117772201e-001 -1.9213122627581761e-001
      1.1528608687131629e-001 4.7611284976851236e-002
      -8.4020098353444457e-004 2.6139086211554480e-001
      4.2176770250475420e-002 2.6789600328728941e-001
      1.6130729116840253e-001 7.3236048037704331e-003
      -1.7755442304702279e-001 2.9177534200402905e-001
      -2.4240537343476247e-002 -1.9615315451332223e-002
      -2.1591439675959809e-002 1.3995486354668943e-001
      -1.0698383355764511e-001 -5.8226577276290305e-002
      -1.1096894255568081e-001 1.1124068757604404e-001
      2.7291626237601740e-001 8.7753894030618597e-004
      -2.1416242586177264e-001 -3.0485099737802158e-002
      -1.7668539193620167e-001 -1.2909153261363748e-001
      1.3844047726693992e-001 1.3000835643322969e-001
      2.8523134866152616e-001 -2.2885433348962872e-001
      -6.3316862817776372e-003 -2.9789721042462004e-002
      2.9207168424139892e-002 -8.3715373104265869e-002
      1.5268646036269090e-001 2.9135119293597872e-001
      -1.0939342542148953e-001 3.6048430156103935e-002
      -2.8469024977288204e-001 -5.8317407156174166e-002
      -6.0726654159295818e-002 7.8046425753906634e-002
      1.6638173392270333e-001 -3.6202529650246618e-003
      -1.8362283618702839e-002 2.4525446332350270e-001
      2.4188112021639985e-001 2.9291084290471892e-001
      -1.0991049933066661e-001 6.4203288871213099e-002
      -3.7343502081359081e-001 4.7714779738479829e-001
      -6.6147956059761828e-002 -2.6340757498233149e-002
      -7.4010654868318709e-003 5.7757426686324054e-001
      -1.0990486862792925e-001 1.6292494095630466e-002
      -6.5489523336972402e-002 1.4257898349851816e-001
      -7.7814170402583260e-002 2.1258042952129230e-001
      -1.9540003071967071e-001 -5.0273839301701373e-002
      2.0537074657194865e-001 -1.6614888099369576e-001
      9.4949634752081610e-002 -1.5028414793204223e-001
      4.8701258599807495e-001 -1.8367065375622704e-001
      -6.2925658822431757e-002 1.3935700908161447e-001
      4.8257681381243436e-002 -4.9277581383008646e-002
      -6.4649165134608902e-002 2.0225478947162354e-001
      -2.8806980807799359e-001 1.0179530379034938e-002
      -7.5743924250600086e-002 4.7749057966822460e-002
      -2.2767987400771846e-002 8.2244359740895917e-002
      1.2741954525434621e-001 -2.0169938260879536e-001
      1.9259645628431906e-002 1.9223473189965168e-001
      1.8852764731399996e-001 2.3137860603448385e-001
      -6.6811419430664626e-002 1.2199480262697986e-001
      -1.7086025345110686e-001 3.2568188997466219e-001
      -1.1710964960443307e-002 -2.2026406211228828e-002
      -1.8221660160211528e-001 6.7303025472813560e-001
      -1.3699616501091486e-001 4.7821500771045175e-002
      -4.5175740554548843e-002 2.2936441746088182e-001
      8.9257654176278581e-002 1.3553629596228386e-003
      -1.9238826434757655e-001 -1.8419472560821112e-001
      2.1443196073204551e-001 -6.7760395675379489e-002
      7.5133071787483671e-002 -2.0069620390375573e-001
      3.1377868079702713e-002 -2.5593124848068555e-001
      1.3878729361829895e-001 1.2962892550117271e-002
      9.5779971791037644e-002 -4.0126122649003879e-002
      -1.7142937692362567e-002 -2.0011143568336116e-002
      -4.0973574605018720e-001 -5.5634388501339789e-002
      3.7444294727234900e-002 -2.0283437060099349e-001
      2.4765794789343595e-002 -2.7508409768304781e-001
      -1.8841262415657117e-001 -4.5053872145884985e-003
      1.0178986084034594e-001 5.7936313305216633e-002
      -4.1057317890233452e-002 6.4795072361317069e-002
      1.9392087481791272e-002 1.9168129910595355e-001
      1.0533011312755100e-001 -1.8905777294228931e-001
      3.3872605816913526e-001 -7.1999017602119242e-002
      3.0630900918706714e-002 1.9539970882312525e-002
      -4.2652029836299215e-003 2.2781376629635905e-001
      -6.7265252361659172e-002 3.3571742870871765e-002
      1.0386816392877765e-001 4.3661688693297229e-003
      -1.0528075681539556e-001 1.1586567981398962e-001
      3.6822649037502764e-002 -2.3878055340756064e-002
      6.9594962250212791e-002 8.6793693475255507e-002
      3.0893499556991039e-001 5.4224069238597329e-002
      -8.3387808623988105e-002 -9.5021438846254108e-002
      -1.1860042225821843e-001 -1.4195654793252535e-001
      6.3599978986483974e-001 -1.8116141868005940e-002
      1.3213680540515100e+000 2.5118899610581252e-001
      -6.1979479271734202e-003 1.2932326495290006e-001
      1.4323501223886106e-001 2.3696020226155376e-001
      5.5580985367293743e-002 -5.5359968946254945e-002
      1.6497606051924543e-001 1.8096255572059886e-001
      -1.1789336556100916e-001 -8.9889965510053826e-001
      7.1802204260184160e-002 -2.0140853512267399e-002
      -1.8112894367895568e-001 5.3637087637059266e-003
      1.4591474765378898e-001 1.3895030092409752e-001
      -5.2764894257186230e-002 -2.5362601614874636e-001
      1.6858045723387743e-001 -3.9502513209735191e-001
      -5.4296547766745432e-002 -6.6871508248772527e-002
      -3.0726589631278389e-001 1.3395846410167020e-001
      2.3561318301357791e-002 8.5652929444789638e-002
      -1.4160700498117124e-001 -5.4197004941856385e-002
      -2.1477752077408270e-002 -1.5501605060084361e-001
      6.9529458531031638e-002 -1.3496001604681632e-001
      -7.5139464993273328e-002 -2.6318952340234930e-001
      1.7245656177338814e-001 6.4601642182870081e-002
      3.8685854859454127e-001 -2.4125482616995106e-001
      1.7122486938373802e-001 4.0419918981136610e-001
      -1.2816805746191354e-001 -4.9571044541217807e-001
      -8.7238973737647010e-003 2.7442391572861366e-002
      2.6336030284158624e-001 3.8182156979679180e-002
      1.1945737332201990e-002 1.3606264618709801e-001
      -2.5476579573120273e-001 -3.0120667398022749e-001
      2.4397270709199792e-001 -1.5150522174160697e-001
      1.0828037120951191e-001 -4.6596180985226535e-003
      5.2666374755324941e-001 7.4161034155367928e-003
      -2.0893366782873440e-001 -4.3365534028289071e-001
      7.0896124014940318e-002 1.3444534439567007e-001
      2.5023779287359227e-001 -3.2369509184323297e-001
      2.5742052147186928e-001 -4.2220188815158849e-002
      1.5074097258695168e-002 3.4404534557376548e-002
      -9.6569796514092379e-002 -4.3975437849790916e-001
      -4.7404196469908860e-001 -2.9856029853554983e-001
      3.5706280727886126e-002 -1.5328599025524953e-001
      2.4020330835647483e-001 2.9151733736974772e-001
      6.9843423096471735e-002 2.7509934529548686e-002
      -1.2212814031632380e-001 1.2496490592316215e-001
      -4.2060139979069666e-001 -3.0111858792768670e-001
      7.1625531140423263e-002 -3.4798875695675274e-002
      -6.2828691183565266e-002 2.3094561582349107e-001
      8.8753729559219829e-001 -7.2069467464443634e-002
      -2.2795915424369609e-002 8.0735745209209356e-002
      -1.9404893840237011e-002 -7.9834501089636267e-001
      3.7043173849348865e-001 -1.5539099243658391e-001
      2.0222907912813897e-003 1.8022687270934085e-001
      -2.5925724602120122e-002 2.3908962579984011e-001
      1.6042568573876462e-001 -1.1651090457337360e-001
      -2.9476924597786704e-002 6.7349475224880287e-002
      4.5724020199570609e-001 -7.9175406716104335e-001
      -7.6195995796924598e-002 -1.1076710675282814e-001
      1.9460559550170772e-001 2.6918588617145989e-001
      -2.5887125581531556e-001 -7.2156889664682367e-002
      -3.3601721920011141e-001 -1.4739901921354798e-001
      1.8598156711091618e-001 -1.0669268261511813e-001
      5.0319448155642177e-001 5.1398539798179199e-001
      -1.7470396697183679e-001 3.2591576265700632e-002
      -1.7059010540747607e-001 -5.2873146353148892e-001
      -7.6749271167062677e-002 -1.3669696045218646e-001
      -5.6116890337501268e-001 3.7438255753740785e-001
      -6.9214091366957231e-001 -1.6273518420485700e-001
      -1.4595849556828846e+000 -3.5627261781052477e-001
      1.8122387858780584e-001 -7.6841689333126281e-002
      -3.0327230126176480e-001 -4.0978984342440586e-002
      7.4667136929255518e-001 8.3813786184485636e-002
      1.2562651151956036e-001 9.2708257222685719e-002
      5.7648567147317009e-001 -2.1675810807742163e-001
      -5.2523502110867745e-002 1.0406240575965693e+000
      -1.5944539720994180e-001 -9.9989254343473677e-001
      6.3997667235357825e-001 2.5447749925347440e-001
      -2.3805315824325413e-001 1.5247916844610236e-002
      1.0788033046317717e-001 1.0587662197454044e-001
      -5.4165758854539536e-001 5.0048210507422980e-003
      2.0297017748608487e-001 -1.0848246446358387e-001
      3.1945009564241417e-001 3.8865013124945023e-002
      4.6595305962924066e-001 6.8991359139425112e-001
      -2.0661045351245300e-001 1.2001901294338322e-002
      -1.8888204859870411e-001 -1.8570663261888651e-001
      4.6978267603766521e-001 2.6817561028272097e-002
      -4.0764925917502126e-001 9.2498868311335447e-001
      6.4904587058676355e-002 -3.5205309741406693e-001
      -4.2295310921457024e-001 -3.2149342239131623e-001
      -2.2553111703572451e-001 -9.4787923946486136e-002
      1.8964611164349762e-002 6.0314551943723482e-001
      3.2593820810491413e-002 6.9466401785756582e-002
      2.8825508696497748e-001 4.0635812924257490e-002
      6.8786451728384851e-002 -1.0044918560186060e-001
      -1.7731180752249214e+000 1.2699413155831083e+000
      -4.0540598469870537e-001 -3.3415098531230242e-001
      1.9949730720739711e-001 3.3889689730093508e-001
      -4.7370522726135056e-001 -2.9795877325297587e-001
      8.2075818663523564e-002 1.5104882735598138e-001
      1.3621288461825820e-001 -1.9217990217905775e-001
      1.6645293471477771e-001 -7.1901821988579764e-002
      2.0368443912294844e-002 -9.2446846914677708e-002
      9.9937331344423549e-002 -8.3010346457880890e-001
      1.9546180591738133e-001 -1.3180021840942351e-002
      3.8766246032286934e-002 3.4934647609097669e-001
      6.2353347045783514e-001 -8.5981396977438798e-002
      4.4411723234095028e-002 3.2305254251996740e-001
      -1.1017341661072331e+000 4.6322562086043512e-001
      7.0251682793840442e-001 -2.0430419916595083e-001
      1.2606232681024904e-001 -1.1391762057319238e-001
      -9.8167922689932199e-002 -1.0263957820040613e-001
      -1.0903924050779780e-001 -2.8178969598349668e-001
      -5.0892841471184747e-001 -5.0250621998434253e-001
      -4.3476219010250317e-001 1.9618953252741624e-002
      -1.3085133672537788e-001 8.6270040395586139e-002
      -1.1067232213515094e-001 1.7397210225009290e+000
      1.7894689313379725e-001 -2.6139658142209260e-001
      -6.0436983509630768e-002 -1.1310371139527127e-001
      3.1829575619797262e-001 3.8265651016152626e-002
      -2.6355449376907913e-001 1.6109902041584859e-001
      1.7034423158372702e-001 1.9397220217574833e-002
      3.0214532198948964e-002 -1.5285545952757223e-001
      8.2619037838463000e-002 -1.6363376092292139e+000
      2.8748393365237318e-001 1.7743812503462097e-001
      9.7244820900371065e-002 -7.1061949084392090e-002
      3.0644809302053044e-001 7.1492831362714970e-001
      7.3021892257985010e-001 -2.4887517300262108e-001
      -4.0397723397772545e-001 3.8315177200650430e-001
      5.4925351466593908e-001 1.3110317600609007e-002
      2.4954860173559434e-001 -1.1493204412175551e-001
      -2.0918436626650019e-001 -1.9957937652885627e-001
      8.9232657761432396e-002 4.7369500733179061e-002
      -2.8509214373522501e-001 -5.3450702804875938e-001
      2.3277103297342991e-001 8.5998668981989129e-002
      -5.4326524131913349e-003 -5.0696604797239053e-001
      -2.1844644836887264e-002 2.8573208901223052e-001
      3.3350999241974816e-001 -3.7618643109603384e-001
      2.5090143387134356e-001 4.3212642045049693e-001
      1.1512730535203923e-001 8.0302260801550063e-002
      -2.0034728238825705e-001 8.7769071914082758e-002
      -3.3617672883897187e-001 2.7502818945564877e-001
      -6.0479390541958800e-001 -7.4327420901025287e-001
      -7.1119849856565526e-002 -6.2792909086876750e-002
      -4.0890924003514961e-002 1.3000921274703237e-001
      -3.9514887047879602e-002 3.0375871735868087e-001
      -1.6839004101541040e+000 -8.3808821060834526e-001
      8.6666751760126137e-001 -3.5025457368701157e-001
      5.7777359369071912e-001 -2.9486431599607887e-001
      1.5094398114970914e-001 -2.6800457480334472e-001
      1.7040414815459287e-001 7.1253474536978140e-002
      -3.8584933939820754e-001 -7.1087719253184301e-002
      -2.0046026748488857e-001 1.0628861992144527e-001
      1.9520280293164008e-001 -1.7816836563505858e-001
      1.3736368702554233e-001 2.0027625723606662e-001
      4.5096375936749489e-001 -3.7231979470128457e-001
      5.4520522262851145e-001 1.8864460302281746e-001
      -7.2823960967274326e-001 4.2713898150293372e-001
      -2.6855106805297113e-001 2.2600509060770832e-001
      -6.6403007274462690e-003 2.9381518942259316e-001
      6.9471406373692790e-001 1.9835846452588826e-001
      -9.0708575987918150e-002 -5.3399123543944063e-002
      -1.6255759235177994e-001 1.2817796568943485e+000
      3.8615769451808536e-002 -6.3205340332833426e-002
      -1.1531198380452479e-001 1.4189160348980762e-001
      -1.0304334656463681e+000 1.2057269765929932e-001
      -1.5822278237568017e+000 -1.2529638691598053e+000
      3.8885356301148255e-001 -1.6812046628004720e-001
      -7.9871198156356749e-001 -6.1847749839194416e-002
      -1.2416661652497636e-001 4.7360259237251415e-002
      7.8738018628512846e-002 -4.8688906119825098e-001
      -1.9787841342190768e-001 5.1120366736491410e-002
      -9.5424460863604635e-002 8.4099189378310235e-002
      1.2228419760497181e-001 3.8344287707893998e-001
      -2.7401685606102882e-001 1.8410547608629146e-001
      1.2765569839768804e+000 -1.8167362627589614e-001
      7.0378369323420531e-001 3.9695358937281811e-001
      -7.5025373369107662e-001 1.6236531300774029e-001
      6.9723035999284727e-002 5.7024929504165225e-002
      -2.6915929176897796e-001 -3.1023036869421858e-002
      4.9185516501165544e-001 2.8854512573892394e-001
      -8.0278871302013832e-002 -1.0413284948561281e+000
      -6.9869576566073538e-002 1.6561926095042623e+000
      -1.5389300980698500e-002 -3.0528992773233665e-001
      -5.3451743355150912e-002 2.1274782797766487e-002
      -3.6970930413154794e-002 -5.0975325163710623e-003
      -2.9549561218665310e-001 -9.6338784076786879e-002
      1.4331712910956884e-001 -8.5119133245929096e-002
      -3.9193709064356291e-002 -1.6560380931667026e-001
      1.7216411223229114e-001 -4.1447999872786502e-002
      7.3120027427288070e-002 -2.6989662049603158e-001
      -4.9431361422407484e-002 1.3444914861252563e-001
      -3.1058043593772078e-001 -2.8035465183737562e-002
      8.3167424274133150e-002 -1.2487732259737848e-001
      3.1912595329026468e-002 -1.2080885028743490e-001
      4.6464191504916826e-002 -1.6559499028247976e-001
      -2.9816243214317362e-001 4.1310821848198259e-001
      1.0477401528034490e-001 9.5522109652122822e-002
      -4.0228243076073811e-002 -7.0103915814593515e-003
      9.5686770918071595e-002 2.7689137695981730e-001
      -8.9762445185824269e-002 1.9503794593577550e-002
      -3.2982775482770499e-001 -2.3011355985448703e-001
      4.5235687594389631e-002 2.1898673972889857e-001
      -2.6711331924711069e-002 -8.1506189089110004e-003
      2.2760123568446949e-002 2.0917291755058431e-001
      -2.8480792288817708e-001 1.3992194902582122e-001
      -3.7026109661179668e-002 -8.4940251911228420e-002
      -5.0872957199410285e-001 1.0522694477465704e-001
      -2.2069725919877206e-001 1.4285273389684502e-001
      5.8502238483122604e-001 -5.4904475138662090e-002
      1.2695735694174090e-001 2.5951391233819239e-002
      1.6827708273035041e-001 -5.9769792118253795e-001
      -7.7210178183893377e-002 -1.9807079208286191e-001
      -7.3076443816655040e-002 3.8204467084762739e-001
      -5.4822577195382506e-002 1.5418652190493168e-001
      -3.7450223825526652e-001 -4.7378474169792129e-001
      -6.6549574725472807e-002 -6.1387537010067450e-001
      6.7094122265642409e-001 2.1984927402697713e-002
      5.2767810137085680e-001 1.7280336543477814e-001
      -1.8581488575834585e-002 1.9791985689214447e-001
      9.5676955917296913e-002 1.6747353852141475e-001
      -1.9133037831304878e-001 9.5470218798124326e-002
      -2.4940854911224230e-002 -2.6501867853221556e-001
      -8.5079042106908281e-002 5.6147699052249971e-002
      9.6175833690293339e-002 5.1932919234120793e-002
      -3.2341983566564432e-002 -7.3924656092395458e-002
      1.5242941620259867e-001 1.1946829509889462e-001
      -2.1913570596719376e-002 -1.6379107699166667e-001
      -2.2590435928781458e-001 9.5021158782291879e-002
      3.3337245866138604e-001 -1.7841261080208656e-001
      -1.6126772132352678e-002 1.9161118846210945e-001
      4.3599548292211875e-002 2.8035627092581290e-002
      9.5537146760740099e-002 -2.8617495365726622e-002
      9.7368096735809900e-002 7.5331880141245200e-002
      -1.1493472011389606e-001 2.8281928846528592e-001
      8.6201461029364379e-001 1.0231921800816209e-001
      1.6299918853765744e-001 6.1819726764615925e-002
      4.5634918996583945e-001 -1.6813897633807945e-001
      -3.2515332721371110e-002 6.3212213846992105e-001
      -1.2034976387743591e-001 1.2282345440602355e-001
      8.1877085019073967e-002 -2.2669155201053816e-002
      -1.0181644303476994e-001 -2.1907377524068550e-001
      2.2972636546269704e-001 -1.5048437200413164e-001
      -1.3334094439234062e-001 3.0232280483739160e-002
      2.6029768679162341e-001 -2.1609266546736347e-001
      -1.3508236328286358e-001 3.7352821560403776e-001
      1.2457543041174933e-001 -2.6494952373067915e-001
      -2.4416202254720151e-001 2.5109398691789014e-001
      -3.0875479274408912e-001 5.4782290037923764e-001
      -2.8341576955209596e-001 -3.2494912717527713e-001
      1.2469954868051243e-001 -1.3276075677550422e-001
      6.4296554039487613e-002 -2.2698661060653279e-002
      9.5620755513428343e-002 -1.9856651403464085e-001
      6.8380891564278137e-002 3.5906496486210021e-001
      -1.8243670321824934e-001 1.6688926982663441e-001
      9.9820127229998146e-001 3.7108407534407542e-002
      3.7349320379736323e-001 8.9442165312343197e-002
      2.3276580672359635e-002 -7.8197965876735095e-002
      2.1820236576757735e-002 2.6509916655545851e-001
      -1.8121559516370376e-002 3.4083741343238660e-001
      4.9727631495956092e-003 -7.8785870454308113e-003
      2.6856505416608184e-001 -2.1763235415375645e-001
      6.2736205902729644e-002 -2.4109758020951233e-001
      6.0259926923682716e-004 4.0566493668476492e-002
      -1.6812965385788789e-001 1.0216588837350876e-001
      -5.2030955768532242e-002 -1.1941029394425651e-002
      2.6130684984986163e-001 -1.3376661783472221e-001
      5.3456453117402314e-001 -1.2015913308254066e-001
      -1.5563712635651328e+000 -7.3688197978966663e-001
      2.1426221517081300e-002 -4.6568804397177072e-001
      -1.1858376469582377e-001 -3.8252679788736726e-001
      -3.1115188767733899e-002 -2.3664925963568023e-001
      1.6475467597869295e-001 -6.8955858799766345e-002
      9.3436666377477093e-002 2.2798998464330561e-001
      2.7077237534896420e-001 2.2075741976948135e-001
      1.9769879610044747e-001 7.7814403449890365e-002
      -3.4000031159342101e-004 1.5548617409908905e-001
      1.2181757140022025e-001 6.8269855169248961e-001
      2.0285822138339096e-001 -9.5190544439292188e-002
      1.1071701211899026e-002 1.4564571214901043e-001
      -1.2234989415080133e-001 1.0570960637035731e-001
      -3.9548744937435265e-002 -9.2728354946017699e-001
      2.0104505368989167e-001 -5.0121746418062130e-001
      -8.7286663853460830e-002 2.2801308826044933e-002
      -2.3546318896788557e-001 -6.1091250184967194e-002
      -1.0942970454474481e-001 -2.4645314134074595e-001
      4.2401428782543460e-001 -3.5334676915238762e-002
      3.2232315994897792e-001 1.2966648485303817e-001
      -1.7847501859112497e-001 -3.7502072665739981e-002
      1.2735661443618018e+000 -7.5016993118148106e-002
      5.6682396156593914e-002 5.8729581581778034e-001
      -1.0590447549683332e-001 -3.8437871949713509e-001
      6.3087394540968111e-001 -1.8967977564761965e-001
      1.4644399206661857e-002 5.3844487626557969e-002
      -5.9462324110594156e-001 -9.9692838160312269e-002
      -8.9410536902056992e-001 8.9355142860563161e-002
      -1.7103532309342617e-001 -9.3917252721469016e-002
      9.3907237871063406e-002 1.2450763422533778e-001
      2.7561108602611756e-001 -2.8649190802378627e-001
      -1.0070222897213921e-002 3.1472126090744701e-001
      2.5434104142174525e-002 -8.5198046942863470e-001
      -1.2229336292203112e-001 -3.4946287754626310e-001
      -3.0271594267119972e-001 7.7210972572182473e-003
      -2.3759655952664430e-001 -7.2740935749285723e-002
      -3.5906904202160077e-002 3.7877954682347947e-002
      4.6313170653783813e-002 -1.3346145112485028e-003
      2.9861809030235908e-001 -2.7153115574456627e-001
      -2.1710883042880008e-001 1.6259842265840896e-001
      8.3124152698150955e-001 9.8646426489809502e-001
      -2.7824754554998715e-001 6.9109864848383423e-003
      1.1676205486919565e-001 5.0138290586583062e-002
      -1.9447184130971915e-001 -3.5540110127654317e-001
      1.7266262026047888e-001 7.9758066114923720e-001
      2.3208633220919825e-001 -8.8671239467732046e-002
      -1.1650181247410973e-001 -2.4991104293340655e-001
      5.0837232752005257e-001 3.0565199818626421e-002
      2.4934690049966429e-001 -2.3806823727661930e-001
      1.7789531522668817e-001 -7.2850758642328439e-001
      -9.1785941944045102e-001 2.0099913984881285e-001
      1.8350306459810631e-001 2.3223344864029760e-001
      9.4790396591099627e-002 -1.5005123553912220e-001
      4.6222676132429774e-001 3.5082073328824820e-002
      2.7177138772211001e-001 -2.3777254763988634e-001
      -5.4433180310828411e-001 -1.5931598511931311e-001
      -1.7988056279821246e-001 5.7067149428214525e-001
      -2.7950029032642931e-001 1.3806112366709833e-001
      1.2030831327613367e+000 1.9668730923617758e-001
      -3.7628148130072747e-001 -4.7863136197894213e-001
      1.1172337431743109e+000 7.0870140584043534e-002
      -8.4902405059375893e-002 -1.1538985349365043e-001
      2.2572268798366285e-001 -6.6783169585176980e-002
      -2.5717436738102312e-001 -6.3461762434621649e-001
      2.3314795679757985e-002 -1.1404305310935525e-001
      3.3477209842942740e-001 1.0895973403005622e-002
      2.7605553614172790e-001 -1.2217330883024850e-002
      -2.2009865847841445e-001 -1.5272286790731632e-002
      1.7299042231411149e-001 7.4329947466413693e-002
      5.7687620836810505e-002 -1.8127676321018663e-001
      -3.1296322825723127e-001 1.4575648709397521e-001
      2.4758683349119429e-001 1.2210636007234514e-001
      -1.2992358866791854e-002 -4.8896718312799216e-002
      9.5478408760541450e-002 1.6317123980814718e-001
      -9.8651212296459054e-002 1.3417567479896302e-002
      -5.5755756948813864e-002 8.3133500344362204e-002
      -5.2167996060585808e-002 7.8333123411348987e-002
      -1.4453177325661191e+000 1.6969516683729080e-001
      -1.6633888960837344e+000 -2.5537628163452517e+000
      1.6706530679850168e-001 -1.6458870824920649e-001
      -5.4113831165396764e-001 -1.5548503345038905e-001
      -2.7641635228885342e-002 -5.1744352650754791e-002
      -7.3097216624075936e-002 2.7592085750590550e-001
      -1.7766246524855928e-001 -1.9490477137462914e-001
      -2.4197132857049924e-001 1.4942795665304137e-001
      1.2324229159041053e-001 4.2547393762799879e-001
      -3.1102424573146201e-002 1.8658434701631993e-001
      1.3182767865737386e+000 1.2789567851309426e-002
      7.4179984527975107e-001 1.2524275977054995e+000
      -1.4663519342231057e+000 1.0348585479602493e-001
      2.5715885634138121e-002 -4.9407736729714678e-002
      -1.7037167637631745e-002 5.7616690205327045e-002
      -1.1012862770732836e-001 9.2378823030997259e-002
      7.8573117645924256e-002 -4.9337282621844430e-001
      -5.8775074441486955e-002 2.8987153636789298e+000
      -2.5288574941800739e-002 -3.9184496519018425e-002
      -1.3923534337324758e-001 5.3428323938790941e-002
      -1.4763724078377869e+000 2.7621161681370937e-001
      -1.0367190358892846e+000 -1.9779191383062658e+000
      1.5953461112121210e+000 1.4162816124593591e-001
      -8.6519730243088233e-001 -2.1249453721757863e-001
      -6.3470579816260433e-002 1.0957802139621647e-001
      2.5304580986918446e-002 2.0113079993654087e-001
      -1.8760164444399677e-001 -7.4432153278170016e-002
      -1.4095272699991312e-001 7.5037393380234990e-002
      1.7518263973475370e-001 -2.3602717154454755e-001
      -1.0752332101737250e-001 1.8658970661891200e-001
      1.2781145642683034e+000 -1.6232283852952195e-001
      7.9099941758058767e-001 1.0479524038999877e+000
      -4.2002836627531198e-001 -3.6263642968113866e-002
      1.1172902274083661e-001 1.3476159790473891e-001
      -2.6108145346577499e-001 7.1585585592666312e-002
      7.2901205856674156e-001 2.6910373925572667e-001
      1.1426288226369495e-001 -2.4396380753111124e+000
      -7.1915878463959207e-002 1.7555779281948400e+000
      7.0095323811284430e-002 -1.2773991720427735e-001
      8.3919181610491861e-002 -3.8916651681491403e-004
      -4.4806369016265953e-002 -2.2170359459645468e-002
      -4.3659064062488373e-001 -9.2692337577683151e-002
      1.2779746083498600e-002 -4.3525593131371249e-002
      1.1253381448813134e-001 -3.9242224171159051e-001
      -3.0786213856996052e-004 -8.1020869703668535e-002
      1.5808415643238571e-001 -3.6905460904157583e-002
      -3.1216427938158216e-002 4.9827450510196103e-002
      -1.6929579548924059e-002 4.4370814968746196e-002
      5.7602543396888016e-003 -9.6239995835917636e-002
      -1.5028601611441661e-001 -1.1077146129505167e-001
      4.8162907474606283e-002 1.1765963099559047e-001
      -1.9701378164087213e-001 2.3479244226419502e-001
      9.6449738591048453e-002 4.5522392231157928e-002
      -2.8575231057289353e-002 2.4179396414471324e-002
      9.0513836065199305e-002 -2.6843468808659964e-002
      -1.4743622978320770e-001 -7.7755005543477501e-002
      -3.2838314556213372e-001 1.0511030217782233e-001
      9.3827381851925976e-002 -1.0419684316994229e-001
      3.5231749449902389e-001 -5.0738988472487076e-002
      8.0256520988114963e-002 -3.5795476108585238e-002
      -2.7663455908226289e-002 1.9153359513724891e-001
      -7.9153421902157226e-002 -1.3243718662892889e-001
      2.6167599065966704e-002 -3.0674097501921804e-001
      1.3660426993777938e-001 1.6074218461332479e-001
      -3.0997343366999114e-001 9.3029348877899515e-002
      -8.5542545078484883e-002 -1.3631875143332844e-001
      -1.1885954631198493e-002 8.1088481030610213e-002
      3.3640953613348951e-001 -2.5338610794602496e-002
      1.9976862281321678e-001 -2.5926905205987105e-001
      1.6330598583110253e-001 1.2118831123454032e-001
      -4.2448000916570044e-001 2.5296948916323608e-001
      -2.3740602813888620e-001 -7.1896244762227590e-001
      2.9458846417043077e-001 -1.8998856385550800e-001
      -9.5515321748874971e-001 1.8866081680701449e-001
      -2.3743427994062968e-001 -7.9809396968033491e-002
      -2.9418049560547038e-002 2.7312741999238440e-002
      1.0938146841561713e-001 -6.0373929364202739e-001
      2.0756863135303241e-002 -2.6856868168168990e-001
      -8.0432012571581321e-002 -1.2758214545633811e-001
      2.5988536254754474e-002 -1.4375048532809048e-001
      -6.3348946852990112e-002 -2.2709188514555731e-001
      -2.3230107681676024e-001 1.5662099284895639e-001
      1.7932227695155992e-001 3.4979886480893380e-001
      -8.2599696034808906e-002 8.1725465121206417e-002
      -1.2795972023215510e-001 -2.8371782539495120e-002
      2.8032555948539636e-002 -2.0839701566946506e-001
      -1.6937523810221525e-002 2.9050878860251872e-001
      1.3872419964573998e-001 -6.2165100414064881e-002
      2.7623751920184669e-001 1.0363675264387381e-001
      -1.4788351847413822e-001 1.6508143563167185e-001
      -3.6980330224971530e-001 6.6960646385927344e-002
      4.9516217548750635e-001 3.8527399823034332e-002
      -1.1274566391194792e-002 4.7488431692515327e-002
      -1.7473750150053166e-001 4.0347278674514425e-001
      -1.1642989966813523e-001 2.4536997838060823e-001
      -7.6589936209539916e-003 5.6563084592343271e-001
      2.7582436344221734e-001 -4.3846457379494386e-002
      -1.1260731506434692e-002 -2.3970921963978020e-001
      -4.5606561103523506e-002 2.0115327459318214e-001
      3.4406719653711219e-002 5.9371356956439608e-002
      4.1078574959400808e-002 -1.6487233147084959e-001
      -1.3470010214196720e-001 6.0572489658256064e-003
      5.7694269421957281e-002 2.7544743103866737e-001
      -2.8883337491105560e-001 3.9463268086102643e-001
      1.3287114289572124e-001 8.5922508864700417e-002
      2.1078125992351035e-001 -1.8262427497656733e-001
      2.7679041396593623e-001 5.2543689850349329e-001
      6.4598302300795704e-002 -2.2055765727264928e-001
      8.6330006879038440e-002 -7.1834597175310155e-002
      -2.7926598227696081e-001 4.2466299075888114e-001
      3.2648552558548904e-001 5.7892251109545746e-002
      7.0484739294367171e-001 4.3080794882265544e-002
      -3.4806336342320926e-001 -1.1726906851389689e-001
      -6.5332004345416486e-002 6.4843730751298359e-002
      -1.4798958623419700e-002 1.6007093108642112e-001
      -7.4103835131133000e-002 3.3085408833738911e-001
      3.8925055870063396e-001 -6.9238750536732944e-003
      7.5973974536841890e-002 -2.1158553941188066e-001
      -1.5670171806742914e-001 5.2928385253073484e-001
      -3.1956856750681650e-001 -7.5356923391297001e-002
      1.9056092906710140e-001 4.6263332421219792e-002
      3.9490446818855607e-001 9.9584914248949008e-001
      -1.8586893136879867e-001 8.4471300762191359e-001
      1.0077673692386595e-001 -9.4980663273126840e-004
      8.9116947414763004e-001 6.6747759417816396e-002
      1.0441173824928362e-002 -8.4060539334933168e-002
      1.0338532520889121e-001 -8.9326118780233429e-002
      -6.6196099121776375e-001 1.3586649054047195e-002
      -3.9248917856931487e-001 -1.7302059631264022e-001
      -2.3732984654978955e-002 1.0151863185463213e-001
      3.7076765457898975e-001 -7.5114365053096988e-002
      -2.7673951141807207e-001 2.7563001332200160e-002
      -1.2866760243414930e+000 4.6175415630453454e-001
      3.2533296469857609e-001 -1.9797013373672873e-001
      -6.6142404114360079e-002 -1.6959756647322630e-001
      -9.8560206838122763e-002 -4.2491017060623909e-001
      -2.7903439413040865e-001 4.4389315875649116e-001
      -2.9221807507435782e-001 1.3579340403996051e-002
      -9.8250508014838450e-002 -2.0604014694424058e-001
      -2.7356397247151210e-001 -4.6628844797679703e-002
      4.3179939948869888e-003 1.2047891410347210e-001
      1.4243684145737848e-001 8.1984668506636618e-002
      -6.1655337922369255e-002 1.3690861412280270e-001
      4.3993376048821164e-001 9.5912391385735984e-002
      6.3679049661620732e-002 1.3956346567872263e-001
      2.0574081165385114e+000 2.6317122384926384e-001
      -4.6266612236470245e-001 4.3144168161515917e-001
      8.0759076062495583e-001 6.8418814535852218e-002
      -5.2978433417235626e-002 -1.8500979009699098e-001
      -3.1824202282254299e-001 -1.7113792642854170e-001
      4.8800988539784418e-001 -4.0577615176629594e-001
      -3.9063180999878738e-002 -1.1553914263138707e+000
      5.7401099803079692e-001 4.9740210737641163e-002
      9.4647440572306160e-002 -3.1185511420047612e-001
      -9.2757702528761428e-003 -9.3158237648764552e-001
      3.6698970362827338e-001 -3.4992689913297015e-001
      1.0811547107140962e-001 1.6819959250143768e-001
      6.1520158996522925e-002 1.2231649519370089e-001
      2.0553984761576713e-001 8.5324196233307198e-002
      -1.8847450591628286e-002 -7.6848372685117600e-002
      2.0300011853009964e-001 -5.5615268187822073e-002
      -1.4130951528688701e-001 1.5892761321099133e-001
      -8.3474959989235076e-001 2.7956182974885885e-001
      7.1039503369451529e-001 3.6390444408555667e-001
      -1.4559965411737559e+000 1.9013001716844702e-001
      8.7192672782825553e-002 -6.1460486402965073e-002
      -1.9166624357793161e-001 -4.7716561552801556e-001
      8.1950551115620676e-002 -8.2370665762123696e-001
      1.1781176555081260e-001 -9.8525383461316651e-001
      -8.4278487218601456e-002 -2.3265628419579276e-001
      3.8726358246740991e-002 1.9176436840096756e-001
      5.8514573073255145e-002 -8.0587964899514208e-001
      2.8957042004647132e-001 -1.8849998130596621e-001
      -1.1113087476196776e-001 1.8629781855347008e-001
      1.7349928391388650e-001 7.5889493944475139e-003
      4.3465997698248637e-001 -1.3022044432469124e+000
      4.3634969172103666e-001 -4.8097298218417198e-002
      -6.0873002682449197e-002 2.5897390842806001e-001
      5.6069123097698445e-002 1.2849209059031279e+000
      -1.0375113087293350e-001 -1.0699040068286866e-002
      -3.0633350350778749e-001 -1.5828463744834750e-002
      -9.7160364044338296e-002 4.2663697197171563e-001
      -4.1492247491552607e-002 7.5591707349662321e-002
      1.0805320510603122e-001 4.1468996954949489e-001
      -3.3754233772826031e-001 1.6831892345056221e-001
      2.1614898640818420e-001 -7.4067656536695392e-002
      -1.1036017980430904e-001 -4.0923199221592899e-001
      -8.5583202379948528e-002 -1.1181163525059722e-001
      7.2017477479578082e-002 2.9184642338872036e-001
      -2.6752392115937212e-001 6.9685483879633678e-002
      -1.4258383736672411e-001 1.9165460297401582e-001
      1.1457173041639518e-001 -3.8218721785963317e-001
      -4.5544708945720727e-002 -2.1537339659373639e-001
      -6.8092250197130028e-002 8.0534435720670272e-001
      2.9892635944635298e-001 -1.3414288906332780e-001
      1.5159571472260472e-001 -4.8093494779580237e-001
      9.1976387133299559e-002 2.2595534802271031e-001
      1.7434564149865467e-001 7.5282436441817910e-002
      1.5599723754544462e-001 1.8841925765255826e-001
      -6.8996378570020347e-002 -9.5059544596738446e-002
      -1.4779857729569781e+000 1.2325701949113858e-001
      -1.7640759911344632e+000 -2.4578943589998223e+000
      2.8016989541863785e-001 -1.0081066154533336e+000
      1.2193877353187368e+000 5.3435245413914159e-002
      -6.1681802380946671e-001 7.0740241978827889e-002
      3.4190443110080876e-002 1.8381785805596801e-001
      -1.7587019251875927e-001 -6.0795899679708532e-001
      3.8161089121003633e-002 1.2458207031118251e-001
      1.5846703544011492e-001 4.9469196057340631e-001
      -3.4259869242789265e-001 -4.8530974576176625e-002
      1.3192431514050027e+000 5.8549899334219765e-003
      8.0676039345582051e-001 4.1824752331507253e-001
      -2.4570958933726517e+000 -1.4366990291418033e-001
      2.9959378666961304e-003 1.0848007794372527e-001
      -2.5502913488365864e-001 -1.1356069474296317e-001
      2.7891960622800031e-002 2.5780063830012234e-001
      1.1048518412543655e+000 -1.4681062565949341e+000
      3.6579817371521284e-001 1.4211574972202146e+000
      -8.1287216157011309e-003 -1.5994103317563808e-002
      -6.7557631219312714e-002 1.4452564822524361e-001
      -1.4637331628200634e+000 2.8805648893054758e-001
      -1.8440818186216561e+000 -1.0488364184036147e+000
      6.1605528066319937e-001 -1.6987653924317667e-001
      -1.3437726724880903e+000 2.9165476223073034e-001
      6.0731449111198765e-002 -1.4489501642807909e-001
      -4.6522489495694833e-002 1.7453077880535048e-001
      -2.1475109024995434e-001 7.8302277276628446e-002
      -1.5488774985595966e-001 -1.8560865878970073e-002
      1.6423154150872829e-001 4.7267891503627596e-001
      9.5397027153685574e-002 1.9389302047705367e-001
      4.3185098692630658e-001 -1.1946683243714930e-001
      6.9717096615715002e-001 -2.1818065849876037e-001
      -7.5140949523836520e-001 1.9544682531829029e-002
      -2.9983531172791553e-002 -9.3344253116379224e-003
      -2.3698474334149408e-001 -2.0532453649291071e-002
      7.0339498023694313e-001 2.9258798913889666e-001
      8.6980649018995410e-002 -9.4129365134723408e-001
      7.6306792872166268e-002 1.6830498067820538e+000
      3.5944400646064051e-002 -1.2883825503875881e-001
      8.9866980109832406e-002 2.8658858932458665e-002
      -2.3067077223406087e-002 -2.5432000858999011e-002
      -3.4538314280126736e-001 -4.7192873880711417e-002
      -2.1180857418376381e-001 -2.4266212555767960e-001
      3.0516030715942621e-002 2.4394826726532929e-002
      -5.8512598685217999e-002 -8.8837801931977808e-002
      -2.1483212756980730e-001 2.4638822478412852e-002
      -2.9271155921638429e-002 1.1098196577539227e-001
      1.5979081806941065e-001 -2.1538812167134144e-002
      -4.4819002059272660e-002 -1.8589730571172436e-001
      2.1516609718665355e-002 -8.8584399557404311e-002
      -1.7948330909708862e-002 -5.1550069835561728e-002
      1.1936312585635769e-001 3.4203133812723169e-001
      -4.4524631338707571e-002 2.2133779528197958e-001
      2.0927278915521247e-001 -1.0921961298016121e-001
      4.3395240053363801e-002 3.3565690826626221e-002
      -2.5624848322013499e-001 1.2926692639315007e-001
      -3.1984835181557814e-001 -7.0326313660360906e-002
      3.6341493232624172e-001 -4.4741003833844417e-001
      2.3466481660962582e-001 -7.0817142983511217e-002
      8.7032822044800756e-002 8.1777971527193776e-003
      3.9888299519097073e-002 8.8288503639068795e-003
      -5.8764567605942590e-003 -1.2415878912919028e-001
      1.1385190184006119e-001 9.9358066517427091e-001
      2.3875740071956159e-001 7.4527989265800054e-001
      -5.9591747755469798e-002 -1.0667906115071699e-001
      5.4614440150640514e-002 -2.9472492574109299e-001
      -4.8348839202926406e-003 3.5213777239755356e-001
      3.7712132194375431e-001 -1.3567664517805034e-001
      -7.4552233158180242e-002 6.3725001515671442e-001
      3.3293218019978693e-001 2.7799843403468044e-001
      -4.5236638186378542e-001 6.2717583284394307e-002
      3.8579799097765943e-001 -2.9573809090236158e-001
      -4.0882649091279305e-001 -1.6410298021328582e-002
      -8.1105956375190980e-001 1.8161897628849763e-001
      -2.7703236675159315e-001 -6.5303674414822654e-002
      -8.1715909771659018e-002 6.5273787117078623e-003
      9.6717395557673236e-001 -4.5052092097315583e-001
      -2.3555758011922140e-002 -2.7458798664637191e-001
      4.1332821535605357e-001 -9.3922877247494041e-002
      1.0930594367839634e-001 -1.7897421089900853e-001
      -6.2928147251751790e-002 -2.4507901439074470e-001
      -2.2531474029266355e-001 1.8946335541419351e-001
      2.3687903612523126e-001 2.9037820093177785e-001
      -2.2828026035070381e-001 6.6646237289472457e-002
      2.3593039537326477e-001 -4.4500232515525269e-002
      -9.8377775186173577e-002 4.4715074281560394e-002
      1.8560154090709824e-002 3.1041342611008188e-001
      1.8125738056682253e-001 1.4661725501840620e-001
      2.5686134515622205e-001 2.1568119309831012e-002
      2.8491983809239070e-002 1.5904532946449429e-001
      -2.1160152181178576e-001 -3.4835546628328745e-002
      5.8771857694773866e-001 4.2947773537735823e-002
      -1.0176151757333644e-001 -1.7244418269521489e-001
      -1.7289532703362093e-001 9.0039417325842197e-002
      -1.2753901939298601e-001 8.4219778747482883e-003
      2.0581842102731887e-001 1.4253313376457616e-001
      1.8248108167258423e-001 -2.7549347983115969e-002
      -8.7910443212436745e-004 -1.6314877680854933e-001
      5.8160102056916074e-001 1.4758798324359299e-001
      2.1805321263887928e-002 2.4460450976094620e-002
      1.6612789805334680e-001 -2.3401674238077930e-001
      -3.2849134848105649e-001 1.9901462276490095e-001
      8.2624278772588156e-002 -1.0718662554575414e-001
      -3.4275716519226090e-002 -1.6165968343357040e-001
      1.3497759547605340e-001 1.5265278221687861e-001
      -1.7453709373650489e-001 -1.2517045007714531e-001
      2.6724458630162279e-001 2.9053424366821362e-001
      1.4802309558257248e-001 -4.1307514440777328e-002
      9.1995919146181174e-002 1.1314804240602176e-001
      -4.6606085805452074e-001 2.3822663056844073e-001
      2.1869909521368178e-001 -2.3798294579325256e-002
      -2.0786770401658754e-002 -2.9121507994643148e-001
      -1.2848709239171094e-001 -1.8371056240859066e-001
      1.0746444762661055e-002 4.4742418511384846e-001
      -2.1689422836110875e-001 -3.2373412821223363e-001
      -1.8789090806892125e-001 -8.2214146013149053e-002
      1.0963239867808275e-001 1.1120610222828688e-001
      8.6069904269178363e-003 -3.3597542722911472e-001
      4.8682793011495568e-001 1.4917473601378445e-001
      8.2942744937396798e-002 -9.5864085778722838e-002
      1.4889106064487445e-001 4.1871605991738220e-001
      1.0943182661700601e-001 -1.3801864982490236e-001
      1.2047141212631050e-001 1.2826799474693740e-001
      -2.2974560266868874e-001 1.2134917826643291e-001
      1.7550194548417636e-001 4.5980177802590338e-001
      4.5367180582892436e-002 1.9886456414122883e-001
      -1.2396601132805747e-001 -6.1498971814086545e-001
      1.5714879334246343e-001 3.8903354646413224e-001
      -2.3467933384270642e-001 -3.7047807245034725e-001
      1.1383381684807854e-002 2.3335301560752815e-002
      1.1652431629410414e+000 -2.4700359052622450e-001
      1.4379187931939324e-002 -9.3961878658245568e-002
      -4.5541867484932513e-001 4.0470951440494445e-002
      1.2797835914126721e+000 -2.8835042103418396e-001
      -1.1660161217827429e-001 -6.7442277281453675e-002
      1.2582703462819772e-001 -2.5535610768369688e-001
      7.8883326259014272e-002 2.0566540670510353e-001
      -1.9067512270110093e-001 4.2545726161555289e-002
      1.6444086226121593e-001 -1.1124310995652244e-001
      -1.7202020160660060e-002 9.6847053680286732e-002
      1.6072353632688430e-001 -4.6860151654123591e-002
      9.5792620813113113e-002 -2.5405676574342298e-002
      -4.9963537102321987e-002 -8.3970430986845535e-002
      1.8293129745370361e-002 -1.5910123897610023e-001
      -2.1243671900183708e-001 3.7085607390258582e-002
      8.8409725344850154e-001 3.8525523814334488e-002
      -3.2160973656325625e-001 5.5603561550030334e-001
      6.8226620024240880e-001 6.9988464500268924e-002
      -1.4073551626538891e-001 3.1835679653620352e-001
      1.4349940557050770e-002 3.7383394536089298e-002
      -1.7656525784954510e-001 -3.7734343239309576e-001
      3.2097388119637769e-002 -4.6884257009137187e-001
      3.7720593825223719e-001 -3.7341492862975424e-002
      2.0708973495131125e-001 -3.9824124991320758e-001
      4.9765368342986017e-003 1.1335108146036649e-001
      7.1170483434962800e-003 -5.8196451151178741e-001
      6.8625358793566182e-002 -2.9586178139152897e-001
      8.3329009337232227e-003 6.8672930819839897e-002
      4.9901997659415243e-001 7.2258532482763571e-001
      3.3398722177108409e-001 -1.9702120696689890e-001
      1.4051367029000475e-001 -1.7440562478857818e-001
      -5.5912712338535209e-001 2.1703716437028835e-002
      -6.2446845943073974e-002 1.7487647348722459e-002
      5.5357281895109564e-002 1.7781605884898743e-002
      -3.1255301232560689e-001 6.8091220690301346e-001
      2.4440950357983052e-001 -1.9581085188487697e+000
      -4.1533360392569341e-001 -9.5311742382147513e-001
      4.3512957344235853e-001 -6.4364253146272565e-001
      -2.1351798090699350e-001 3.2000815463606919e-001
      -1.8787210328976769e-001 -2.3200504002150274e-001
      -2.6464266567172157e-001 8.3300848285871552e-003
      6.1639910701074926e-002 -2.2389278497106949e-001
      -9.0385451065649498e-003 -8.7743321791652146e-002
      2.9305939862378444e-003 2.0410143946208956e-001
      2.2929033377431937e-001 -5.1071099848574138e-003
      -1.7355960059250464e-001 1.2067226762682572e-001
      -2.6302936269353473e-002 -2.8288802964138787e-001
      1.7448452825617591e-002 1.6117027396793004e-001
      2.4329061283892495e-001 1.5186886427351595e-001
      -1.9397332172999930e-002 -3.1365225899861254e-001
      -8.7612075377843917e-003 -4.5408351541549574e-001
      -2.3059464924177045e-001 -1.3471512461502755e-001
      8.1770984675424166e-002 6.9930910844603678e-002
      3.5199559224188971e-002 8.8240523009023922e-002
      -3.4355925168675455e-001 8.1433198605544466e-001
      4.1765228175396762e-001 -6.3252209993175046e-001
      -2.2891124583266104e-001 -4.3107739332254563e-001
      -1.0023858278759920e-001 -1.1581293085884471e-001
      1.2096485106683182e-001 6.3430214612416669e-001
      -2.2639017733163966e-001 1.0113315054516114e-001
      1.5144040624831488e-002 1.9965290128188654e-001
      2.9414092570770306e-001 -3.5963337440276122e-001
      -7.9270584024224031e-002 1.8888347768506486e-001
      3.8273620708324529e-001 -7.6960662124470738e-002
      -1.0967532693280591e-002 -7.8578638849578247e-002
      7.7163607804857190e-002 3.4608835252705084e-001
      2.5286372948595814e-001 3.3162310749844687e-001
      1.5675096175727665e-001 1.5157013696014005e-001
      2.1341530663212613e-001 5.6023764246609736e-002
