<?xml version="1.0"?>
<opencv_storage>
<ann type_id="opencv-ml-ann-mlp">
  <layer_sizes type_id="opencv-matrix">
    <rows>1</rows>
    <cols>3</cols>
    <dt>i</dt>
    <data>
      140 40 54</data></layer_sizes>
  <activation_function>SIGMOID_SYM</activation_function>
  <f_param1>1.</f_param1>
  <f_param2>1.</f_param2>
  <min_val>-9.4999999999999996e-001</min_val>
  <max_val>9.4999999999999996e-001</max_val>
  <min_val1>-9.7999999999999998e-001</min_val1>
  <max_val1>9.7999999999999998e-001</max_val1>
  <training_params>
    <train_method>RPROP</train_method>
    <dw0>1.0000000000000001e-001</dw0>
    <dw_plus>1.2000000000000000e+000</dw_plus>
    <dw_minus>5.0000000000000000e-001</dw_minus>
    <dw_min>1.1920928955078125e-007</dw_min>
    <dw_max>50.</dw_max>
    <term_criteria><epsilon>1.0000000000000000e-002</epsilon>
      <iterations>1000</iterations></term_criteria></training_params>
  <input_scale>
    7.9039346866577826e+000 -2.6200885475285731e+000
    7.3076806331357425e+000 -2.6377799390981229e+000
    6.8631530306944448e+000 -2.4752130905617737e+000
    5.7612011988025271e+000 -2.1884156809899387e+000
    3.7535998690312895e+000 -2.0341106826155859e+000
    3.4568790763016870e+000 -2.3846708673627992e+000
    3.8668788031112720e+000 -3.1402838694286141e+000
    3.8585806564414096e+000 -3.1502605324729380e+000
    5.0845393374409786e+000 -3.9454867915423355e+000
    5.6464498852725473e+000 -4.2942146861786687e+000
    5.5502933723246031e+000 -4.2989287479895468e+000
    5.2701350525335116e+000 -4.3048435073814399e+000
    5.1848656650722091e+000 -4.4439136079942276e+000
    4.9256837383375345e+000 -4.0193752000556371e+000
    4.5859179851809904e+000 -3.2201356563716850e+000
    4.9965085967944649e+000 -2.5293044139680321e+000
    6.2304982923783951e+000 -2.9479266195392423e-001
    1.1340376226219904e+001 -2.8998293312322354e-001
    1.3439122347971468e+001 -2.8790607098074400e-001
    1.3048363094186795e+001 -2.9079207575222227e-001
    5.8156220364978051e+000 -4.3214272146237374e+000
    6.0895280693584954e+000 -4.9208553535200670e+000
    6.1475802128998902e+000 -5.0386870618281101e+000
    6.1959963502510309e+000 -4.8410975598081087e+000
    6.4242241521934069e+000 -4.7394898192500614e+000
    6.5762463791775341e+000 -4.8056860125759746e+000
    6.5754229741895980e+000 -4.8166275454129792e+000
    6.5944814050768361e+000 -4.8464538022551631e+000
    5.7681372677860558e+000 -4.3191512709207895e+000
    5.5551645147266635e+000 -4.3013040402796774e+000
    5.5935062965872735e+000 -4.2983633319937393e+000
    5.6428711370982656e+000 -4.1452825228399988e+000
    5.8471583591727354e+000 -4.1237115242489457e+000
    5.9193420520687372e+000 -4.1878673281485863e+000
    5.8994508367449798e+000 -4.2576243261314968e+000
    5.8203716143445501e+000 -4.1641076273024114e+000
    5.3097066189007194e+000 -3.9470215046025450e+000
    5.1815578641611815e+000 -4.0280092974932034e+000
    5.1705261545434711e+000 -3.9418490664767005e+000
    5.3597099271112443e+000 -3.8720838263890940e+000
    1.8518505841242068e+000 -1.3537158642780751e+000
    1.0133075656142762e-001 -2.2463739716510830e-001
    1.4476242541590103e-002 -6.8262772857668630e-001
    1.0663962261232982e-002 -1.4364425464225699e+000
    1.0035229100424392e-002 -1.5815459006965216e+000
    1.1044481037099875e-002 -1.8985153130448778e+000
    1.1498584506702977e-002 -1.6362513686878788e+000
    1.6204461550219984e-002 -6.3629173077225876e-001
    1.2238133791494725e-001 -1.2005695738034357e-001
    4.5163273933775621e+000 -2.0696509145888783e-001
    1.8031862714166167e+000 -1.5140711581108606e+000
    6.5325443091456020e-002 -2.3833399290434043e-001
    1.2147784225787711e-002 -9.2857442631129183e-001
    1.0573538076024692e-002 -1.8093570057890336e+000
    1.2155559083933684e-002 -1.4976183013194659e+000
    1.1893392849275665e-002 -1.6690714205461579e+000
    1.0797859972012880e-002 -1.8916810947700708e+000
    1.3506779462026258e-002 -8.8878069077486110e-001
    9.5617158654783679e-002 -1.5508224672277635e-001
    4.1317175072906922e+000 -1.9663982394459897e-001
    1.8081086433264544e+000 -1.4988374100542947e+000
    5.5422099526861952e-002 -2.3346926621579689e-001
    1.1123343735752196e-002 -8.9522896036708366e-001
    1.0491814384595998e-002 -1.5131464780370671e+000
    1.0584851594632343e-002 -7.9653112129121439e-001
    1.0136270005228529e-002 -8.4284271538506739e-001
    1.0133767455908179e-002 -1.3862660414278032e+000
    1.1938938358259765e-002 -8.2928292980468354e-001
    6.9286920109059333e-002 -1.6799170768933480e-001
    4.2733228818899667e+000 -2.0621047917247298e-001
    1.8377327148993767e+000 -1.3543538139618418e+000
    5.5673749592452686e-002 -2.3007226200838662e-001
    1.1128513991733391e-002 -8.8622712556010153e-001
    1.0365739645396627e-002 -1.5613246539404078e+000
    1.0249960092548241e-002 -1.0231646890881121e+000
    1.0290240672994867e-002 -1.0504829006817202e+000
    1.0104687766921161e-002 -1.2789649253274966e+000
    1.2304005032084196e-002 -7.3744820442795533e-001
    7.4511264819406037e-002 -1.5858327276162013e-001
    4.6021227317778122e+000 -2.1851952017054541e-001
    1.7727457576690266e+000 -1.1379164188747850e+000
    6.5513069565938817e-002 -2.1602818941895593e-001
    1.1607005316729807e-002 -8.2622370498565800e-001
    1.0004938211980965e-002 -1.6134686332324020e+000
    1.0291941395383076e-002 -1.5897333174024657e+000
    1.1391014034503513e-002 -1.9553915822097852e+000
    1.1425552073689664e-002 -1.8535964823894910e+000
    1.3339560232243751e-002 -7.0690536581439589e-001
    8.8331162033710567e-002 -1.3995846334162024e-001
    4.4327102894622179e+000 -2.0362273414490753e-001
    1.7228380800259888e+000 -1.2517971031990951e+000
    6.5434046088745118e-002 -2.1727051301773032e-001
    1.1826661082617701e-002 -7.6194073712250321e-001
    1.0223754215317887e-002 -1.4564740385654871e+000
    1.1300578899488819e-002 -1.3177540665353009e+000
    1.0746723514479814e-002 -1.5372252870620462e+000
    1.1053058747295893e-002 -1.8576181114734034e+000
    1.2825681766257938e-002 -8.0237555770570201e-001
    8.5591116484456206e-002 -1.5569152626418364e-001
    3.7359532510806237e+000 -2.0461934767402709e-001
    1.7471123970344371e+000 -1.2729071991644452e+000
    5.9536107256740987e-002 -2.2752049469316388e-001
    1.1226345392389188e-002 -8.2455374694855321e-001
    9.7750150387926702e-003 -1.2538151439814640e+000
    1.1691661877297222e-002 -7.6565667435718043e-001
    1.0437585238853924e-002 -9.2289645028919332e-001
    1.0286000905970356e-002 -1.5172896292228701e+000
    1.1718924679866760e-002 -8.6237361656456801e-001
    6.2874419372211263e-002 -1.8057649883522997e-001
    3.4529874869301227e+000 -1.7577597520702148e-001
    1.3047224297926210e+000 -8.6746176565607003e-001
    5.5615641740877290e-002 -2.3908093341125805e-001
    1.1177817094692627e-002 -9.8964042884650372e-001
    1.0822450665314062e-002 -1.6388830455775611e+000
    1.1027547479381337e-002 -8.3307544112263154e-001
    9.6673402715101390e-003 -8.9384253770542466e-001
    1.0045435789982593e-002 -1.4592737019202175e+000
    1.1671654351099471e-002 -8.7714106375685930e-001
    6.6356848534240662e-002 -1.8098654580341700e-001
    4.0679243522954964e+000 -1.8506899659294881e-001
    7.3205281707532610e-001 -5.1306749447626931e-001
    7.0404876614116887e-002 -2.2752530024169001e-001
    1.2039669167009779e-002 -9.7665035826647772e-001
    1.0587085610005311e-002 -1.8247092229533257e+000
    1.2457765864434084e-002 -1.5149941892187184e+000
    1.2709018367141889e-002 -1.6330625486046193e+000
    9.6055072412219600e-003 -1.5430914329878893e+000
    1.3953202232420345e-002 -8.2938505844702348e-001
    9.2459843511483494e-002 -1.4157913537695910e-001
    4.8249846223456698e+000 -1.6037106573830021e-001
    1.6039136748178451e+000 -1.2174583260487926e+000
    9.6261173859015947e-002 -2.0258852833248508e-001
    1.4794726185740166e-002 -6.5266045839257913e-001
    1.1268606004870075e-002 -1.4461431626994212e+000
    1.0047745545660342e-002 -1.5678732484251321e+000
    9.9160836378578733e-003 -1.4478489487260442e+000
    1.1128231918515807e-002 -1.2931863208604140e+000
    1.6781428635647810e-002 -5.5927038783557415e-001
    1.2188582726833116e-001 -1.1420066744388140e-001
    4.6042236672651811e+000 -1.6625233427514513e-001</input_scale>
  <output_scale>
    5.2631578947368418e-001 4.9999999999999994e-001
    5.2631578947368418e-001 4.9999999999999994e-001
    5.2631578947368418e-001 4.9999999999999994e-001
    5.2631578947368418e-001 4.9999999999999994e-001
    5.2631578947368418e-001 4.9999999999999994e-001
    5.2631578947368418e-001 4.9999999999999994e-001
    5.2631578947368418e-001 4.9999999999999994e-001
    5.2631578947368418e-001 4.9999999999999994e-001
    5.2631578947368418e-001 4.9999999999999994e-001
    5.2631578947368418e-001 4.9999999999999994e-001
    5.2631578947368418e-001 4.9999999999999994e-001
    5.2631578947368418e-001 4.9999999999999994e-001
    5.2631578947368418e-001 4.9999999999999994e-001
    5.2631578947368418e-001 4.9999999999999994e-001
    5.2631578947368418e-001 4.9999999999999994e-001
    5.2631578947368418e-001 4.9999999999999994e-001
    5.2631578947368418e-001 4.9999999999999994e-001
    5.2631578947368418e-001 4.9999999999999994e-001
    5.2631578947368418e-001 4.9999999999999994e-001
    5.2631578947368418e-001 4.9999999999999994e-001
    5.2631578947368418e-001 4.9999999999999994e-001
    5.2631578947368418e-001 4.9999999999999994e-001
    5.2631578947368418e-001 4.9999999999999994e-001
    5.2631578947368418e-001 4.9999999999999994e-001
    5.2631578947368418e-001 4.9999999999999994e-001
    5.2631578947368418e-001 4.9999999999999994e-001
    5.2631578947368418e-001 4.9999999999999994e-001
    5.2631578947368418e-001 4.9999999999999994e-001
    5.2631578947368418e-001 4.9999999999999994e-001
    5.2631578947368418e-001 4.9999999999999994e-001
    5.2631578947368418e-001 4.9999999999999994e-001
    5.2631578947368418e-001 4.9999999999999994e-001
    5.2631578947368418e-001 4.9999999999999994e-001
    5.2631578947368418e-001 4.9999999999999994e-001
    5.2631578947368418e-001 4.9999999999999994e-001
    5.2631578947368418e-001 4.9999999999999994e-001
    5.2631578947368418e-001 4.9999999999999994e-001
    5.2631578947368418e-001 4.9999999999999994e-001
    5.2631578947368418e-001 4.9999999999999994e-001
    5.2631578947368418e-001 4.9999999999999994e-001
    5.2631578947368418e-001 4.9999999999999994e-001
    5.2631578947368418e-001 4.9999999999999994e-001
    5.2631578947368418e-001 4.9999999999999994e-001
    5.2631578947368418e-001 4.9999999999999994e-001
    5.2631578947368418e-001 4.9999999999999994e-001
    5.2631578947368418e-001 4.9999999999999994e-001
    5.2631578947368418e-001 4.9999999999999994e-001
    5.2631578947368418e-001 4.9999999999999994e-001
    5.2631578947368418e-001 4.9999999999999994e-001
    5.2631578947368418e-001 4.9999999999999994e-001
    5.2631578947368418e-001 4.9999999999999994e-001
    5.2631578947368418e-001 4.9999999999999994e-001
    5.2631578947368418e-001 4.9999999999999994e-001
    5.2631578947368418e-001 4.9999999999999994e-001</output_scale>
  <inv_output_scale>
    1.8999999999999999e+000 -9.4999999999999996e-001
    1.8999999999999999e+000 -9.4999999999999996e-001
    1.8999999999999999e+000 -9.4999999999999996e-001
    1.8999999999999999e+000 -9.4999999999999996e-001
    1.8999999999999999e+000 -9.4999999999999996e-001
    1.8999999999999999e+000 -9.4999999999999996e-001
    1.8999999999999999e+000 -9.4999999999999996e-001
    1.8999999999999999e+000 -9.4999999999999996e-001
    1.8999999999999999e+000 -9.4999999999999996e-001
    1.8999999999999999e+000 -9.4999999999999996e-001
    1.8999999999999999e+000 -9.4999999999999996e-001
    1.8999999999999999e+000 -9.4999999999999996e-001
    1.8999999999999999e+000 -9.4999999999999996e-001
    1.8999999999999999e+000 -9.4999999999999996e-001
    1.8999999999999999e+000 -9.4999999999999996e-001
    1.8999999999999999e+000 -9.4999999999999996e-001
    1.8999999999999999e+000 -9.4999999999999996e-001
    1.8999999999999999e+000 -9.4999999999999996e-001
    1.8999999999999999e+000 -9.4999999999999996e-001
    1.8999999999999999e+000 -9.4999999999999996e-001
    1.8999999999999999e+000 -9.4999999999999996e-001
    1.8999999999999999e+000 -9.4999999999999996e-001
    1.8999999999999999e+000 -9.4999999999999996e-001
    1.8999999999999999e+000 -9.4999999999999996e-001
    1.8999999999999999e+000 -9.4999999999999996e-001
    1.8999999999999999e+000 -9.4999999999999996e-001
    1.8999999999999999e+000 -9.4999999999999996e-001
    1.8999999999999999e+000 -9.4999999999999996e-001
    1.8999999999999999e+000 -9.4999999999999996e-001
    1.8999999999999999e+000 -9.4999999999999996e-001
    1.8999999999999999e+000 -9.4999999999999996e-001
    1.8999999999999999e+000 -9.4999999999999996e-001
    1.8999999999999999e+000 -9.4999999999999996e-001
    1.8999999999999999e+000 -9.4999999999999996e-001
    1.8999999999999999e+000 -9.4999999999999996e-001
    1.8999999999999999e+000 -9.4999999999999996e-001
    1.8999999999999999e+000 -9.4999999999999996e-001
    1.8999999999999999e+000 -9.4999999999999996e-001
    1.8999999999999999e+000 -9.4999999999999996e-001
    1.8999999999999999e+000 -9.4999999999999996e-001
    1.8999999999999999e+000 -9.4999999999999996e-001
    1.8999999999999999e+000 -9.4999999999999996e-001
    1.8999999999999999e+000 -9.4999999999999996e-001
    1.8999999999999999e+000 -9.4999999999999996e-001
    1.8999999999999999e+000 -9.4999999999999996e-001
    1.8999999999999999e+000 -9.4999999999999996e-001
    1.8999999999999999e+000 -9.4999999999999996e-001
    1.8999999999999999e+000 -9.4999999999999996e-001
    1.8999999999999999e+000 -9.4999999999999996e-001
    1.8999999999999999e+000 -9.4999999999999996e-001
    1.8999999999999999e+000 -9.4999999999999996e-001
    1.8999999999999999e+000 -9.4999999999999996e-001
    1.8999999999999999e+000 -9.4999999999999996e-001
    1.8999999999999999e+000 -9.4999999999999996e-001</inv_output_scale>
  <weights>
    <_>
      5.1193134435880430e-002 1.4234607723085646e-001
      -2.0067590446729389e-001 -5.8400264634716072e-002
      -2.0331860182338224e-001 5.9260471842134482e-002
      2.4261383363397312e-001 4.9504744985416724e-002
      1.5886882018537835e-001 3.6525180863806302e-002
      -1.3256338313535504e-001 -4.5494095420834851e-002
      -4.9272226062975988e-002 -5.7400379809803684e-002
      1.0472991180611627e-001 2.8401847792067794e-002
      -7.2611998411243647e-002 1.0776238175496827e-001
      7.6110707521091295e-002 -1.5842824449234236e-001
      -6.8989026403153894e-002 4.4014851047689089e-002
      1.7112521151994903e-001 1.5751534336182707e-001
      3.7225209496231412e-002 7.3329499990831298e-002
      -8.8469867234041405e-002 -1.5054847325695980e-001
      -1.6271823339590777e-002 9.2371395039710699e-003
      -2.1410831177491884e-002 2.6663826622551906e-001
      1.0162351270036651e-001 3.5936038197193300e-002
      1.6498053356142877e-004 1.1229842158954607e-001
      1.9610307769659324e-001 -4.8176516623447876e-003
      1.6712512793319041e-002 5.6083915302805175e-002
      4.5673338355546400e-003 7.2568173669870617e-002
      -3.8856286019174402e-001 5.4855203219463522e-002
      -2.3586680100656726e-001 1.6549033350100822e-001
      3.0028913149304676e-001 -1.9714865647182053e-002
      1.5098842442306454e-001 4.9802038897451259e-002
      -1.3379523499509891e-001 1.9332094022171963e-002
      2.5491241233376399e-001 -6.7863625665822436e-002
      1.3753540237654227e-001 8.5715200387656634e-002
      1.8696534580817877e-002 -9.3367668780801147e-002
      -2.2031843837670800e-002 2.2539386776452112e-002
      -1.4051782237822227e-001 -3.7300515362376059e-002
      5.5294673078739753e-002 -6.8721480208708358e-002
      -1.2154935724227621e-001 1.3222690577070570e-001
      -2.6354588188068916e-002 -3.5654509676191243e-001
      -3.5804139043012759e-002 3.3819145703192256e-002
      -3.6118746487797344e-002 1.1649744757160575e-001
      1.2054039490331456e-001 4.9427102324892044e-002
      1.7382718572500021e-002 1.0501643716498411e-001
      1.6860299304374043e-001 -2.6344096980620291e-002
      1.9831796829228859e-001 1.1086116279761653e-001
      -5.7815236839513111e-002 9.3822750927424134e-002
      -2.4854999245709225e-001 -1.8653628739455932e-001
      2.0754949594764383e-001 4.0675085159060004e-001
      4.7628099265206997e-001 1.5514475891332291e-001
      1.1130067723934524e-001 6.2305045672409687e-002
      5.0549859275672393e-001 -3.0829585489341138e-001
      2.0257338306140948e-001 -1.2689910536377430e-001
      1.0213885432923075e-002 3.6174194628420218e-002
      4.6228351623430211e-002 -1.9697550778427050e-001
      -8.7997537635993689e-002 -9.2608154914727459e-002
      -1.3327486879668773e-001 -2.2102935618918254e-002
      -3.1058007267677407e-001 -9.9164075848731187e-002
      1.3601372691213978e-001 -1.8100458802380807e-002
      -6.9306775597726952e-002 -2.6097920732372959e-001
      -1.1103322142666794e-003 -1.2580359931464696e-002
      -8.4475329798293392e-002 4.9383096693505402e-001
      -1.9883926860592788e-002 -6.1079065577653489e-002
      8.0253047846225570e-002 2.8547657154227954e-002
      4.8107027506126027e-001 -1.1481695182135872e-003
      -5.9145536671669757e-003 1.6948710104246809e-001
      -1.0550470382435714e-001 2.1763305198988189e-001
      1.1106115792214763e-001 -3.7670027809400014e-001
      8.8260756351320024e-002 7.6882385822360955e-001
      2.6978764540119121e-001 -1.3688506589021804e-001
      2.0957574438704496e-001 5.5914882245112610e-002
      -4.0688387913716907e-002 4.5818266324886760e-002
      -2.1197457185333027e-001 -1.1939467895571276e-003
      -1.6316925440096919e-001 1.0418168672775121e-002
      -1.1988522265677515e-001 1.6101645155763633e-001
      -5.3335247993008983e-001 -2.3491509401977525e-002
      -3.7379384822518125e-002 9.6086402752818920e-002
      -9.9397861056786566e-002 4.5845997340856669e-002
      -1.4562449873928626e-003 1.3036044328247057e-001
      6.7396887584867352e-002 -5.3453929831262459e-001
      -3.5545321264257118e-001 1.3086847138661395e-001
      9.1443266612817889e-002 -9.2572356212703294e-002
      -6.7200596494669307e-002 -1.0556656484096945e-001
      -4.8221358279723521e-002 9.8524882067337241e-002
      1.0400773838862644e-001 4.2553110966645394e-002
      9.5132081466474103e-002 -1.5463404154116902e-002
      -4.0415565291977748e-002 -1.5793914845468054e-001
      9.9634978273304160e-003 -9.1330936032911467e-002
      7.1360751968163036e-002 3.7918554919099584e-001
      3.0520255887573150e-001 7.2531049076321671e-002
      2.1698235795725090e-001 6.9779789930561317e-002
      -9.2318164393926261e-002 -9.6768664282119842e-003
      2.2365048446460334e-001 -1.4515635368634669e-001
      -3.1121043821688451e-002 1.3443954515456905e-001
      4.3781314972732625e-002 2.0726936004084831e-001
      -8.2369548795799802e-002 -8.2227098532941828e-002
      1.2644032221733220e-001 1.8178035815795987e-001
      2.8837698326910771e-002 3.3520315844860149e-001
      5.1637048860515837e-002 -1.9960587703207103e-001
      -8.0736365103213706e-002 2.0605215779965025e-001
      8.4096019151988305e-002 -1.1782647140510513e-002
      -8.8995130705369643e-002 -1.0726392600027362e-001
      -2.7637122799534789e-002 9.0797407954261763e-002
      1.9081126902440335e-001 2.0224355588272813e-001
      -7.0351362489076669e-002 -1.0125249186905090e-001
      7.9317258793842951e-002 3.1880826109128907e-001
      -3.4320179842391225e-002 -1.4369496010503985e-001
      4.1834964909446749e-002 1.6652624905582525e-001
      -1.4160373093899692e-002 -1.0347002496628310e-001
      -1.2202854714867178e-001 1.3244737693653053e-001
      1.6758416637103790e-001 1.1638238538391277e-001
      -7.6915277825918865e-002 2.8703385649020578e-002
      2.9131425693201535e-001 -8.6602750985224755e-002
      -4.3185748489203507e-001 -1.3777127611717911e-003
      4.4374751907599866e-003 -3.0891917285743441e-002
      2.6616096038403644e-002 -8.4456687704160066e-002
      1.2543716982131567e-001 1.9096053172618305e-001
      -9.5124749510941659e-002 1.4484332072990691e-001
      8.0499776201698181e-002 3.8423819957812931e-002
      -3.0966985114679154e-002 2.4109629499488369e-001
      -1.1817550729751304e-001 -4.3898916572385219e-002
      9.1251038987577346e-002 9.1008554442926229e-002
      -4.3187460379525471e-002 5.4018501156551435e-002
      1.9882107082066627e-001 2.3027331920561681e-001
      9.8651969546504431e-002 5.7575758666106251e-002
      9.4243035019960217e-002 1.0794964743743070e-001
      -1.3747474493462600e-001 -1.6469382570647434e-001
      -7.0893172810211888e-002 2.0682417450481241e-001
      3.5262861643444332e-002 3.2630169382346058e-001
      4.1110377223419969e-001 -2.9941663909131812e-002
      1.4078010818069359e-001 1.8996174675394931e-001
      -7.6587155045243369e-002 1.6237254578180160e-002
      9.2324491112208515e-002 1.0096419394288229e-001
      -3.6582947684656275e-001 1.6189549465980658e-002
      8.8177318441643254e-002 2.0192647891242438e-001
      6.5520526024738415e-002 7.2230682453163844e-002
      7.6216783069005631e-002 2.3794594135164890e-001
      -9.8908650363695061e-002 7.8299807031929036e-001
      3.3480637944235558e-001 -4.5087234459236913e-004
      -1.3691787499349592e-001 3.9393544491327864e-001
      -2.1478832897366559e-001 -4.5612763435973432e-002
      -5.6953001082137803e-003 7.3637697183513741e-003
      -1.9141967198685839e-001 3.0242045804622170e-001
      6.6393606487226731e-001 3.6078898546340549e-001
      6.4276392266748292e-002 3.3005113534748894e-002
      -1.5272567298120066e-001 1.3387672401943049e-001
      -9.6104552430649456e-002 9.4013944800489316e-002
      -2.6336557533924709e-001 -1.1157058800039724e-001
      -2.2043531220442966e-001 -7.2667723208211843e-001
      5.3393812801622498e-001 2.3103434686899207e-002
      1.6032185710445612e-001 1.2205271999340712e-001
      -1.2306738916370033e-001 6.6111908224970733e-002
      -7.7812111773478049e-002 -8.5291368645667540e-002
      -2.8599736321269727e-002 1.5112158163350514e-001
      9.5471120529896508e-002 5.7635552323624772e-001
      5.5579325043272274e-002 -5.2700708540771224e-001
      4.9103912662241490e-002 -1.4761949636660164e-002
      -1.4212274232674266e-001 -4.7929882493357717e-001
      2.1677086005623661e-001 1.0423818783064399e-001
      -2.9060336931755765e-001 -3.6030765223041217e-002
      -1.0604601287290198e+000 3.4529028929845072e-002
      -2.0003065666067844e-002 -1.9714415434763141e-001
      2.9373603145130121e-002 5.4550511035335307e-002
      2.6052382660020218e-001 1.9735782326480170e-001
      6.0728465953512611e-002 5.8488430239401722e-002
      -3.7858221580261037e-001 1.0208797802933967e-001
      -6.8100315664350847e-002 1.9166839849547088e-001
      4.3871188473498156e-002 4.3541289086256763e-002
      -2.2667930752408399e-001 1.0200964710389114e-001
      3.9972720546987035e-002 -1.1313718912343990e-001
      2.6360644742828243e-001 1.0150719564369783e-001
      -4.1983136168315316e-001 -2.2113056998826788e-002
      -2.0226336806552203e-001 2.0688799231525232e-001
      2.2341066238406282e-001 5.5591739980077028e-002
      -5.2151404777090890e-002 2.5953719571199163e-001
      7.9926746735283424e-002 -6.3852766076739509e-002
      -4.3448443005099594e-003 1.1295163597542375e-001
      -1.5020171033211030e-001 9.1417649914883964e-002
      2.0080160033953690e-001 3.5818076339460758e-001
      -1.1387183977960062e-001 5.9310705696573832e-002
      -2.7358487997711994e-001 1.3762255349899857e-001
      -1.1383638733368583e-001 9.1521114966425743e-001
      1.0534749101716005e-001 -9.4223247366296739e-002
      9.7280380129544028e-002 -1.4494982061366340e-001
      3.9475115663816673e-001 -1.9050987892899582e-001
      -1.0440809725725321e-001 8.5056737160319251e-002
      -1.0137032728875961e-001 8.0612606143663529e-002
      4.0122203343142308e-002 2.8020417995207599e-002
      -1.1684805438214102e-001 -1.7638596272781609e-002
      -3.3268169751608394e-002 1.3565352235964329e-001
      9.4512970249045314e-002 2.4006100537678533e-002
      1.1811880546405129e-001 -2.3662246459388137e-001
      5.8801929633269918e-002 -2.1482893437440520e-001
      6.3715015785860113e-002 2.9214657258601789e-001
      -2.3313216594028519e-002 -1.1663155446837163e-001
      -2.3067250453998372e-001 1.7889958127868144e-001
      -1.3730539115881651e-001 1.6533500770327106e-001
      -1.3312092913363691e-001 -2.5682031307871001e-001
      6.7288635263684027e-001 1.2085236186638547e-001
      -3.5150995900721882e-001 2.3923007573870600e-001
      1.0045405597679630e-001 9.5100930840963632e-002
      -6.8359589829174339e-002 1.6197038117534904e-001
      5.0485145710811842e-002 -1.8749700341075393e-001
      -1.8219252296002841e-001 -3.2938214585336967e-002
      4.0259517217013749e-002 -5.4873122737461331e-002
      -2.7786903437626187e-001 -1.1436459718431985e-001
      -1.0178639748267578e-001 1.2389292990699730e-001
      -1.1168036406494683e-002 -6.0225273959246105e-003
      -2.9940987517538716e-002 -2.1590632974729171e-002
      2.3590852655787015e-001 1.8548761860576837e-001
      6.8229656858795590e-002 2.0733106553789907e-002
      1.6271467778932641e-001 -1.6289066004678440e-002
      2.4449493959185961e-001 -2.4153951137818275e-001
      -4.3543308287367744e-002 3.2623640094932943e-001
      -5.6478257130600229e-002 1.4783018239557957e-001
      -2.2829882947944796e-001 2.5788452197094147e-001
      -1.4838530181386617e-001 4.7034148294926453e-001
      7.7657028701062808e-002 -1.6902120031013854e-001
      3.0382390101826234e-001 1.8849255655133898e-001
      -2.5478102623955895e-001 1.3997386308354634e-001
      8.9744679041235981e-002 8.3220427086661233e-002
      -8.0988252303787214e-002 -2.8015306726109045e-002
      6.5406012954705370e-002 -1.7385300421347943e-001
      -1.8509334268974020e-001 -4.7207270594262760e-002
      -2.9399948345047616e-001 -1.1320454267066392e-001
      -4.2861391814630984e-001 -6.2701714207802878e-002
      -3.2009828741336711e-002 1.0990413832144226e-001
      2.0218753721286918e-002 -1.2920486064867478e-002
      -8.9308005444917099e-002 2.5774536743546583e-002
      4.6537913923300955e-001 -2.1634925200372859e-001
      4.2666641250538102e-002 1.6874844813176332e-002
      -3.1271796234117977e-001 -6.5821949437901400e-002
      6.2662049534272540e-002 -8.2434135960937877e-002
      -2.6800445306169901e-001 2.1047907661548007e-001
      -6.9448480410757435e-002 4.4566616746841142e-001
      -4.9106942904440752e-002 -1.6691020936764785e-002
      -1.5392143463586558e-001 1.3637016198776208e-001
      1.3535931935258005e-001 -2.4200425598157674e-001
      5.4016594452019270e-002 6.1905426013188614e-001
      2.1388924037973694e-001 -3.3295002108306604e-001
      -3.8019648158581099e-001 1.9293259921047345e-001
      -3.4419908453773868e-001 -2.5336291515484881e-002
      1.6118623313028341e-001 -4.0998570170853704e-002
      -1.6172512502690001e-001 -5.9187271422776397e-003
      5.1289151764747576e-002 -6.1041036022334065e-002
      1.6672821572168678e-002 -7.4245592116142803e-002
      1.4654101952270035e-001 4.7600748445964715e-002
      5.3459356157150549e-002 -1.0531282461843759e-001
      2.0243405573848042e-001 -1.2894261040400092e-002
      1.1816047507429213e-001 -5.3110386924557877e-002
      2.1225658850353846e-001 5.7625877116555646e-002
      2.4220170069907512e-001 -2.3284474571347538e-001
      2.8453291718508833e-001 -1.3512998478291954e-001
      -3.4062191735520247e-001 9.0379060779553752e-002
      -6.6611734721213050e-003 3.1429033240907817e-001
      2.3394457663064144e-001 -3.2931766001719903e-001
      -1.8868013548932835e-001 6.3837740174788160e-002
      -8.4866562408741873e-003 2.7675504156895608e-001
      6.8940018857962082e-002 7.2592579287352521e-001
      -9.0336545841129240e-002 -4.4019518904565241e-001
      -4.2530855288715691e-001 5.6005719632959187e-002
      -2.2282984367312891e-001 -2.3352234088994106e-001
      1.3226261764573821e-001 6.9500376937554564e-002
      1.6292846578211964e-001 9.0085046333799976e-002
      1.4971197816722434e-001 7.2356224627082813e-002
      4.2518062986239064e-001 -2.0523719429848133e-001
      1.6496146761038891e-001 -8.6781434476816577e-002
      5.4457062604429930e-002 -1.0686469149003983e-001
      2.3280865422046537e-001 1.7315961441045889e-002
      2.3272371590360119e-001 -6.6111657374889374e-002
      -5.7457894330614712e-001 1.5751635271894179e-001
      -2.2519225020755672e-002 -2.3886145591071185e-003
      4.2992734267025989e-002 2.1706545797082161e-002
      -3.8589434676097190e-001 9.1287128266335921e-002
      9.0636003647997232e-002 1.3028647735056778e-001
      4.0641101116555486e-002 -1.4784016334724015e-001
      -1.9531856154375932e-001 -5.7189183653680101e-002
      1.3753987101385323e-001 -9.0066214126223787e-002
      2.2061386962933270e-002 8.2372643351749132e-003
      -2.6055504347736038e-002 -5.7400479083137390e-001
      -3.2081693131696176e-001 -5.4014489940638559e-002
      1.1962278826463509e-002 -5.6737376012655216e-001
      2.6646702618879226e-001 -7.0761132849048197e-002
      2.7584020299223760e-001 5.5304755626513613e-001
      4.6871779353886728e-002 1.9035845409757657e-001
      1.6285166299638429e-001 -2.4941293518899699e-001
      5.3406549051666204e-002 2.5613492606957095e-001
      -2.8311167851811217e-002 2.5384337103452569e-002
      1.1169588767246948e-002 -1.5443116677028484e-001
      1.7397269366237389e-001 9.0723633593061417e-002
      -1.5076224654290105e-001 2.8542603616133405e-001
      3.9201597023555974e-002 -3.4150850528213611e-001
      -1.2920504467487354e-002 4.0520424907302989e-002
      3.2789922375679098e-002 7.5750768155748743e-002
      7.7451680307551521e-002 -1.3224141406110790e-001
      -3.7230619584097763e-002 1.9322548257559544e-001
      3.0595630327380642e-002 2.3791001404095247e-001
      1.2810965192184598e-001 -9.3858779372791898e-002
      8.6784255578689629e-002 1.0460200690750861e-001
      -5.5715849373645276e-001 -2.1984273915335001e-001
      2.7631409826641923e-001 -1.2569307129955776e-003
      -2.0415463706973400e-001 2.5543960840831736e-001
      1.4995678098448370e-001 -1.4027250289304408e-001
      2.8709773522241879e-002 1.7833292960555908e-001
      5.2497924833951146e-002 -9.6652314568458826e-004
      1.3416992597898789e-001 -1.8953851828258375e-001
      8.5521103990299746e-002 -1.3019902542609860e-002
      -4.4035973303925217e-002 3.7956299643582804e-002
      3.8677042380562965e-002 2.9089065422025168e-001
      -2.1973922787832184e-001 4.1193740289783558e-002
      -9.5398208406254181e-002 1.2131312501273800e-001
      3.4254595389603354e-001 -1.2040899937000112e-001
      -9.0253530377152336e-002 -1.2661008556561756e-001
      5.8227394254985795e-003 -1.6190518952099230e-002
      5.1510271204390209e-002 -3.1552834968005256e-001
      9.3806756366581714e-002 -2.0236766565567846e-001
      -1.1862361610316630e-001 -5.3817162198041772e-002
      -1.5909893706443684e-001 -8.1887557915644935e-002
      -4.5658593327229435e-002 2.9573287053682984e-001
      -2.0211326155161335e-001 -9.2957309245250627e-002
      6.3852293933983373e-001 -6.5733632844911863e-002
      -3.2826449634412036e-001 5.1888559391399802e-004
      1.5587871379868043e-001 3.6458591837897075e-001
      1.4532133692650734e-001 -5.0301505124296646e-002
      -1.2126409285774542e-001 -1.1790538457903592e-001
      1.2194598158268764e-001 4.1007434994240026e-002
      1.0755469425142203e-002 -4.9979361013262343e-002
      -6.8070587037133146e-002 2.3733518452436753e-001
      -1.0576373244492923e+000 -1.1953144308195954e-002
      7.5263157184697893e-001 -2.5627558831629360e-001
      3.8648389525275169e-002 -2.9044688317661144e-001
      -5.2160903223391952e-001 -3.2249008875742646e-001
      3.5258798207674275e-001 1.0755432108729426e-001
      -2.1066062164066962e-001 2.4856031517642941e-003
      -4.1518657802672464e-002 4.9552672402238895e-001
      -2.4487359684654941e-001 -1.1689663461868628e-001
      3.3812683807970717e-001 2.5095883956931360e-002
      -8.1652830627767140e-002 3.4841712765993710e-001
      -1.4515719950196335e-002 -9.1355334829341228e-001
      1.3342732604656177e-001 -3.3962960300831962e-001
      -4.7544488139422203e-001 1.8855361797919085e-001
      4.4764435934568365e-002 7.9658914426503280e-001
      -8.7998014372516364e-002 -2.1933291340631069e-002
      2.6869102004808054e-001 -6.4678960813131028e-002
      -7.5711931617414838e-002 6.4054338041066916e-002
      -4.0752443187483986e-002 -2.3005683421757561e-001
      -2.4820592233293533e-002 -2.5130886052223664e-002
      -2.5906583004571528e-002 2.4220137146718518e-001
      -1.2618102101152937e+000 2.6939435999675285e-002
      6.7302879552635442e-001 -4.7329584630780963e-001
      -6.5582004070322789e-002 -1.2399580849516562e-001
      -5.4752724888731374e-001 3.9183150763442897e-003
      -7.6882035945243588e-003 1.0335643640629864e-001
      4.2892208983292990e-002 8.8316744478995554e-002
      -1.8094027904732782e-001 2.2258870591539454e-001
      -2.4106709522939992e-001 -1.1098339912818289e-001
      3.2945501368908026e-001 8.5818637978525958e-002
      -1.5101391072195793e-002 3.2345769397713536e-001
      2.8473927321912251e-001 8.4689303612751607e-002
      -1.1097888693585611e+000 -6.3679712672227842e-002
      -5.2261905241588047e-001 1.8406250101037347e-001
      4.6054388457481242e-002 8.4048961540177325e-001
      -9.5570819768070983e-002 2.2772678724281525e-002
      5.1722803783646110e-001 1.1920169396302670e-001
      -9.1412164805832419e-002 -2.2007691207190522e-001
      -9.6157394679176764e-002 -2.4467896160174760e-001
      -6.4018569479810966e-002 -3.5713331516765943e-002
      2.9601019193959219e-002 2.6055305166743881e-001
      -6.3802885967845357e-001 2.2186626000066517e-003
      6.5794072575517393e-001 -8.9058085693618805e-001
      -2.5506454127302070e-001 -4.8021022038468164e-001
      -1.6750579773177985e+000 -9.7735568462227262e-001
      4.4885478582447229e-002 -7.9579018023246934e-002
      4.9598047280846706e-002 4.9046592274409710e-002
      -2.1026841881301386e-001 2.7096296885006643e-001
      -2.2736784808898480e-001 -1.0394181802507454e-001
      3.4522986903974312e-001 6.7894843738264474e-003
      2.4234637273556858e-002 2.4667532809725726e-001
      2.6517992283891162e-001 2.3494787557198754e-001
      6.0093797133959215e-001 -1.3420314931955515e-001
      -5.8047240171288617e-001 1.4010414891391423e-001
      5.9689292544258581e-002 8.3097036951076231e-001
      -1.5983224748002492e-001 2.0364835244145549e-002
      4.0110703272406234e-001 -6.6526940472536059e-002
      2.1363626602934943e-001 -3.0043485773590995e-002
      -2.6104219826835373e-001 -6.5428635413687741e-001
      -3.2458156424827904e-002 -4.1938931832859225e-002
      2.5034824574867141e-002 2.4366024552635809e-001
      -1.0793402643478227e+000 3.4099884073782206e-002
      6.7561854548928590e-001 -8.9183990793034948e-002
      1.6917676855826397e-001 -1.0637422745460179e-001
      -8.6008335163235350e-001 -6.1102515215462594e-001
      -8.5440833320746493e-002 3.2969553138588195e-002
      -1.2459650081626714e-001 5.3017983868423831e-002
      -2.6559812993813908e-002 2.7392920011327515e-001
      -2.5232075311164437e-001 -9.8380533243698096e-002
      2.9044338016214932e-001 8.5489619575662562e-002
      -1.4145667531946807e-002 3.5770780148890180e-001
      3.0017669582999967e-001 3.0759866621586912e-001
      5.0780451800896786e-001 -1.4757948315367306e-001
      -5.0829788822048561e-001 2.2854084049844356e-001
      4.8256223624963332e-002 7.9903083366169858e-001
      -1.0487921355143408e-001 3.2765108070047691e-002
      8.0992267629240466e-001 -7.7220393177760152e-002
      -8.3655101921474954e-003 -2.2655181860429138e-002
      -1.0670399536593479e-001 -3.2285585553795848e-001
      1.3557423908004873e-001 -1.5480161392686617e-001
      -2.9858552245135200e-001 1.1904272540578621e-001
      -9.5191524793849208e-002 7.0514455103113202e-002
      -1.3655155577384984e-002 -1.6078082793141253e+000
      2.2956223971331854e-001 -2.0167193133707177e-002
      7.2558452949568475e-002 -2.1732245207332226e-001
      2.0346187185710049e-001 -2.2372019696577547e-001
      2.2822296044878905e-002 -3.6298797761708287e-002
      -7.5904999518783836e-002 -1.2632445411895829e-001
      3.2081964466037655e-001 3.0228785640723743e-001
      5.3558217892363313e-002 -1.2906475593351530e-002
      -1.6951544201859320e-002 1.7470405782573151e-001
      -8.2621387292979367e-002 -8.9695084964978800e-002
      5.3191554130063168e-001 4.5372052171517607e-001
      2.7314058836912236e-001 2.4292406753029511e-001
      -1.4093831380424837e-001 -4.1380254309281250e-001
      1.1582414723726198e-001 4.3158680035203798e-003
      -1.3774332763227787e-001 1.5158424321401498e-001
      -5.3575886232564984e-002 -2.3722497545693631e-002
      -2.4850889694494205e-001 -1.0145050856383657e-001
      1.5272718174912073e-001 -3.3668309454205325e-001
      -3.8185562702034867e-002 -3.7134678814783717e-002
      -3.8970000233753649e-001 4.5321734177341350e-001
      1.5327046275003975e-001 -2.8309143740103071e-002
      1.1186880661722741e-001 2.6156694507286354e-001
      -8.3032507359837270e-003 2.0755177191137489e-001
      2.3070574868870007e-002 -1.9045120884524208e-001
      -2.8757708080442097e-002 7.6577342688279745e-002
      -7.4450053061692993e-003 -2.1310882109919668e-001
      6.4279450980018904e-001 4.1535884911651354e-002
      3.6475393223797496e-002 9.3941969200222793e-003
      -1.5614790243953736e-001 3.6028299886194805e-002
      -1.0954718375442317e-001 3.9393515706388693e-001
      8.6476708222262874e-002 1.4904826224029891e-001
      1.8482252756371756e-001 5.6109301924726698e-003
      -4.0696150533602822e-002 -2.0063229878576208e-001
      2.6673519209624071e-002 -2.6930488075283865e-002
      -3.4166269937005606e-001 1.7004926630179396e-001
      -4.7087081059500359e-002 -8.8503616605053806e-002
      -2.0399275082869153e-001 1.1469159745316732e-001
      -4.9809400664854071e-002 -2.9539291038647164e-001
      3.0408569104546493e-002 -4.2362018894068085e-002
      -1.9716406093226022e-001 -2.5190709124540045e-001
      1.4273206555894441e-001 -3.1877303130319801e-001
      -1.9935769179696949e-001 1.0790256978479748e-002
      -2.3640542228296940e-001 1.8591806911959469e-001
      1.2188833172609093e-001 -1.4400073429549876e-001
      1.5282340920329374e-002 2.0950867129263646e-002
      1.4987982483492288e-001 -1.1241808966528448e-001
      6.8556390642717319e-002 1.8779814699023026e-002
      4.1054043161582298e-003 -9.4021091226896645e-003
      -6.4670856246373254e-002 3.6637526629522604e-002
      4.9139930462439085e-002 -1.5484505184052196e-002
      2.3947812765730120e-001 4.3201654126050415e-001
      1.5789116500118761e-001 5.3693863410721196e-003
      4.3318957546827699e-002 -1.3120061765865570e-001
      2.8587969397259705e-001 1.0426436398604316e-001
      9.2388709126173217e-003 1.4906244781977576e-001
      -3.5359025082284015e-002 -7.6423806566547528e-002
      -1.6496841042871840e-001 -1.0828773889922730e-001
      -2.2185148862749374e-002 7.1519226842278627e-002
      9.8597334003016346e-003 -4.8022769629645870e-002
      -6.5101407555957528e-003 -1.1438836006877680e-001
      1.2974462142998514e-001 -7.0443229250439854e-001
      -3.4920666976534781e-001 1.2629636838080296e-001
      3.2312897568322474e-001 -2.0267854400375712e-001
      2.2513725585428410e-001 -1.0577328638959705e-002
      1.6176990085425852e-001 1.9061678985870339e-001
      2.7921698298581037e-002 2.3814913219539005e-003
      -1.0054698986275294e-001 1.7817316080330284e-002
      1.9449487631978116e-001 -9.7155330646895979e-002
      -9.2789795915691572e-002 2.0800800130533628e-001
      -5.2662402338212219e-002 -6.2035990119915382e-002
      2.2394266728823925e-001 3.0220471845632292e-003
      3.5862401925951394e-002 -1.0341556161010545e-002
      -1.5453127990350232e-001 8.3660945364840873e-003
      9.9274616590959888e-002 8.6743861004087708e-002
      -1.4656598605920471e-001 -2.1124374559531953e-001
      4.3756926664707657e-001 7.2914491449378172e-002
      -1.3201053892079258e-002 -1.9994244413473328e-001
      -1.1907708936504693e-001 -7.5379610450486880e-003
      3.0356597388953365e-002 -8.4542701911408114e-002
      7.5250375979139916e-002 2.6962540364173598e-001
      3.5876516384990703e-001 -6.3012091517250601e-001
      -1.5873673997651649e-001 2.5261856490521750e-001
      4.9107306841875126e-001 -2.2898283971972244e-001
      2.3312287455325537e-001 -9.7375858105393336e-003
      1.3932082054990713e-001 1.2058687672799494e-001
      2.1562984364020174e-001 4.7422403992012752e-002
      -1.0685829846176090e-001 2.9111694019542660e-002
      5.4928383346753512e-002 -8.5496860277436124e-002
      -3.0303650323388054e-001 2.1178127508662073e-001
      1.6752478831460027e-002 -1.4483949337095287e-001
      2.9512398331068129e-001 1.7191231214581490e-001
      4.5065459230668098e-002 -7.6244081357553881e-002
      -3.6647330290810798e-002 -8.0886348605896372e-002
      5.2873519520191009e-002 -2.1240593629855598e-001
      1.4802534390748467e-003 -2.2570579970858470e-001
      4.2073430010550222e-001 3.3166959909441068e-001
      -5.6844556726567116e-002 -7.7019700381264170e-002
      -7.6579206025413751e-002 1.0647376759029588e-001
      -1.9887898627915249e-001 -2.0347992698949826e-003
      -8.4064515430060910e-002 4.0745506838419521e-001
      3.2953403111121293e-001 -1.9014302246827000e-001
      -2.1839095434781183e-001 2.0043373029980779e-001
      1.1274813203566893e-001 -9.3142640983339478e-002
      -1.4459283613594032e-001 5.1820312328140716e-001
      1.4378563791308530e-001 6.4625387106624521e-001
      1.0422263749293362e-001 -4.6199339127888851e-002
      6.7911304315058874e-002 4.2736699686794832e-002
      -1.5560764341839387e-001 -2.1294288138026868e-001
      -2.8344039571291191e-001 2.1850214340652691e-001
      2.4236065786935768e-002 -2.8376562556322628e-004
      9.3051480071845299e-002 1.0991493234078971e-001
      1.1045943886669018e-001 -8.7301712973226586e-002
      3.6143514108582797e-001 -2.6944670262474150e-002
      3.2471259812329165e-002 -1.0101126423782211e-001
      -7.6769261310675865e-002 2.8587423404122687e-002
      4.4567553927038045e-001 1.6220011048321226e-001
      -3.2926556554692614e-002 -5.7885833945286236e-002
      -8.3505990375027424e-003 2.1182483694931459e-001
      -1.6437099482308692e-001 -9.0071687325641303e-002
      -1.5034974688535135e-001 1.4396704139941266e-001
      1.5660888694606911e-001 -2.5227492976205246e-001
      -4.1759139991649541e-001 -1.8575133344473169e-002
      -1.0529547384454002e-001 -1.5242412460448823e-001
      -4.7971025987503309e-002 4.0770841036325028e-001
      1.4470175450528006e-001 1.3033659853089560e-001
      -9.1032641458719019e-002 -1.5196375392521733e-001
      4.5855419244915395e-002 1.7206037936043243e-002
      -3.1485138015791636e-001 -1.2877870544711398e-001
      -1.9267635223487381e-001 -7.9946815141158423e-002
      1.2345929828280419e-001 -1.7143454664183205e-001
      1.9926550226641065e-001 2.6541706053281133e-001
      1.2751860623627126e-001 -7.3346260945088670e-002
      1.7326360609634942e-001 1.2198374030573125e-001
      -1.1332981595181144e-001 9.9323298094577874e-003
      -8.5733271477983292e-002 2.3897004815101827e-001
      1.5823044506017364e-001 1.7611334415226945e-001
      1.1966399776197843e-002 5.0510876056922990e-002
      1.2809634767995404e-001 2.0992541719236643e-001
      1.8587778788396561e-001 -4.4533153582673859e-002
      1.0438198687671912e-001 1.6071964733380459e-001
      4.3562086820149074e-002 -1.2866965254772619e-001
      -2.9742754496117829e-001 -7.5281785315016780e-002
      -3.2019491501750985e-002 -1.4687226412381027e-001
      4.2635196184347871e-002 2.0863148906245532e-001
      1.4718382384866278e-002 2.7598274091846738e-002
      -2.2803697145072433e-003 -3.9178202526643349e-002
      7.7316877407369866e-003 1.0972900536852806e-002
      -1.9340552288860646e-001 1.6346264994852688e-001
      5.0983847348349473e-002 -2.5313538106130656e-001
      1.1576769771658324e-001 -9.7533641655472778e-002
      -6.5319602659308952e-003 2.2460040755143085e-001
      -8.2682809833524204e-002 -9.9299270973716741e-002
      -1.7857356203846242e-001 8.4538747428866606e-002
      -1.3037990153906562e-001 3.1604274457247072e-001
      -1.5119064302629065e-001 -1.5945315562563017e-001
      -2.3209130980567858e-001 5.3081996942624728e-002
      -4.4993536385668026e-002 8.8345916026412008e-002
      8.6930662821681035e-002 9.4393633237797980e-002
      1.7220393944172624e-001 -9.3892044685144643e-002
      -1.0622486520332841e-001 9.7665872352895811e-002
      5.2291462999641380e-001 -1.0685641746690042e-001
      2.3714795094151211e-002 9.6498305761296213e-002
      -4.3621367616085260e-002 -2.0195435944380052e-001
      3.3594184016929263e-001 2.8879667594107213e-002
      -2.6406967768082518e-001 -4.2812146871212337e-001
      -4.4517749367618577e-002 -6.6499095790682916e-002
      8.4523970627290501e-002 1.7065744509869593e-001
      7.9236695673271212e-002 1.6175955059884933e-002
      -1.5949660824071270e-002 -7.3329784580332472e-002
      -6.6097647141888621e-002 -1.0218084881908669e-001
      -5.0424613940737384e-002 -5.6562243580353194e-002
      -9.7494669190812261e-002 -2.3704157119299463e-001
      -1.6989263462532718e-002 1.3441600920867378e-001
      -1.0684527921709296e-001 1.8181218644778951e-002
      8.8382587163389523e-002 3.4799562659878081e-001
      2.0089575676647015e-002 -1.7327017578963066e-001
      4.9287095621842487e-003 9.7692463792304632e-002
      -7.1806091387262919e-002 1.8533524782144997e-001
      1.2520855083686575e-001 2.1888932336528333e-001
      -1.2425054534580314e-001 1.0918531342805024e-001
      2.1561033836834576e-001 -1.5176814721570370e-001
      1.4442723957930418e-002 1.1720281484917214e-001
      2.6318777093127610e-001 -2.8703839875740139e-001
      4.6472895944411757e-001 7.0147538278461805e-002
      -6.0926888808722579e-001 -5.8368297939914701e-002
      -7.8962238722636038e-002 3.5298628017973505e-001
      6.9257584073048148e-002 3.9078260089001659e-003
      1.5011908862527537e-001 -7.5441596813639591e-003
      -2.5112952813080852e-001 -6.3820461325309136e-002
      -3.5490505977090400e-002 -1.3525488705233582e-001
      -3.6256133266367646e-002 9.7059552637836422e-001
      -1.3035204292179950e-001 -4.3105279837500288e-002
      2.5722064117591602e-002 1.1033390737255509e-001
      4.7264589232005376e-002 -2.8370101878882129e-002
      -1.6133539858105381e-002 2.7351066899176154e-003
      2.5192230697474807e-002 -1.1902094418017918e-001
      4.4788840889367310e-001 9.2904177003754210e-002
      -5.9640517224056035e-002 1.5463420727840274e-001
      -1.1618550263509658e-001 -9.7761544309963755e-002
      -1.6269577122427686e-001 1.1401943769922299e-001
      2.5181144014938212e-001 -6.6160940317812134e-001
      3.0931087384630490e-001 5.1348652564543934e-002
      3.2552193086884412e-001 -2.3091038795327484e-001
      3.3227903568028926e-002 8.8671876896601762e-002
      -8.6270187212224583e-002 -2.1579324936185633e-002
      -2.4239279061477839e-001 2.7396690387307682e-001
      6.1727720822449782e-002 -1.6977095605305820e-003
      -1.8261448204871128e-001 8.4121998789979724e-002
      -4.8245176247195563e-002 -1.6218038367886961e-001
      7.0679410215009952e-002 -1.6156812129535378e-001
      -4.6304323573680861e-002 -1.5515510915536601e-001
      5.9989613894849553e-003 2.2942176565643447e-002
      -5.9756813198812438e-002 1.7608955627960382e-001
      -1.0305804189044651e-001 1.5018532905661108e-001
      5.3951088402712510e-002 3.3109922743209275e-001
      8.2674344321378976e-002 -8.4434389896684878e-002
      -6.1015219648242178e-002 1.4665951681817327e-001
      -4.6034480825495536e-002 9.2268686607584319e-002
      1.4121399323145237e-001 -9.8402973690499163e-002
      -1.4206352375644809e-002 1.0380152845604798e-001
      -1.5843638229571071e-002 3.3775117545076894e-002
      1.4022244411399742e-001 -3.7672571140772514e-002
      2.7775830016029579e-001 -1.6043717864892765e-001
      -1.3036868206723487e-001 2.0754631461442727e-001
      2.3973030366516032e-001 -5.8030797338617948e-002
      -2.4919296273769934e-001 -4.6668015464308391e-002
      -2.4146983863916612e-002 8.6270088981729373e-002
      -3.7833379627125678e-002 2.7350215908512745e-002
      4.6669993400454898e-003 1.3059329855419148e-002
      1.9945872958041958e-002 1.6501377114720972e-001
      -2.1318333290597424e-001 1.6734600560901128e-001
      1.6064137703446182e-001 -3.2547652051009582e-002
      -4.4557972266028451e-002 -4.4648283828921265e-003
      -1.2554888987033180e-001 3.0396987006720844e-001
      1.5014122672232189e-001 2.8874436645904034e-001
      3.5969543623169503e-001 -1.7913601580662125e-001
      -2.3012601692980819e-002 9.2888039639847250e-002
      -4.5073473409830173e-002 7.3740039851942357e-002
      7.8338459079457884e-002 -6.6090986390054979e-002
      2.1967207785146058e-002 1.8891919958758119e-001
      -6.2303102869620930e-002 -1.2927552187699520e-001
      -2.2308816919726129e-001 -3.5722076392535163e-002
      -1.0345679195754098e-001 -1.5229286789332272e-001
      8.9983562778349381e-003 5.4814191692390386e-002
      9.0872739614105726e-005 -1.3852304552264916e-001
      -2.1371179140434379e-001 -8.8684701519284037e-002
      6.1940546044124932e-004 -1.5504470563140788e-001
      -1.0853911504141636e-001 -6.4800903131670098e-002
      7.9189846600623601e-002 -1.5070848865574702e-002
      8.5139176871554367e-002 -2.9439245130675634e-001
      -2.5963443603046132e-001 -5.5727370460216669e-002
      2.1613312667992482e-001 1.6119075214649925e-001
      8.1644403544217661e-002 -2.9038841084989647e-001
      -1.1193071778784174e-001 -1.0908437648681803e-004
      -2.5605421166940806e-001 -4.4596943965195630e-003
      -1.7715383241776968e-002 -1.2374033669926962e-001
      -1.7122198007655305e-002 -7.1596958251836873e-002
      -2.3113378414447591e-002 9.5321662180706535e-003
      6.2452380832987833e-002 -7.9301446001852863e-002
      -6.8017611307251910e-003 1.4550292376471533e-001
      -9.0381095077778723e-002 -1.6277954978752343e-001
      -3.9528885276524239e-001 -3.1732651106967158e-002
      -2.9654583577902915e-001 -1.7057803575534555e-001
      9.0257948554194282e-003 -1.3557180211623274e-001
      4.1456722049787757e-003 3.0164564117150249e-002
      -4.1545827751003031e-002 1.0994122197932113e-001
      -8.0826446096819354e-002 -1.8313087988862740e-002
      -2.1363634223507866e-001 2.0342399280448239e-003
      1.1490975521232989e-001 -3.1562348324046668e-002
      1.1271691331280560e-001 -9.1361456634161189e-002
      -9.5490263878966211e-002 -3.0552334646825180e-001
      1.2896828605077731e-001 2.8930363512463664e-001
      7.5739844962352462e-002 8.2885676315978804e-002
      -1.1619750340488431e-001 -1.9740810647082530e-001
      -1.8549754963610787e-001 -8.6896237723660796e-003
      -3.0004999671669191e-001 -9.5580640725214855e-002
      -7.4424108910177422e-002 -6.5405264031822397e-002
      -2.3961115663292804e-002 1.9563112254299173e-002
      -6.8211984531293748e-002 -7.9591491353064578e-002
      7.3474679246817012e-002 3.3347218744193981e-003
      -1.6660638909201755e-001 -5.7388256852757023e-002
      -4.0649595358995416e-001 7.6996824701427722e-003
      -1.2057881765946753e-001 -1.6690153023677451e-001
      -3.6663522418951176e-002 -5.5035548949987190e-001
      6.6398593840053463e-002 1.3863092009180003e-001
      -2.9641737120076495e-002 -3.7330470765595175e-002
      -1.1565811806987929e-001 1.8910755920868664e-002
      -2.6515234819711721e-002 -1.8355885370213317e-002
      1.7392644194141565e-001 5.6724930242203361e-002
      -2.9858964799768371e-002 2.0327799968560309e-002
      -1.1249718713985592e-001 -6.3011370268151878e-001
      1.0253821727639117e-001 3.8769336555657515e-002
      1.0392093947518286e-001 9.4717677999495709e-002
      -2.2051168268659879e-002 -9.8356273947240683e-002
      -1.4217892823673785e-002 9.2615528612840184e-002
      -4.2723883275638980e-001 -1.5677567729276420e-001
      -4.5737703191120152e-002 -1.3556541068475342e-001
      9.2945186207693556e-002 3.5107059065409611e-002
      -6.5992959898406381e-002 -9.2685430605253610e-002
      -3.1638291227755376e-002 -7.0463803620553989e-002
      -1.6697796138946203e-001 2.1449309078395627e-002
      -1.1084902097332387e-001 7.1128761831878037e-002
      -1.0460780874075323e-001 -1.3389047253014394e-001
      -8.2245033241037588e-002 -4.8094828328003997e-001
      -3.1677296103523662e-002 1.2225828331132463e-001
      9.3855432430672240e-003 8.0782417905755341e-002
      -3.4440887557748084e-001 1.4891250330422282e-002
      2.8930754819873380e-002 -1.1501335527308183e-002
      1.7816815214946191e-001 1.2598745454529933e-001
      -4.1676981268938471e-002 9.2628939418248537e-003
      -1.3794062603795057e-001 -4.9026821993208047e-001
      1.9226316497704224e-001 -3.5239858485499320e-001
      9.0444620514579202e-002 2.2997298628399065e-001
      -1.6927989660511963e-001 1.2609724080574672e-001
      2.6695037959534640e-001 1.6653254748295741e-002
      -2.4305851068252393e-001 -1.0490689108778817e-001
      2.9901519161941453e-001 -2.8804907874835972e-002
      4.1020198547647220e-002 7.2366356465364171e-002
      9.8099803012344056e-002 -7.9535219559198678e-002
      -8.2077203797995754e-002 -4.3916787310330369e-001
      -1.0785110711730517e-001 7.4229601933408582e-003
      -2.4210868298526225e-001 7.6953982424650944e-002
      -7.9790008615163013e-002 -1.6048052556619294e-001
      -3.2564527666048471e-001 1.1735299892750170e-002
      -6.1862337317932350e-002 6.6704344715463951e-002
      -5.0989330565632110e-002 1.9433772523356965e-001
      6.8087857330800722e-002 4.9385044312683746e-001
      -2.3555016945670765e-001 -1.5373015653278258e-003
      2.5506265725221036e-002 5.2700579748512204e-003
      1.1094600949421157e-001 2.6999436722039805e-002
      -4.3766157618695023e-001 -3.4185329961256716e-001
      1.2673314632631705e-001 2.9308684664659401e-001
      1.0077200635175658e-001 3.8416757134645207e-001
      -1.8456436906772480e-001 4.3085484845304035e-002
      6.6748866850057653e-001 1.0540712916692981e-001
      1.3376294071968794e-001 -5.8242654286100926e-002
      2.6071405268969722e-001 8.4160050230176212e-002
      1.6526091867220877e-001 -6.7514729640471616e-002
      -4.3489854678578299e-002 -1.0310588925485108e-001
      8.7672132029512947e-002 5.7059741571900122e-002
      -1.1125799047565722e-001 5.9978380957228128e-002
      -1.2519093981145718e-001 6.0785995992387161e-002
      -1.2925214389670570e-001 1.7376235171460169e-001
      -1.8910866962434786e-001 1.7471844981353882e-001
      -3.2659721777863471e-002 6.3761915371544839e-002
      7.3348321172475417e-002 2.6721320782502145e-001
      -5.2337632713818673e-002 -1.0958743354614438e-001
      -3.3784336915556984e-001 -2.6024393467272373e-002
      -9.6823376138420278e-002 -2.8459759894732237e-002
      1.0122340800987700e-001 5.2525883022026665e-001
      -1.4359816504693959e-001 -2.4837868034557675e-001
      1.5557526689800172e-001 3.0427979512164405e-001
      8.8087285889617409e-002 9.5596602503287748e-002
      -1.3446791980544229e-001 -4.8218879355840336e-002
      7.3079484028429009e-002 9.0018142212330565e-002
      1.8228957246763755e-001 -4.7602806118014190e-003
      -1.2979181345053081e-002 4.2829360604765797e-003
      9.9730833541675848e-002 1.1170845567814759e-001
      -7.8014485155108920e-002 -9.0832420295423655e-002
      5.2595715763593265e-001 -7.7391645924605266e-003
      -1.0216997260249050e-001 -1.1245160036131667e-001
      -1.1224878514049852e-001 1.0454959560643242e-002
      -1.2427628761820909e-001 1.8827432477933737e-001
      3.7667851056064300e-001 8.6539933711465039e-002
      -4.1416145352120431e-001 1.7604634339943015e-001
      3.2191205999724570e-001 2.7820911937801523e-001
      -4.8786986641902695e-002 -8.3304950453161913e-002
      -2.8883322479448537e-001 3.2969118491060261e-002
      -9.1512467118737784e-002 -6.7607919607608119e-002
      9.1477720468229912e-002 6.3140632553010528e-002
      -3.3246329323174041e-002 -2.2188795426522170e-001
      1.1424421611807625e-001 3.0929872220583388e-001
      2.0330429944296728e-002 2.6791430208920691e-001
      -1.0303393770602845e-001 -8.5936505665622998e-002
      1.5571285276038582e-001 -1.5659300135326959e-002
      1.5066191236300161e-001 2.1063107064082328e-003
      2.7153332568830277e-002 -1.7101827283460835e-001
      -9.4277982689331019e-002 2.1580365895050896e-001
      -8.0195010669042471e-002 -9.4366795138721843e-002
      -3.0208712167005916e-003 5.5792149874320962e-002
      -1.1075648056445168e-001 -1.4436091735155959e-001
      -2.2302610441211249e-002 -4.3017522082277257e-002
      -7.9932300562622988e-002 2.1756572116786418e-001
      3.7468491451266822e-001 1.4244753839081409e-001
      -5.3526038828660943e-002 3.3473039303342089e-001
      2.9632310692711095e-001 1.4469522573997717e-001
      -4.8238285998728841e-002 2.5852941290811442e-002
      -2.8273226454274164e-001 5.3397078311503759e-003
      -6.1698359886758758e-002 -3.3879045247605627e-002
      -2.3843868711459291e-002 9.4731124995141136e-001
      1.7554126806090555e-002 -9.7108756640948396e-002
      -6.7072415081838130e-002 3.1367358669834311e-001
      -9.0595702868335841e-003 2.9603512396228432e-003
      8.3495719505089036e-002 -3.8333988857333867e-001
      -2.9593734992620163e-002 -1.0707310463948895e-001
      1.0873433554723058e-001 -5.4952217043438646e-002
      2.1358772453632293e-002 -2.1164718444934766e-001
      8.5580886970302583e-002 -1.2117139040655246e-001
      5.5564809904173937e-002 -4.5639942999796873e-002
      6.5647525220643033e-003 1.1530938138071109e-001
      3.4577234789127720e-001 -7.5253206814418147e-004
      1.5453309187281214e-001 -2.5413835370496671e-002
      -8.2510343046250809e-002 -2.0472898930248962e-001
      -4.0676049938559361e-002 2.3717087440877213e-001
      2.0303662599673686e-001 -3.0298870856530394e-002
      4.1631925493625731e-002 -9.5539483328692151e-002
      -1.8848256762352522e-001 -9.1077021683134488e-002
      2.3237456978606786e-002 -7.8351709521531865e-002
      6.0404716150724751e-003 1.9182434529173836e-001
      7.7151892519528465e-003 -7.6051215553141940e-002
      4.0404523136385387e-002 2.2340261621737155e-002
      9.7286304876332233e-002 7.5998954613874375e-002
      -1.4094301428617048e-001 1.5465193715093628e-001
      1.3440896069698210e-001 3.0836122804665744e-001
      1.2843909657481384e-001 1.1052113347507836e-001
      2.2198447362342960e-001 1.3336298325017603e-002
      1.5634291371093423e-001 -6.7973762530741198e-003
      -5.9918803184415996e-002 8.3063870655573947e-003
      1.3874412496890712e-001 1.0532923268939205e-001
      1.0231699386208530e+000 2.6289355132014941e-001
      -5.4801654852914505e-001 1.1759588412801465e-001
      1.5249820388718474e-001 3.1239543717466400e-002
      -1.6957430515413152e-001 6.1727801247009412e-002
      -6.8693525483591436e-002 -1.2122300948693583e-001
      -3.5561099264600809e-001 2.0237821775899528e-001
      -2.9665720952936175e-001 -1.6548343715712630e-001
      2.3120720866548782e-002 -7.5972312887959692e-002
      -8.0703964185611279e-002 -5.5771494503109982e-002
      2.4570931941518392e-001 2.5042998482259146e-002
      -5.3065693607247866e-001 -5.2177895087488857e-001
      -2.3771038326954891e-001 -1.6504120387991356e-001
      1.6428620476559444e-001 -7.1056126160774424e-001
      -1.9916545375896882e-001 -2.4576864949345462e-001
      -3.0068744258114294e-001 -1.8669901466737635e-001
      4.9428374080639909e-002 -1.0873922128529438e-001
      -5.6347890875127253e-002 -3.4408165266623297e-002
      -7.7130534627327552e-002 7.7488499935679606e-002
      -1.3246005572684141e-001 -2.0590372540709820e-001
      -1.0518625821016023e-001 -2.4779663444634011e-002
      1.5283012375626095e-001 2.6438254041000215e-003
      7.7020241108976178e-002 1.2174437247986666e-001
      1.5408578629365713e-001 -1.5557353332158938e-001
      6.3898117425870982e-001 1.9551596848541370e-002
      4.1530353031398631e-001 4.4414074766248500e-002
      1.4527351641300840e-001 1.5413986885802736e-001
      -4.2598130999895484e-002 -2.5054052342645533e-001
      5.0558712782696483e-002 2.4762717716361685e-002
      2.9439312494916192e-001 1.3907201702562078e-001
      -1.4956720183587377e-001 1.4457744958913432e-001
      -3.4050114959398015e-001 -3.0499773991656881e-001
      -1.4086083103704194e-001 3.0105331275898517e-001
      3.7380684805332720e-001 2.4348706192669326e-002
      1.1843227976129414e-001 1.0146364565301397e-001
      -1.9159853738244020e-001 1.9018903319143132e-001
      -1.7596235517177258e-001 -8.8903746422227981e-001
      -1.1247412656089635e+000 -5.8364302420784416e-003
      2.1846854718878631e-001 1.0035304782477552e-002
      1.8423442627596287e-001 -1.3640417032883634e-001
      -1.6442541153328827e-001 3.3639826850489080e-002
      -5.3501948266574735e-002 3.2763729078771336e-001
      6.6402819766123472e-002 -2.7869438326311452e-001
      5.4063995979985340e-002 3.5151098137826400e-003
      -8.0172890302118188e-002 6.7799249020237401e-002
      1.1870115926553375e+000 -1.5090226318961231e-001
      3.3989196480181498e-002 7.9189929767440909e-002
      1.0008809014628238e-001 -3.7783933378658052e-001
      7.1991491084990678e-001 -1.3595016856976602e-001
      4.8257416436566267e-002 1.8761360307839020e-001
      -2.7608268344665071e-001 2.7466164482679872e-001
      -3.2363477255166162e-001 -8.2951203137544102e-002
      1.4860198302758196e-001 1.1980402142385765e-001
      2.5562873978371242e-001 -1.8457472607965181e-001
      8.4838515185186231e-002 -3.0833004631327726e-001
      1.7582413746107212e-001 2.4149854125215926e-002
      -4.3652137370344984e-001 -9.3826853241543898e-002
      -1.0031990732891645e+000 -2.6251436444493955e-002
      3.8339984769861807e-001 1.6111439726097179e-001
      8.5498198019935046e-001 -9.3554657828848406e-002
      -3.7288457512738227e-001 -1.2738318056429940e-001
      -4.4913151369010013e-001 6.9633638122500063e-002
      -1.4683440598467851e-001 -1.2638706336982206e-001
      -5.5712494108557098e-001 3.4656283376592339e-001
      -7.5312554921959707e-001 -2.7319790692236368e-001
      -1.0139926488475648e+000 -7.8437084320478556e-001
      -2.8891368978232763e-002 -3.6106809833631084e-002
      -1.3586964851238487e-001 -2.0933571112309486e-002
      4.2952923732937459e-001 5.5204967488717727e-001
      4.6845737063600623e-001 9.4947663381433942e-002
      1.4476134308675248e-001 -4.1656750761978334e-001
      4.5111990954155917e-001 2.3795272945746077e-001
      4.8309531966529135e-001 -9.3916452323727373e-001
      2.2440334691705979e-001 8.7498204411642563e-002
      -3.1419393721894734e-001 1.2299757695921142e-001
      1.1443405264509710e-001 1.3778169653429782e-002
      -2.2233768784655650e-002 1.6849450527911680e-001
      1.2658546914242619e-001 -1.0188459798558581e-001
      -6.3972344771972096e-003 -4.2025004688842971e-001
      3.2467231514132128e-001 3.1753061698507151e-001
      6.7154398710595142e-002 -1.7711075816166164e-001
      -6.3879343159255975e-001 2.2008721685928517e-002
      -4.9638267358083310e-001 9.8419768704777658e-002
      -1.4570658314904356e-001 5.6745434214995405e-001
      -1.6548131055658136e-001 -1.2907455775736582e-001
      2.8052871644665983e-001 -1.6294825072498667e-001
      -6.4628445921010902e-001 9.1989266056979449e-002
      -1.1247949006844074e-001 4.3756393834228657e-001
      1.7357387539185024e-003 -3.2154390829401185e-002
      2.4907101910409732e-001 4.4502970294079397e-001
      -4.0559473262469080e-002 -5.2815079404429943e-001
      -1.4408653143446654e-001 1.5103579442347583e+000
      -6.4595158117825305e-002 1.1444571645079529e-001
      -2.0807615555944878e-001 1.5903963903860352e-001
      -4.5983310402120819e-001 1.3571507851667355e-001
      9.2333762985325751e-002 1.3885857532746113e-002
      2.7614208315618405e-001 4.7185220798452790e-003
      9.6590822464251214e-001 -1.3289424500656380e-001
      -1.7607375270262732e-001 -2.9577656903495414e-001
      2.3189914610058045e-002 -4.6055637389494120e-001
      -1.7442147947920508e-003 2.1089029551167685e-001
      -4.7560870402927025e-001 -2.4610667991377227e-001
      1.4461264493902654e-001 -1.1678172466593198e-001
      5.0435416559231616e-001 1.1756962346055100e-001
      -9.8322569951336064e-002 -1.0542084361964757e-002
      3.5271009068219455e-001 -1.1368139852646575e-001
      5.7193141164880980e-002 2.3633138784637039e-001
      -8.4755789670236698e-002 -3.2132872061267909e-001
      1.3860268680934631e-001 -2.3882221292222616e-002
      -1.3681950740852186e-001 -7.8026238791383729e-001
      -1.7019803497392857e-001 3.5641847093394008e-001
      -1.6728027503676796e-001 -3.3745529885193098e-001
      -2.7245848716870708e-001 2.0151125096691222e-001
      3.6472914259095973e-001 -3.8787602559693174e-001
      -1.4082618125916316e-001 -8.6147564411352315e-004
      1.7849704331285915e-001 -1.5306882038042292e-002
      -1.3079077369201950e-001 4.8921850547415935e-001
      -4.3072993240362303e-002 1.6392654912734936e-002
      -2.2697073844577240e-001 7.6965031552863453e-002
      4.2872411460220160e-002 -5.9084717765855310e-001
      1.9130509751037655e-001 1.0160757987212095e-001
      3.9704444068877270e-002 -1.2262592364297775e-001
      5.9475961407140965e-001 6.1708309959915753e-001
      1.4741329534300434e+000 1.1753543404333328e-001
      2.6313314145545363e-001 1.7369837514533876e-002
      -3.4978186716470844e-001 -3.2542281464508871e-001
      4.3936736217232258e-001 3.8333882239677614e-001
      -1.3297569165923920e-001 -2.5944006550297893e-001
      -8.8941947276108782e-002 1.5020657745524725e-002
      -5.8721598104942554e-002 -2.1552729456998046e-001
      2.7157253474971160e-001 2.2251304328477353e-001
      -1.1157458320263290e-001 -1.8889082365806972e-001
      -2.1430766118586596e-002 3.6420691664134797e-001
      7.3227904387449405e-001 5.1902427765877994e-002
      1.4177721852601666e-001 -1.3667906367282939e-001
      4.6537128647703395e-002 2.0286436387889556e-001
      -3.0498830586000097e-001 2.3081839063308027e-001
      -2.9556406717108002e-001 1.0860175005825276e-001
      -2.1720068874264664e-001 -1.2195075226123869e-001
      -1.3362668815735144e-002 -3.4836653569485715e-001
      -6.3792013735711339e-001 1.4012065281385791e-001
      -2.0334258908984557e+000 -4.6287867272168270e-001
      2.0377638663088279e-001 -3.7780611332671976e-001
      8.4044300541674569e-002 -3.1833966067097742e-002
      -9.9860596507582944e-001 -9.9114542265079919e-001
      -2.1488865698721957e-001 -6.7174958046788746e-002
      5.7004028338131996e-001 -1.3445289879173730e-001
      -3.5085193267818859e-001 -8.9126405840199985e-001
      -2.9628621785048370e-001 -5.8530571898633765e-001
      1.3530757998622459e-001 9.3044872462412109e-002
      2.2323771317359332e-002 1.5786934650531106e-001
      6.8078410170106143e-002 -2.1162455592990223e-001
      1.6917378698278844e+000 1.2221088787573855e+000
      -3.1467338691149846e+000 8.5372763517840189e-001
      3.8933328756997870e-002 7.8320659362901268e-001
      -1.5000507792906739e-001 2.5584988565082214e+000
      4.7926620720500807e-001 7.0433888769825925e-002
      -7.0227397418726190e-002 7.4527484379496522e-002
      -1.3630554228263070e-001 5.7271379567272560e-002
      -9.6874597418421388e-002 2.9823917106426440e-001
      -3.4815479148767189e-002 1.3741748397758993e-001
      -4.7102684551786691e+000 1.2212401903197131e-001
      4.1594442096410572e-001 -3.4035264852194693e+000
      4.1517990140672876e-003 1.0841395823622143e-002
      -1.9797400834804098e+000 -1.6622147112085677e+000
      9.5746456140372332e-002 1.7235333599951649e-001
      6.2465724577258674e-001 1.4675168833745552e-003
      -1.1425778660612627e+000 1.3597576724953803e-001
      -2.0918442135487303e-001 -1.9015560753345212e-001
      3.4021595236456920e-001 -2.1011378915288181e-001
      1.1111658297664939e-001 3.3487069391589019e-001
      3.0729074820392033e-001 3.0429659906166390e-001
      2.2605994166614711e+000 4.9160975842048160e-001
      -2.8971868670732128e+000 7.8524168434453068e-001
      6.9719181880342596e-002 3.5035699763104569e-002
      -2.7209489517156887e-001 1.5269466666073617e+000
      6.7890882621023019e-001 1.4038330556600787e-001
      -7.5947683686013290e-002 5.8127293769311791e-002
      -3.7174837191961463e-002 -9.3418052189854828e-002
      -1.3660607798199310e-002 4.6583299491165686e-002
      -4.5597924946138041e-002 -7.5236721381549271e-002
      -3.4670199607745582e-002 -3.1782498981197460e-001
      3.1503260359670507e-002 -5.8511781724368150e-001
      9.8796520916870828e-002 -1.8012734663940277e-001
      9.8856755046110564e-002 3.1281263753423449e-001
      -1.0627703472071931e-002 6.1152968746780445e-002
      1.9685122755860544e-002 -4.4305793986597876e-002
      -6.1436977831585936e-003 1.8095457602079531e-002
      -1.1591654731624861e-001 -3.2061474580927909e-002
      7.1093366043204376e-002 3.1205898927456226e-002
      2.0003945598395027e-002 -7.8307251615866418e-003
      -8.9187405714535734e-002 8.1740152793208870e-002
      -1.2654613898712727e-001 1.6140607576850485e-001
      -6.8340769982770926e-003 -4.3133041886853400e-002
      -5.9530919172314945e-003 -8.4396229875946388e-002
      3.7697608235493410e-002 6.1940406467376821e-002
      1.1130206043380808e-003 1.3450445812959025e-002
      1.1770027918737068e-002 -1.8988807558348902e-002
      -1.3850592917207238e-001 3.3217708481983223e-002
      -8.5843737430230174e-002 -1.0514771381267091e-001
      4.6185050973723612e-003 -9.9457726246347140e-003
      1.3115145323701680e-001 1.0313531521961321e-001
      7.2254300748143818e-002 -7.3867869372970651e-001
      -4.1001992326163542e-002 3.3159098018377131e-002
      -1.0196748705865416e-001 9.3216801158908610e-002
      -2.5083846688976508e-002 1.8025866825350373e-001
      -1.4396737480865893e-001 8.2486024263038901e-002
      1.3860504977022534e-001 -3.2537276996899311e-001
      2.9855087148613729e-001 -3.0003806179690898e-002
      -9.9778398627355741e-002 1.2626886511319813e-001
      -9.8197038665558456e-002 1.4346437748209925e-001
      4.8777745166287412e-003 -1.4829660588922919e-001
      -3.0014248464898263e-001 -5.4528088250834383e-001
      4.0973571464663044e-001 5.2040037938179173e-001
      -4.8735393570231522e-001 -4.8308721943959819e-002
      -1.3292093414584508e-001 -1.7469623608703613e-001
      9.2102530481114220e-002 -4.9572378243666115e-002
      2.1661353450562557e-001 -8.1663268982478041e-003
      1.5530767953065727e-001 -6.6129995599772978e-002
      -3.3833007237020277e-002 -6.0299437042018733e-002
      2.3912640969917541e-002 1.4329918445947987e-002
      -5.0760521993832144e-002 -2.4163196642795415e-002
      1.0350722053790438e-001 -1.6152134066777837e-001
      -3.7171101515589505e-001 -1.6388627764806141e-001
      2.2007858908918093e-001 -6.2712883496521821e-002
      1.5365191632803671e-002 -1.6726935756741351e-001
      -2.3392974826421018e-003 -3.4766182294437044e-002
      2.0305386840466611e-002 -7.8887062640011166e-003
      3.5992629649965073e-002 -2.1758799563326658e-002
      1.1008603433001914e-002 -2.5444290429461877e-002
      -1.3527799675029151e-001 2.7033493611453768e-001
      -1.4445403081164954e-002 -1.7281317963577306e-001
      3.2658166958338987e-002 8.0510158542510313e-002
      5.7405589005424951e-001 -8.8028278575609090e-002
      1.6342233459950181e-001 1.2295294481918066e-003
      -4.9885092653115908e-002 -2.2292410230539867e-002
      3.5626917333544381e-002 3.3654353692796193e-002
      -4.4720640461456002e-001 1.6017682973235059e-001
      8.3482983217808823e-002 -8.5733587122525046e-002
      -6.1158744916887713e-002 -2.9835549975119191e-001
      5.1060249889604081e-001 -2.2651882476336352e-001
      -5.3892746460775873e+000 1.8462549079646759e-001
      1.1435650083222931e-001 -6.1112150626901902e-002
      -1.0909272120956538e-001 5.6234697213103757e-002
      -4.3706409924097384e-001 2.8124918995477682e-001
      -1.8846698693335032e-001 1.2473265024498381e-001
      -2.6993765675324632e-002 -3.1721285486624118e-001
      4.9455628647314687e-001 5.9051350353467227e-003
      7.0217893390445957e-002 -1.1569954352252083e-001
      6.0118553837558125e-002 -8.0081694375377419e-002
      -4.5174850849273709e-002 2.7809705256570638e-001
      5.4664735726107339e-001 1.4920008722916700e-001
      1.2319672716042777e-001 8.0484879687219117e-003
      2.6792259890676923e-001 -3.6899164755828891e-002
      1.3843439381408540e-001 8.0915130586829398e-001
      -8.7906125637691762e-002 -1.6426534238685338e-002
      -1.2994772079508100e-002 3.1531536365193186e-001
      -6.1444066868318166e-002 -3.5328943235244249e-002
      -3.2987134609387908e-001 -1.9499240002821311e-001
      8.4508396049733120e-002 2.5554334956985647e-001
      -7.9899822028038942e-002 7.1962266132772817e-002
      -4.7885312697377072e-002 1.7350237296726090e-001
      -1.6310503136561355e-001 1.6511641573488681e-001
      4.9988574276091136e-001 1.2087316710402236e-001
      -5.2073686568422461e-001 -2.1688245913572177e-001
      8.4566222684493306e-002 -7.0773736863499626e-001
      2.1005539894254646e-002 -5.1757055497731164e-001
      4.4781029031752861e-001 -5.7357271137048325e-002
      8.5190778740017264e-002 7.0661331645976710e-002
      1.9342576743797762e-001 3.0740718358489139e-001
      -4.7509288836680066e-003 -3.6276793428618653e-001
      2.0171666781679690e-001 -7.1473674457403991e-002
      2.2693045447277557e-002 -2.5711411840052917e-001
      2.1349942748295953e-001 4.0122008657937536e-001
      4.6557768847511366e-001 -1.4700590006395897e-001
      -1.3283328575884809e-001 5.4476132181760284e-001
      -9.1680308646757788e-002 -1.3169157926518815e-001
      -7.0430687816997817e-001 -1.4790452917792005e-001
      -6.4694286788983993e-002 -8.2134192101802672e-002
      -1.1213484458420648e-002 6.7388642922579858e-002
      -1.0702396709028668e-001 8.9406520471452144e-002
      9.0344210278582901e-002 -5.3305995997551525e-001
      -1.7575460163260498e-001 1.9320665222063810e-001
      1.8018009247903127e-001 -8.7681259960839975e-004
      2.8673755175441024e-001 -3.6333895758187032e-002
      8.7332260433180664e-001 -4.0272049132239840e-001
      8.7040016809158391e-002 2.3058492655932006e-001
      -4.2364338937475099e-001 1.1300904375514063e-002
      3.2646913849122422e-001 -4.5871146566032744e-001
      -1.2524317149223649e-001 -7.3773932676771820e-003
      -2.7975201797307347e-001 -1.9139617696745087e-001
      -2.9147575983991196e-002 1.3596934921903348e-001
      9.8856555092459650e-002 -4.3511956586013312e-002
      -2.6377970140250195e-001 1.8489434231406088e-001
      -4.9095654705990942e-002 -1.0158285357560097e-001
      -4.9538607827224462e-001 -6.3457168059656765e-003
      -1.3438049774515984e-001 -5.3936180553560309e-001
      7.1749102688949164e-003 -1.3214816742117377e-001
      -2.4223148518008986e-001 1.8319759387221479e-002
      -7.6634980365515221e-002 -5.6722418933089291e-001
      -1.7267840434569498e-001 -1.1700265507214427e-001
      9.9273774625118827e-002 -2.7304593189827715e-002
      1.6511480681630822e-001 2.3564181607849088e-001
      -3.1987589430606417e-001 4.5462967633779616e-001
      2.0939122696703075e-001 2.6924509066662411e-001
      2.1335875216947853e-001 -2.2875105768693754e-001
      5.0950598162148553e-001 2.7960779048448187e-001
      -4.7000031316877572e-001 -3.2873107167321489e-002
      3.3016045528693799e-001 -2.9653151820935225e-001
      5.4916403151278326e-002 -3.4417596213674034e-001
      3.3093275319863120e-002 -1.9741668893340655e-001
      3.0331020331523417e-001 -7.1921504465106659e-002
      9.6066990266554597e-001 -3.6816185326298834e-001
      9.0266837290493185e-001 -1.4695847027190578e-001
      -6.8568940996027516e-001 -9.8104619030739637e-001
      -3.8854501976946523e-002 -3.3185980214365945e-003
      -3.2146230715862750e-001 -3.0565753587814637e-001
      3.1533327522282550e-001 -2.7064845589362641e-001
      -1.8267054612954425e-001 -1.7828022302520624e-001
      -1.7250683177158485e-001 -2.3571830290335860e-001
      -9.6736548874886780e-002 4.6387595164498807e-002
      -1.2972164995810917e-001 2.0294148769689058e-001
      -7.4419756593283509e-002 -4.0896372773993528e-001
      -3.6947454180925182e-001 -1.5312274127708494e-001
      2.2387667629506686e-001 -1.0753771251534536e-001
      -1.8353057718661614e-001 -2.8111406533330423e-002
      -2.7292922752769955e-002 -1.9799690780835000e-001
      -4.7568145589579891e-001 -1.7161252086419973e-001
      -1.0169932024566575e-001 1.7381587418765332e-001
      7.9720138286682271e-002 2.8850331936249130e-001
      2.5738055403437915e-001 1.0366300423830205e-001
      4.4911609842596290e-002 -2.9871047487177713e-002
      3.6315229943546440e-001 6.4294184951940711e-002
      2.9475318400775902e-001 1.4460282784837589e-002
      6.4628850920033523e-002 -6.7356314561389530e-001
      -6.1818504748650041e-002 2.3411771394463371e-001
      2.1450913338576874e-001 -3.8492841206571310e-001
      2.2285262396140836e-003 -7.7591436920269674e-001
      -2.2042076589758788e-001 -2.5513508067758081e-002
      -2.4479137110249106e-002 2.7809217554974133e-003
      -1.0567993496836886e-001 1.4548377305085056e-001
      -2.4302885675600026e+000 6.7183801589004166e-002
      6.5912514114725665e-002 -1.3474362625736518e+000
      -9.3362707620842408e-002 -1.5747642932283287e-001
      -1.3796113664595930e+000 -1.6459074506349729e+000
      -1.8155623453057304e-001 -2.7048072993145983e-001
      1.0564557034330646e-001 -5.6576953053102008e-001
      -2.8132585219367251e-001 6.8784287286410908e-002
      -2.7740010793619424e-001 -6.5442023003300931e-001
      -5.3011938759443364e-002 2.4991965633669386e-001
      1.2643823394370439e-002 1.0894776676556439e-001
      5.2920146739890106e-001 -1.9666325601548162e-001
      2.2705695066517544e+000 1.0157542853708219e+000
      -2.0068572491401739e+000 8.2588492680900483e-001
      1.8089674481876969e-002 7.7704553703984591e-001
      -4.4390570027107051e-001 2.5455277991879099e+000
      4.6689136768865253e-001 -1.8111704937356277e-001
      -1.1744765481626576e-002 2.8743798280326011e-001
      -1.5998079478456481e-001 8.4987092947823958e-002
      -9.7457417258848628e-002 7.0762211404637853e-003
      6.4915516047274663e-002 1.5080080858353953e-001
      -4.7041361664015202e+000 1.0022788401820258e-001
      1.9220939176396992e-001 -1.0288172120479655e+000
      7.5809718004313228e-002 -4.6663240072538872e-002
      -1.1463829976048614e+000 -1.5280796252133089e+000
      -9.5233753643300473e-002 -4.6368667475675182e-003
      5.6181124410865188e-002 -1.2203223689188322e-001
      -8.6317271079716568e-002 -1.0029926921033094e+000
      -2.2171419956974850e-001 -9.6001449825513119e-002
      3.2613781340994652e-001 5.6086907554084485e-002
      8.8059415706739658e-003 3.3564185544851066e-001
      -2.9286372851637259e-002 2.1828140683334885e-001
      1.5226748792478326e+000 4.6657461168744330e-001
      -1.4022466595922798e+000 8.9768285003118853e-001
      -3.9826098013798522e-002 8.0652249747341109e-001
      -5.9468754979810148e-002 1.5061253666366770e+000
      9.2203705668696756e-001 1.2513590691732185e-001
      5.2456136570336667e-002 4.3301641928031168e-002
      -3.5532509213558404e-002 -4.2534796363295585e-001
      1.5676373890921769e-001 -1.0473797589171845e-002
      -8.4686610859795827e-002 -5.7585382139883082e-002
      -5.3055020169452249e-001 -9.9451489904386403e-002
      1.9392028331738162e-001 2.8925486723056673e-003
      -2.6803476718645289e-002 -5.4066827817789556e-002
      4.9621528875986143e-002 9.4961663770774279e-002
      4.2133258841248730e-002 2.2976040869892501e-002
      -1.3427897794718245e-002 -4.3146170389328373e-002
      -1.2313970976791508e-001 7.3178096666297598e-002
      -7.6324779193320619e-002 1.0761143996897963e-002
      5.3425260119720513e-002 -1.4203757671672673e-001
      -5.5901436356352995e-002 -9.6182964033675628e-002
      -2.7579809237891405e-002 5.3899799898553414e-003
      -1.8276617531108594e-001 -2.2539468590358847e-001
      -1.2189696265088597e-001 -1.8420263247206192e-001
      -5.8325004202879061e-002 -3.6177332663729195e-003
      -5.7048163709230867e-002 2.9527065523969470e-001
      -8.3943100343861030e-002 9.6924321356702439e-002
      1.0882564623587873e-001 -1.6413424985708072e-001
      -2.5214387027416163e-001 1.5076454250233148e-001
      4.6872305554018279e-002 -1.2896480635255675e-002
      2.0486287555105567e-001 6.0861548454947678e-002
      6.4773578355341338e-002 1.4766749903623130e-001
      2.5701105754073878e-002 -7.4003842366969430e-001
      -2.8525274736481122e-003 3.0045322424232490e-001
      -6.4609423434160385e-001 1.1016703812071041e-001
      7.2621268063103339e-001 1.6428908586948293e-001
      -6.1213711649341182e-002 -2.9688956701361652e-001
      -4.5890505492796507e-001 2.5524645916620070e-001
      3.2266697598644312e-001 2.6748756298769183e-001
      -1.1595441991426961e-001 1.3222503148910064e-001
      -2.9012901927516005e-001 1.3600289960425549e-001
      1.0364461639131448e-001 -2.5091892494731766e-001
      5.0557846449301647e-001 -7.4309654565472547e-002
      8.9895233305818154e-002 2.9139843505552931e-001
      -9.0025855013834935e-002 2.7818794875343000e-001
      -7.2993078257403074e-002 -1.6968042037921405e-001
      2.0632058882986467e-002 2.4924203919911764e-001
      2.9876288121774586e-001 -4.6383108768198916e-001
      -6.1901100697496353e-002 -7.9913704685501588e-002
      -4.3392043951152613e-002 2.1276579577029603e-001
      2.9989160315974615e-002 8.0092152678245473e-002
      3.3697473891826799e-002 -8.4309022587957291e-002
      -1.1348400847564018e-001 3.0099164938734584e-002
      -1.5678988967334573e-001 2.4751657471971883e-001
      -9.3368127273721013e-002 -7.6370844506287977e-002
      -1.8502029232784170e-001 3.5048010926226458e-003
      -2.3844848167502087e-002 -2.0459137432793109e-002
      -6.7883550001248250e-001 3.7158288110050591e-003
      3.5861442835768037e-001 6.8015954471761675e-002
      5.8403197065849288e-002 -1.2986611313261934e-003
      -5.2857015034006347e-002 2.0482565863810651e-001
      5.7041871421434333e-002 -1.7140023697169472e-002
      -5.4489413250613253e-002 8.2308676586183127e-002
      1.1704408767696776e-001 -4.2254478873423762e-002
      -1.6630059040001327e-001 5.5138683988376458e-001
      6.3176169158647632e-003 7.3055740992426205e-002
      -2.8405930401801994e-002 2.2323127095257997e-001
      7.1729123248553861e-001 -1.0688695498879008e-001
      -1.4334713676769148e-001 -1.9798215809295150e-001
      -8.9098352984851043e-003 3.8124657182503102e-002
      2.1181388764608933e-001 -2.2034122757358923e-001
      -2.1786679976715270e-001 1.5577093965276548e-001
      2.2259904732006681e-002 3.0718191693162780e-002
      -4.4252125285328581e-001 1.4154151068731258e-001
      -1.2615593615817202e+000 -3.3734664963236233e-001
      6.7549675423462366e-002 1.6842586110519209e-001
      2.5072158066169396e-003 -4.2610838586539822e-002
      1.0665586261017358e-001 1.2307217268091469e-001
      4.0742359329461381e-002 -1.6172758635034862e-001
      1.5017430849886079e-001 3.4508990041632923e-002
      -1.1977125993185811e-001 7.8161541605163321e-001
      2.5028550856593113e-001 -9.4643647761692137e-002
      -2.8841886060575785e-002 -1.6071862810112611e-001
      1.4489599189634811e-001 -7.2340714160118211e-002
      -1.8089558296370481e-001 5.7198779836715674e-002
      3.3006703257551478e-001 5.7312695248062026e-002
      -1.1217935580660690e-001 9.6274936122983296e-002
      4.7882533542454631e-001 4.9503621449541568e-002
      1.0960001478096839e-002 -2.2653013805017944e-001
      1.1831876214785436e-001 2.1194031511659109e-001
      -2.3578622937773733e-001 1.2516327485870296e-001
      1.2064763261805957e-001 -1.3849235822076825e-002
      3.6518493897951915e-001 1.5791564782548009e+000
      1.4475960492191489e-001 2.5097490153441798e-001
      3.6672764313431049e-002 -8.6016078443250293e-002
      2.3769764113291400e-001 1.0761299779514346e+000
      -7.6559989274034762e-002 6.7846727087677583e-002
      2.9788625690304044e-001 1.6556115557051784e-001
      -5.2523573386514655e-001 -4.8541892427552809e-002
      -8.0157799934758855e-002 -3.2149268270593656e-001
      1.4501955633047975e-001 4.5633891455151399e-001
      1.5747814043876179e-001 5.0019188234199305e-002
      -4.5894362774622333e-001 3.0021601651290857e-002
      -6.2779683972960210e-001 1.4019089637207080e-001
      5.2917668247413707e-001 -4.4319268638883663e-001
      3.7946702422288606e-002 -9.6915160710922321e-002
      1.4140518186324824e-001 -4.3234695454937816e-001
      7.0307719060657109e-002 -1.5074978264361983e-002
      3.6927492274423962e-001 -1.3135844184395210e-001
      2.9661803008175813e-001 1.3943516716524540e-001
      -2.5977386493063481e-001 5.9238718549634905e-003
      1.8019462544505221e-001 -2.7738813639487220e-001
      -7.0986287211826010e-002 4.8203979835101263e-001
      1.9322498880488245e-001 6.1498671027441247e-003
      1.2526731546230457e-001 6.1143603073835782e-002
      -1.1298971101370726e-001 6.0828789373273218e-001
      4.1936137841723076e-001 3.8965633041581393e-001
      -4.7608033559276475e-001 1.7019720076344788e-001
      2.0773306189142368e-001 -2.8703196857009672e-001
      -2.6896740827328192e-001 -6.7540776514374312e-001
      -3.5061875047273233e-001 -4.6322861568793089e-001
      2.1634549052035024e-001 -4.6608709700713830e-001
      4.5110285471225081e-001 -1.7434656937724566e-001
      -2.9773494868239075e-001 1.3894973055691745e-001
      3.8185773393154189e-002 -1.7815103978816230e-001
      -2.7985298070276131e-002 -3.5940193372756007e-001
      -1.7420226240304559e-001 -8.1421806618291603e-001
      5.2857126747771849e-002 5.6157150542479672e-001
      9.3892614126305021e-002 -7.9259710955931151e-002
      1.8632873198166272e-001 -1.2859195609058180e-001
      -9.4524395387685853e-002 -3.6312142491466054e-001
      3.6092938676902261e-002 -1.3346834462800078e-001
      -7.7724775825170289e-001 2.9334047376117126e-002
      -1.0932133573711069e+000 -1.4128095398240040e-002
      1.7457210400571138e-001 6.6299500930010288e-002
      -4.6570543410095827e-001 4.2230589522192902e-001
      2.5232071923030835e-001 4.9453162034026957e-002
      -6.3594667317656350e-001 -1.5473013869622974e+000
      -5.9982047149550100e-001 -2.7788940217261887e-001
      2.1722444957207024e-001 -4.5526039546875641e-001
      2.3033356319379658e-001 3.4820544989231018e-002
      1.0994836937305209e-001 3.4893084748592884e-001
      5.4681988499490419e-001 -5.2263290112453054e-001
      5.0922466301130856e-002 -5.3098220613031863e-002
      -4.1589087933244012e-001 -2.1655376616521510e-001
      3.0510876866027242e-001 2.0660021847684878e-001
      2.5871649454993528e-001 -1.1643362146741008e+000
      4.6631035345978156e-001 -9.6704421104407620e-002
      -5.1420590664743193e-001 1.0842181287548827e-001
      8.0031911349471366e-003 5.8119958390127305e-002
      -8.7063344286821512e-002 -2.0652208658168220e-001
      1.2122941675093667e-002 -1.0744986019481619e-001
      -9.1665900506335732e-002 -1.2976565171930468e-001
      -7.8136565954986592e-001 4.6919866437439492e-002
      3.0233446923290828e-003 -7.0833544090677950e-002
      -1.6052154131164242e-001 2.6708164662485989e-001
      -1.1747896500258975e-001 8.5259998590856617e-002
      1.2673538884445637e-001 -1.9508823140680523e-001
      -5.7420811146412523e-002 1.4792501472157545e-002
      1.9665598638643696e-002 3.9855795317910753e-001
      1.2485346633336626e-001 1.6736462411294387e-001
      -9.7022414441069321e-002 4.3035787092148470e-001
      1.4664890884978232e-001 1.2059830479201648e-001
      1.6655362723266001e-001 -3.7967970375128113e-002
      -8.1546188021898017e-002 -3.5935079459546451e-002
      -6.4009163942458629e-003 8.6609017189873877e-002
      2.8017565988024701e-001 -4.8672656828724029e-002
      1.8710296912364063e-001 -7.0302552595017567e-002
      -1.5103463822798227e-001 -1.7535807217246047e-001
      -1.1649053330478776e-001 3.7536807378529913e-001
      1.0573923257620892e-001 2.4626662383869537e-002
      -6.9896270966770366e+000 8.1908041776857607e-002
      3.5037583828973018e-001 -2.8732721036838051e+000
      -1.7824366028518338e-001 2.3006181667846129e-001
      -1.3676412780610625e+000 -1.6548179941126471e+000
      -2.0612926385375085e-001 1.3604040100816248e-001
      8.9696859923555194e-002 6.2430289303338260e-001
      -3.1714428915874049e-001 5.9517105636663703e-001
      3.1240716951751540e-001 -1.7411559208375345e-002
      -3.2238176456780049e-001 -1.1115229390688987e-001
      -1.4902023419969723e-001 4.0894879789243388e-001
      4.0414463717268279e-001 -7.2812592859401693e-004
      2.6659434135230651e+000 1.0608888404440509e+000
      -2.2856561228629757e+000 9.3461228884897472e-003
      -2.6309270396539464e-002 7.9507645056253562e-001
      -2.2322517164305866e-001 1.6025757006683938e+000
      1.1125596348825691e-001 2.9101061607457185e-001
      1.4512285266637610e+000 -3.0772174827602389e-002
      -5.8810797037819851e-001 7.1610429549033794e-002
      7.5702924387224160e-002 -5.2304154633737866e-002
      -7.6092205918391692e-002 1.4609611859748087e-001
      -1.6663498348816070e+000 8.7229448419448727e-002
      4.1342505886428443e-001 -6.9708316696589168e-001
      1.7713161172391328e-002 -8.2962278558868549e-002
      -1.8841503627836442e-001 -6.2343926140789629e-001
      -5.0568595019202550e-002 -1.5621147612749381e-001
      -5.1786251071178499e-002 1.9655381783607084e-001
      -5.5561312644674188e-001 8.7205996827239687e-002
      -2.0614610516668525e-001 -2.0765056633690665e-001
      2.0924016790683775e-001 -3.5752225488805155e-002
      -8.9858517753949554e-002 6.7099330777781119e-001
      2.6448416802219338e-001 -4.6162054049471213e-002
      2.2539866895844156e+000 7.4547939710495803e-001
      -6.6647794785017234e-001 8.2437545008942703e-001
      7.0432375059118535e-002 2.7858135287915248e-001
      -4.9370298511835958e-001 1.6523965607223505e+000
      6.7607715210951869e-001 3.8527194187043021e-002
      4.7903312013031363e-001 1.1877928035113658e-001
      -7.1723281627587510e-002 -1.4656988207726401e-001
      -7.1040975393808214e-002 6.3439334195111016e-003
      -3.0610586263050160e-002 -1.0357734091855797e-001
      -6.2756389723109901e-002 1.0768836630936675e-001
      1.8104756839310651e-001 -6.5754876960495723e-001
      1.2793857423629104e-001 5.7273904334085260e-002
      1.3468845665251719e-001 -3.9051781642355940e-002
      2.2121504452900109e-001 -1.3079378667934499e-001
      -2.5777937005521562e-001 2.5916681672862877e-002
      2.6020955696773797e-002 -3.0951610315865533e-002
      3.4388025727732624e-001 -3.4860272795526767e-002
      3.1872384999775662e-002 5.0976337244132336e-002
      -9.2936202833340018e-002 -7.5450640789953866e-002
      -3.8630904129991837e-002 -3.4677196025559090e-002
      -3.9771269403853293e-001 -9.0218516065553298e-002
      -1.9452024953020364e-001 -1.8012725477046904e-001
      -9.7838141566418027e-002 -1.7030890310312963e-001
      6.8202451200819289e-002 -1.0833576687919372e-001
      1.4562842278493324e-001 -7.5111918303735078e-002
      -2.0902196113921823e-001 1.6006413864480959e-001
      -8.2029268374056441e-002 5.3443649566955687e-002
      4.2266710396271868e-002 -4.5336376475626362e-002
      6.0977849610830123e-002 -7.7506416718813205e-004
      1.9707110288786636e-001 -2.6090313515163993e-001
      3.2878996375433393e-002 -3.3027401492898201e-001
      2.1353359651107569e-002 -1.6115456547964202e-001
      -4.7639051459528836e-001 9.7018145381773835e-002
      1.2401341271405022e+000 1.3469128740460268e-001
      9.9109696944146536e-002 -8.8435508749677164e-002
      -1.4154040070886606e-001 2.5899143053314388e-001
      3.4456315788992842e-001 7.6600636324493290e-003
      5.3396164122987519e-002 1.3069912771225978e-001
      -3.6172490247309269e-001 1.7050391277376484e-001
      5.6214326295568141e-002 3.0290587833284999e-001
      7.4413209772257327e-001 -1.2195081717875528e-001
      5.4513415970304402e-001 2.5693466811957388e-002
      1.1015332369758428e+000 6.2888868606760262e-001
      -9.7944741231653976e-002 -1.5517469782600324e-001
      -4.7350996260962074e-003 2.2853191588357344e-001
      1.0209055057750986e+000 -2.8184702214666839e-002
      -1.0514119026286556e-001 -9.7734147944291749e-002
      -2.3109407161164330e-002 -3.6451317195259826e-002
      3.5382402055612383e-002 5.0258846691365794e-002
      1.7429076014549244e-001 -1.6445344719048871e-001
      -1.1487345574073063e-001 8.5630320173131075e-002
      -7.2499384736110548e-002 2.7095165342178829e-001
      -2.4757882666871495e-001 -8.2353820935565480e-002
      2.0321225552316816e-001 7.6876759026992522e-002
      -4.9773108358295154e-002 -8.8568312716986439e-002
      1.3723347355566987e-001 4.2746745026544958e-001
      4.6979747684569723e-002 6.3120758125211979e-002
      7.7719390561864860e-002 1.0731628072652388e-002
      2.7580714868423678e-001 1.8040487290305549e-001
      1.4582036712961247e-001 -4.4445648740128615e-002
      8.4871425134317738e-002 8.0462885647764618e-002
      9.0464837690371322e-002 -8.4897145578386721e-002
      -1.4096337673939199e-001 5.7683233064327544e-001
      -8.7795547606659453e-003 -3.0631931728887476e-002
      -2.7994792926810466e-003 1.9381886226387862e-001
      3.6963901381180458e-001 -6.4859869009256110e-002
      -1.3289541681182357e-001 -1.8952015877052045e-001
      -4.3772229960595162e-002 8.3091879027677520e-002
      2.9198174634168895e-002 1.5700563578310206e-001
      -6.2049875095262167e-003 -1.0674966982310731e-001
      -2.5905947852503097e-001 3.8377619054196607e-002
      -4.9970839121043872e-002 1.6278639285167190e-001
      2.3298478195643724e-001 -1.3016727694747243e-001
      4.2608957234272565e-001 3.6991985150418183e-001
      -2.1092263751295037e-001 -3.5177224150243512e-002
      1.6764728359009742e-001 6.3986563238027450e-001
      -1.8406225882749445e-003 -5.1527583134588537e-002
      6.2217462200261198e-002 3.7093941239941752e-002
      -5.5907549624422431e-002 1.5009909929968351e-001
      2.9917379817191331e-001 -3.4794015626381153e-001
      -7.3865274814074802e-002 2.6533220762181391e-002
      -1.5787674227571658e-001 -6.6333972197475125e-002
      -6.7712084592816274e-002 3.1690881729737491e-001
      1.7479147161285602e-001 -1.6915350040518685e-002
      -2.4473841155666176e-001 2.3344253539126181e-001
      -2.1005925344542167e-001 -9.3251904577763930e-002
      -3.2584595340695216e-002 -2.3599400173682114e-001
      2.2564519716006919e-002 7.0638090580291066e-002
      7.2808801685338126e-002 -1.5535628558242856e-002
      1.5365009355879444e-001 1.3034142324538234e-001
      2.3753841121988598e-001 4.2346641134838568e-002
      2.1530771677255095e-001 3.8042017459449420e-002
      -6.3338907155846585e-002 6.8170447636713899e-002
      8.2675170153493827e-001 2.3362627824116738e-001
      1.8292950679586417e-001 -4.6461218369129698e-002
      1.5748727609614682e-001 -5.3517186014065932e-001
      -2.8209981932532290e-002 4.8920854740000286e-001
      -1.0026510085505841e-001 -3.5279255741498911e-001
      4.5770459194807850e-002 7.0722055647052820e-002
      2.3157306860914492e-001 -3.0069258222465656e-001
      -4.2383149637746198e-001 -1.7122295973707322e-002
      -7.2981029375942932e-002 -1.3624855453905573e-002
      1.1241795356387374e+000 1.1832545832425299e-001
      -2.4195254644192873e-001 -9.5498546036538998e-002
      7.6375737453225762e-002 -2.4805621429949681e-001
      4.2335954174195965e-002 4.8612288244574092e-001
      5.7863694254695050e-002 -4.2041970440183402e-001
      7.0837043478364808e-002 1.1131805208393056e-002
      6.6185056639339962e-002 -1.3255769366594543e-002
      3.8819324485908074e-001 -2.0795636688715974e-001
      -1.1603388809748910e-001 -2.3147470882070767e-001
      1.7351127544299325e-001 -1.0886120647696397e-001
      -3.7094333264165634e-002 -1.5067035434952095e-001
      -8.0173458415462778e-002 1.6012600738771252e-001
      9.4389847696830198e-001 1.0918143614359214e-001
      -9.3930253958456320e-002 2.3379513775662866e-001
      6.8409628739047657e-001 2.3829573446285968e-001
      -4.1804164865138455e-001 -2.8149456366528243e-003
      4.2989012417598785e-003 4.1471262327252796e-002
      -1.2788724778973730e+000 -3.5454827832378616e-001
      6.0598538243740052e-001 -6.9512050452333857e-002
      1.2256289359655692e-001 -7.2946631186726313e-002
      1.4662827512113011e-001 -1.5884545294461028e-001
      6.0955664993338578e-002 2.7502537814548411e-001
      2.4422757555061625e-002 -5.9626191957323749e-001
      2.1603289748018373e-001 -4.8665104012091909e-001
      1.0123532369896127e-001 -1.8938385096629265e-001
      2.1898912228844616e-001 1.7056453684940259e-001
      7.2115636903887254e-002 -3.4745816317826161e-001
      3.6817236429605021e-002 -6.1969100153107848e-001
      -1.5384849959331431e-001 1.5037090859522523e-001
      -1.3504305046552229e-001 -9.2234911476830761e-001
      3.4639346599109569e-002 -1.0892167852622446e-001
      -1.0639962401518850e+000 1.0979969090536130e+000
      6.0043755765418552e-002 -4.1189805116849815e-001
      1.8767667373492203e-001 -1.2505174082013961e+000
      -3.3452788256124488e-001 -3.6098922921100923e-001
      1.6657093997633976e-001 -5.5434572203355501e-002
      -2.2325601899855227e-001 -5.8644863716296902e-002
      1.6847867859324300e-001 8.5790073785701626e-001
      8.5735961957600570e-001 -8.1538731649971451e-003
      6.0993328340063366e-002 -1.2243935596194109e-002
      -1.8297627759762083e-001 2.4510448362405363e-002
      2.6397131121877709e-001 1.9084086276186663e-001
      3.7547259515472570e-001 4.5052556357784629e-001
      1.0336423411838702e-001 -1.8506064060487021e-001
      1.6027826428588174e-002 1.0096479444108200e-001
      1.4716143110700741e-001 7.2459808995008049e-002
      3.7628604883549266e-001 -2.3644636376809108e-001
      1.3926922590890223e-001 -1.3616293831392142e-002
      -1.8067513460425366e-001 -9.9904878607440684e-002
      -1.8387262555768635e-001 -1.0330813203552820e-002
      -6.1179209016771041e-002 -6.9798270762345418e-002
      -2.1453575675682068e-001 7.2550350369940420e-001
      1.7898654743884784e-001 -1.2740723219314905e-002
      -2.3232578986407731e-001 -2.8215476906259912e-001
      8.4452248136007834e-003 -1.9119984187990061e-001
      3.6442595905231842e-002 -2.0103296747615452e-003
      -1.8174134449802434e-001 -7.2014235273206842e-002
      -4.5574683089007070e-002 1.7010831832073453e-001
      2.6510730754686851e-001 -1.7745394413329246e-001
      2.1416347251151852e-002 -1.6045109002354913e-002
      -1.3699648822725446e-001 2.8677869164024747e-002
      6.4427455670626577e-002 -6.2872541875863330e-002
      1.9970477236278089e-001 8.5221669196191091e-002
      2.6661773943526734e-001 7.1374968505070902e-001
      -1.1327049181629779e-001 1.4835185758018229e-001
      1.1475229361104450e-001 1.2972646822510572e-001
